<?xml version="1.0"?>
<opencv_storage>
<smiled_05 type_id="opencv-haar-classifier">
  <size>
    43 19</size>
  <stages>
    <_>
      <!-- stage 0 -->
      <trees>
        <_>
          <!-- tree 0 -->
          <_>
            <!-- root node -->
            <feature>
              <rects>
                <_>
                  8 0 11 8 -1.</_>
                <_>
                  6 2 11 4 2.</_></rects>
              <tilted>1</tilted></feature>
            <threshold>-0.0461773201823235</threshold>
            <left_val>0.8235852122306824</left_val>
            <right_val>-0.6425034999847412</right_val></_></_>
        <_>
          <!-- tree 1 -->
          <_>
            <!-- root node -->
            <feature>
              <rects>
                <_>
                  5 8 33 6 -1.</_>
                <_>
                  16 10 11 2 9.</_></rects>
              <tilted>0</tilted></feature>
            <threshold>0.2125860005617142</threshold>
            <left_val>-0.3891698122024536</left_val>
            <right_val>0.8808655738830566</right_val></_></_>
        <_>
          <!-- tree 2 -->
          <_>
            <!-- root node -->
            <feature>
              <rects>
                <_>
                  8 4 4 8 -1.</_>
                <_>
                  8 4 4 4 2.</_></rects>
              <tilted>1</tilted></feature>
            <threshold>-0.0101335998624563</threshold>
            <left_val>0.4799757003784180</left_val>
            <right_val>-0.4701048135757446</right_val></_></_>
        <_>
          <!-- tree 3 -->
          <_>
            <!-- root node -->
            <feature>
              <rects>
                <_>
                  2 9 39 6 -1.</_>
                <_>
                  15 11 13 2 9.</_></rects>
              <tilted>0</tilted></feature>
            <threshold>0.2801612913608551</threshold>
            <left_val>-0.1803240031003952</left_val>
            <right_val>0.8318607211112976</right_val></_></_>
        <_>
          <!-- tree 4 -->
          <_>
            <!-- root node -->
            <feature>
              <rects>
                <_>
                  17 10 9 4 -1.</_>
                <_>
                  17 11 9 2 2.</_></rects>
              <tilted>0</tilted></feature>
            <threshold>-6.2310970388352871e-03</threshold>
            <left_val>0.7316871285438538</left_val>
            <right_val>-0.2115404009819031</right_val></_></_>
        <_>
          <!-- tree 5 -->
          <_>
            <!-- root node -->
            <feature>
              <rects>
                <_>
                  15 8 14 4 -1.</_>
                <_>
                  15 9 14 2 2.</_></rects>
              <tilted>0</tilted></feature>
            <threshold>-0.0121207302436233</threshold>
            <left_val>0.7369527220726013</left_val>
            <right_val>-0.1567254066467285</right_val></_></_>
        <_>
          <!-- tree 6 -->
          <_>
            <!-- root node -->
            <feature>
              <rects>
                <_>
                  13 8 17 2 -1.</_>
                <_>
                  13 9 17 1 2.</_></rects>
              <tilted>0</tilted></feature>
            <threshold>8.7330164387822151e-03</threshold>
            <left_val>-0.1837833970785141</left_val>
            <right_val>0.6977276206016541</right_val></_></_></trees>
      <stage_threshold>-1.3526400327682495</stage_threshold>
      <parent>-1</parent>
      <next>-1</next></_>
    <_>
      <!-- stage 1 -->
      <trees>
        <_>
          <!-- tree 0 -->
          <_>
            <!-- root node -->
            <feature>
              <rects>
                <_>
                  8 0 11 8 -1.</_>
                <_>
                  6 2 11 4 2.</_></rects>
              <tilted>1</tilted></feature>
            <threshold>-0.0545967407524586</threshold>
            <left_val>0.7486097216606140</left_val>
            <right_val>-0.5593150258064270</right_val></_></_>
        <_>
          <!-- tree 1 -->
          <_>
            <!-- root node -->
            <feature>
              <rects>
                <_>
                  2 8 39 6 -1.</_>
                <_>
                  15 10 13 2 9.</_></rects>
              <tilted>0</tilted></feature>
            <threshold>0.2674436867237091</threshold>
            <left_val>-0.3735243082046509</left_val>
            <right_val>0.8943225741386414</right_val></_></_>
        <_>
          <!-- tree 2 -->
          <_>
            <!-- root node -->
            <feature>
              <rects>
                <_>
                  11 6 20 8 -1.</_>
                <_>
                  16 6 10 8 2.</_></rects>
              <tilted>0</tilted></feature>
            <threshold>-0.0184454005211592</threshold>
            <left_val>-0.7621489167213440</left_val>
            <right_val>0.3032568991184235</right_val></_></_>
        <_>
          <!-- tree 3 -->
          <_>
            <!-- root node -->
            <feature>
              <rects>
                <_>
                  16 4 12 8 -1.</_>
                <_>
                  19 4 6 8 2.</_></rects>
              <tilted>0</tilted></feature>
            <threshold>0.0320673994719982</threshold>
            <left_val>0.1546929031610489</left_val>
            <right_val>-0.8263328075408936</right_val></_></_>
        <_>
          <!-- tree 4 -->
          <_>
            <!-- root node -->
            <feature>
              <rects>
                <_>
                  12 2 4 8 -1.</_>
                <_>
                  10 4 4 4 2.</_></rects>
              <tilted>1</tilted></feature>
            <threshold>-0.0294651407748461</threshold>
            <left_val>0.5333585739135742</left_val>
            <right_val>-0.3267765045166016</right_val></_></_>
        <_>
          <!-- tree 5 -->
          <_>
            <!-- root node -->
            <feature>
              <rects>
                <_>
                  15 8 13 4 -1.</_>
                <_>
                  15 9 13 2 2.</_></rects>
              <tilted>0</tilted></feature>
            <threshold>0.0128615703433752</threshold>
            <left_val>-0.1849628984928131</left_val>
            <right_val>0.7092614173889160</right_val></_></_></trees>
      <stage_threshold>-1.1919000148773193</stage_threshold>
      <parent>0</parent>
      <next>-1</next></_>
    <_>
      <!-- stage 2 -->
      <trees>
        <_>
          <!-- tree 0 -->
          <_>
            <!-- root node -->
            <feature>
              <rects>
                <_>
                  5 8 33 6 -1.</_>
                <_>
                  16 10 11 2 9.</_></rects>
              <tilted>0</tilted></feature>
            <threshold>0.2541435956954956</threshold>
            <left_val>-0.4239200949668884</left_val>
            <right_val>0.8540108203887939</right_val></_></_>
        <_>
          <!-- tree 1 -->
          <_>
            <!-- root node -->
            <feature>
              <rects>
                <_>
                  36 1 6 9 -1.</_>
                <_>
                  38 3 2 9 3.</_></rects>
              <tilted>1</tilted></feature>
            <threshold>-0.0486988201737404</threshold>
            <left_val>0.5633428096771240</left_val>
            <right_val>-4.5943697914481163e-03</right_val></_></_>
        <_>
          <!-- tree 2 -->
          <_>
            <!-- root node -->
            <feature>
              <rects>
                <_>
                  7 1 9 6 -1.</_>
                <_>
                  5 3 9 2 3.</_></rects>
              <tilted>1</tilted></feature>
            <threshold>-0.0415118895471096</threshold>
            <left_val>0.7090572714805603</left_val>
            <right_val>-0.4340682029724121</right_val></_></_>
        <_>
          <!-- tree 3 -->
          <_>
            <!-- root node -->
            <feature>
              <rects>
                <_>
                  16 10 11 3 -1.</_>
                <_>
                  16 11 11 1 3.</_></rects>
              <tilted>0</tilted></feature>
            <threshold>4.4864509254693985e-03</threshold>
            <left_val>-0.1871473938226700</left_val>
            <right_val>0.5993530750274658</right_val></_></_>
        <_>
          <!-- tree 4 -->
          <_>
            <!-- root node -->
            <feature>
              <rects>
                <_>
                  14 7 15 4 -1.</_>
                <_>
                  14 8 15 2 2.</_></rects>
              <tilted>0</tilted></feature>
            <threshold>0.0126037998124957</threshold>
            <left_val>-0.1845425963401794</left_val>
            <right_val>0.7464966177940369</right_val></_></_>
        <_>
          <!-- tree 5 -->
          <_>
            <!-- root node -->
            <feature>
              <rects>
                <_>
                  30 5 10 14 -1.</_>
                <_>
                  30 12 10 7 2.</_></rects>
              <tilted>0</tilted></feature>
            <threshold>-9.4980709254741669e-03</threshold>
            <left_val>-0.4091526865959167</left_val>
            <right_val>0.1870947033166885</right_val></_></_>
        <_>
          <!-- tree 6 -->
          <_>
            <!-- root node -->
            <feature>
              <rects>
                <_>
                  0 0 26 6 -1.</_>
                <_>
                  0 0 13 3 2.</_>
                <_>
                  13 3 13 3 2.</_></rects>
              <tilted>0</tilted></feature>
            <threshold>9.5529118552803993e-03</threshold>
            <left_val>-0.3218682110309601</left_val>
            <right_val>0.3819912075996399</right_val></_></_>
        <_>
          <!-- tree 7 -->
          <_>
            <!-- root node -->
            <feature>
              <rects>
                <_>
                  16 1 12 11 -1.</_>
                <_>
                  19 1 6 11 2.</_></rects>
              <tilted>0</tilted></feature>
            <threshold>0.0358627699315548</threshold>
            <left_val>0.1753741949796677</left_val>
            <right_val>-0.7310861945152283</right_val></_></_>
        <_>
          <!-- tree 8 -->
          <_>
            <!-- root node -->
            <feature>
              <rects>
                <_>
                  10 5 3 10 -1.</_>
                <_>
                  10 5 3 5 2.</_></rects>
              <tilted>1</tilted></feature>
            <threshold>-0.0112826898694038</threshold>
            <left_val>0.2205591946840286</left_val>
            <right_val>-0.5536752939224243</right_val></_></_>
        <_>
          <!-- tree 9 -->
          <_>
            <!-- root node -->
            <feature>
              <rects>
                <_>
                  17 12 10 3 -1.</_>
                <_>
                  17 13 10 1 3.</_></rects>
              <tilted>0</tilted></feature>
            <threshold>3.6526629701256752e-03</threshold>
            <left_val>-0.2103056013584137</left_val>
            <right_val>0.5631207823753357</right_val></_></_>
        <_>
          <!-- tree 10 -->
          <_>
            <!-- root node -->
            <feature>
              <rects>
                <_>
                  2 7 39 6 -1.</_>
                <_>
                  15 9 13 2 9.</_></rects>
              <tilted>0</tilted></feature>
            <threshold>0.3098323047161102</threshold>
            <left_val>-0.1372030973434448</left_val>
            <right_val>0.7258210182189941</right_val></_></_>
        <_>
          <!-- tree 11 -->
          <_>
            <!-- root node -->
            <feature>
              <rects>
                <_>
                  30 4 6 5 -1.</_>
                <_>
                  32 6 2 5 3.</_></rects>
              <tilted>1</tilted></feature>
            <threshold>0.0128286899998784</threshold>
            <left_val>-0.0700687393546104</left_val>
            <right_val>0.2564432024955750</right_val></_></_>
        <_>
          <!-- tree 12 -->
          <_>
            <!-- root node -->
            <feature>
              <rects>
                <_>
                  9 1 7 8 -1.</_>
                <_>
                  9 3 7 4 2.</_></rects>
              <tilted>0</tilted></feature>
            <threshold>7.6176361180841923e-03</threshold>
            <left_val>-0.2699500918388367</left_val>
            <right_val>0.3645280003547668</right_val></_></_>
        <_>
          <!-- tree 13 -->
          <_>
            <!-- root node -->
            <feature>
              <rects>
                <_>
                  10 5 24 7 -1.</_>
                <_>
                  16 5 12 7 2.</_></rects>
              <tilted>0</tilted></feature>
            <threshold>-0.0291411504149437</threshold>
            <left_val>-0.6957520246505737</left_val>
            <right_val>0.1207863017916679</right_val></_></_>
        <_>
          <!-- tree 14 -->
          <_>
            <!-- root node -->
            <feature>
              <rects>
                <_>
                  14 0 12 14 -1.</_>
                <_>
                  17 0 6 14 2.</_></rects>
              <tilted>0</tilted></feature>
            <threshold>0.0426405407488346</threshold>
            <left_val>0.1206958964467049</left_val>
            <right_val>-0.7107021808624268</right_val></_></_></trees>
      <stage_threshold>-1.4921669960021973</stage_threshold>
      <parent>1</parent>
      <next>-1</next></_>
    <_>
      <!-- stage 3 -->
      <trees>
        <_>
          <!-- tree 0 -->
          <_>
            <!-- root node -->
            <feature>
              <rects>
                <_>
                  14 8 15 6 -1.</_>
                <_>
                  14 10 15 2 3.</_></rects>
              <tilted>0</tilted></feature>
            <threshold>0.0372691787779331</threshold>
            <left_val>-0.4287815093994141</left_val>
            <right_val>0.8030133247375488</right_val></_></_>
        <_>
          <!-- tree 1 -->
          <_>
            <!-- root node -->
            <feature>
              <rects>
                <_>
                  36 1 6 10 -1.</_>
                <_>
                  38 3 2 10 3.</_></rects>
              <tilted>1</tilted></feature>
            <threshold>-0.0620475113391876</threshold>
            <left_val>0.6352853178977966</left_val>
            <right_val>-6.3802348449826241e-03</right_val></_></_>
        <_>
          <!-- tree 2 -->
          <_>
            <!-- root node -->
            <feature>
              <rects>
                <_>
                  7 1 10 6 -1.</_>
                <_>
                  5 3 10 2 3.</_></rects>
              <tilted>1</tilted></feature>
            <threshold>-0.0543723516166210</threshold>
            <left_val>0.7076079249382019</left_val>
            <right_val>-0.3498643040657043</right_val></_></_>
        <_>
          <!-- tree 3 -->
          <_>
            <!-- root node -->
            <feature>
              <rects>
                <_>
                  2 7 39 6 -1.</_>
                <_>
                  15 9 13 2 9.</_></rects>
              <tilted>0</tilted></feature>
            <threshold>0.3311206102371216</threshold>
            <left_val>-0.1361072957515717</left_val>
            <right_val>0.8179132938385010</right_val></_></_>
        <_>
          <!-- tree 4 -->
          <_>
            <!-- root node -->
            <feature>
              <rects>
                <_>
                  16 10 11 2 -1.</_>
                <_>
                  16 11 11 1 2.</_></rects>
              <tilted>0</tilted></feature>
            <threshold>7.9983063042163849e-03</threshold>
            <left_val>-0.1761236041784286</left_val>
            <right_val>0.7674999833106995</right_val></_></_>
        <_>
          <!-- tree 5 -->
          <_>
            <!-- root node -->
            <feature>
              <rects>
                <_>
                  19 10 7 3 -1.</_>
                <_>
                  19 11 7 1 3.</_></rects>
              <tilted>0</tilted></feature>
            <threshold>-4.8420419916510582e-03</threshold>
            <left_val>0.7330027222633362</left_val>
            <right_val>-0.1373586058616638</right_val></_></_>
        <_>
          <!-- tree 6 -->
          <_>
            <!-- root node -->
            <feature>
              <rects>
                <_>
                  8 0 9 6 -1.</_>
                <_>
                  6 2 9 2 3.</_></rects>
              <tilted>1</tilted></feature>
            <threshold>-0.0529033988714218</threshold>
            <left_val>0.6307855844497681</left_val>
            <right_val>-0.1358390003442764</right_val></_></_>
        <_>
          <!-- tree 7 -->
          <_>
            <!-- root node -->
            <feature>
              <rects>
                <_>
                  2 9 39 6 -1.</_>
                <_>
                  15 11 13 2 9.</_></rects>
              <tilted>0</tilted></feature>
            <threshold>0.2947970032691956</threshold>
            <left_val>-0.1312399059534073</left_val>
            <right_val>0.6125788092613220</right_val></_></_>
        <_>
          <!-- tree 8 -->
          <_>
            <!-- root node -->
            <feature>
              <rects>
                <_>
                  4 5 4 4 -1.</_>
                <_>
                  4 5 4 2 2.</_></rects>
              <tilted>1</tilted></feature>
            <threshold>-5.3865308873355389e-03</threshold>
            <left_val>0.2812058031558990</left_val>
            <right_val>-0.3468084037303925</right_val></_></_>
        <_>
          <!-- tree 9 -->
          <_>
            <!-- root node -->
            <feature>
              <rects>
                <_>
                  13 0 17 4 -1.</_>
                <_>
                  13 2 17 2 2.</_></rects>
              <tilted>0</tilted></feature>
            <threshold>3.5444910172373056e-03</threshold>
            <left_val>-0.2910358011722565</left_val>
            <right_val>0.3172422051429749</right_val></_></_>
        <_>
          <!-- tree 10 -->
          <_>
            <!-- root node -->
            <feature>
              <rects>
                <_>
                  16 1 10 18 -1.</_>
                <_>
                  16 1 5 9 2.</_>
                <_>
                  21 10 5 9 2.</_></rects>
              <tilted>0</tilted></feature>
            <threshold>-0.0343306213617325</threshold>
            <left_val>-0.6802306175231934</left_val>
            <right_val>0.1480183005332947</right_val></_></_>
        <_>
          <!-- tree 11 -->
          <_>
            <!-- root node -->
            <feature>
              <rects>
                <_>
                  18 0 12 13 -1.</_>
                <_>
                  21 0 6 13 2.</_></rects>
              <tilted>0</tilted></feature>
            <threshold>-0.0196854602545500</threshold>
            <left_val>-0.5599960088729858</left_val>
            <right_val>0.1025609001517296</right_val></_></_>
        <_>
          <!-- tree 12 -->
          <_>
            <!-- root node -->
            <feature>
              <rects>
                <_>
                  11 7 15 8 -1.</_>
                <_>
                  16 7 5 8 3.</_></rects>
              <tilted>0</tilted></feature>
            <threshold>-0.0163771398365498</threshold>
            <left_val>-0.6092386245727539</left_val>
            <right_val>0.1403620988130569</right_val></_></_>
        <_>
          <!-- tree 13 -->
          <_>
            <!-- root node -->
            <feature>
              <rects>
                <_>
                  15 0 16 13 -1.</_>
                <_>
                  19 0 8 13 2.</_></rects>
              <tilted>0</tilted></feature>
            <threshold>0.0653991401195526</threshold>
            <left_val>0.0740164965391159</left_val>
            <right_val>-0.6068400144577026</right_val></_></_>
        <_>
          <!-- tree 14 -->
          <_>
            <!-- root node -->
            <feature>
              <rects>
                <_>
                  16 10 6 4 -1.</_>
                <_>
                  16 11 6 2 2.</_></rects>
              <tilted>0</tilted></feature>
            <threshold>-3.8210870698094368e-03</threshold>
            <left_val>0.4825819134712219</left_val>
            <right_val>-0.1819339990615845</right_val></_></_></trees>
      <stage_threshold>-1.4484720230102539</stage_threshold>
      <parent>2</parent>
      <next>-1</next></_>
    <_>
      <!-- stage 4 -->
      <trees>
        <_>
          <!-- tree 0 -->
          <_>
            <!-- root node -->
            <feature>
              <rects>
                <_>
                  5 8 33 6 -1.</_>
                <_>
                  16 10 11 2 9.</_></rects>
              <tilted>0</tilted></feature>
            <threshold>0.2312308996915817</threshold>
            <left_val>-0.4478431046009064</left_val>
            <right_val>0.7245926856994629</right_val></_></_>
        <_>
          <!-- tree 1 -->
          <_>
            <!-- root node -->
            <feature>
              <rects>
                <_>
                  37 4 6 7 -1.</_>
                <_>
                  37 4 3 7 2.</_></rects>
              <tilted>1</tilted></feature>
            <threshold>-0.0506748184561729</threshold>
            <left_val>0.4597926139831543</left_val>
            <right_val>-0.0674592331051826</right_val></_></_>
        <_>
          <!-- tree 2 -->
          <_>
            <!-- root node -->
            <feature>
              <rects>
                <_>
                  6 4 6 6 -1.</_>
                <_>
                  6 4 6 3 2.</_></rects>
              <tilted>1</tilted></feature>
            <threshold>-0.0335813313722610</threshold>
            <left_val>0.3999756872653961</left_val>
            <right_val>-0.5072888731956482</right_val></_></_>
        <_>
          <!-- tree 3 -->
          <_>
            <!-- root node -->
            <feature>
              <rects>
                <_>
                  18 2 12 12 -1.</_>
                <_>
                  21 2 6 12 2.</_></rects>
              <tilted>0</tilted></feature>
            <threshold>-0.0207605697214603</threshold>
            <left_val>-0.6415345072746277</left_val>
            <right_val>0.1218281015753746</right_val></_></_>
        <_>
          <!-- tree 4 -->
          <_>
            <!-- root node -->
            <feature>
              <rects>
                <_>
                  12 0 15 12 -1.</_>
                <_>
                  17 0 5 12 3.</_></rects>
              <tilted>0</tilted></feature>
            <threshold>0.0736845284700394</threshold>
            <left_val>0.1728543937206268</left_val>
            <right_val>-0.7523301243782043</right_val></_></_>
        <_>
          <!-- tree 5 -->
          <_>
            <!-- root node -->
            <feature>
              <rects>
                <_>
                  2 7 39 6 -1.</_>
                <_>
                  15 9 13 2 9.</_></rects>
              <tilted>0</tilted></feature>
            <threshold>0.3842672109603882</threshold>
            <left_val>-0.1431414932012558</left_val>
            <right_val>0.8295469284057617</right_val></_></_>
        <_>
          <!-- tree 6 -->
          <_>
            <!-- root node -->
            <feature>
              <rects>
                <_>
                  7 1 12 6 -1.</_>
                <_>
                  5 3 12 2 3.</_></rects>
              <tilted>1</tilted></feature>
            <threshold>-0.0779557675123215</threshold>
            <left_val>0.6796694993972778</left_val>
            <right_val>-0.1448885053396225</right_val></_></_>
        <_>
          <!-- tree 7 -->
          <_>
            <!-- root node -->
            <feature>
              <rects>
                <_>
                  34 15 1 3 -1.</_>
                <_>
                  33 16 1 1 3.</_></rects>
              <tilted>1</tilted></feature>
            <threshold>-6.3762412173673511e-04</threshold>
            <left_val>-0.3397243916988373</left_val>
            <right_val>0.0856633782386780</right_val></_></_>
        <_>
          <!-- tree 8 -->
          <_>
            <!-- root node -->
            <feature>
              <rects>
                <_>
                  2 8 39 9 -1.</_>
                <_>
                  15 11 13 3 9.</_></rects>
              <tilted>0</tilted></feature>
            <threshold>0.5865625739097595</threshold>
            <left_val>-0.0923260301351547</left_val>
            <right_val>0.8048850297927856</right_val></_></_>
        <_>
          <!-- tree 9 -->
          <_>
            <!-- root node -->
            <feature>
              <rects>
                <_>
                  34 15 1 3 -1.</_>
                <_>
                  33 16 1 1 3.</_></rects>
              <tilted>1</tilted></feature>
            <threshold>5.3487572586163878e-04</threshold>
            <left_val>0.0990473628044128</left_val>
            <right_val>-0.2221388965845108</right_val></_></_>
        <_>
          <!-- tree 10 -->
          <_>
            <!-- root node -->
            <feature>
              <rects>
                <_>
                  8 6 5 2 -1.</_>
                <_>
                  8 6 5 1 2.</_></rects>
              <tilted>1</tilted></feature>
            <threshold>-7.4267941527068615e-03</threshold>
            <left_val>0.4654929935932159</left_val>
            <right_val>-0.1613330990076065</right_val></_></_>
        <_>
          <!-- tree 11 -->
          <_>
            <!-- root node -->
            <feature>
              <rects>
                <_>
                  34 15 1 3 -1.</_>
                <_>
                  33 16 1 1 3.</_></rects>
              <tilted>1</tilted></feature>
            <threshold>-1.2841089628636837e-03</threshold>
            <left_val>-0.4073002934455872</left_val>
            <right_val>0.0353836603462696</right_val></_></_>
        <_>
          <!-- tree 12 -->
          <_>
            <!-- root node -->
            <feature>
              <rects>
                <_>
                  9 15 3 1 -1.</_>
                <_>
                  10 16 1 1 3.</_></rects>
              <tilted>1</tilted></feature>
            <threshold>-7.1402179310098290e-04</threshold>
            <left_val>-0.6888858079910278</left_val>
            <right_val>0.1029947027564049</right_val></_></_>
        <_>
          <!-- tree 13 -->
          <_>
            <!-- root node -->
            <feature>
              <rects>
                <_>
                  32 17 9 2 -1.</_>
                <_>
                  32 18 9 1 2.</_></rects>
              <tilted>0</tilted></feature>
            <threshold>-8.8582298485562205e-04</threshold>
            <left_val>-0.3948873877525330</left_val>
            <right_val>0.1156518012285233</right_val></_></_>
        <_>
          <!-- tree 14 -->
          <_>
            <!-- root node -->
            <feature>
              <rects>
                <_>
                  9 0 22 1 -1.</_>
                <_>
                  20 0 11 1 2.</_></rects>
              <tilted>0</tilted></feature>
            <threshold>-0.0152268297970295</threshold>
            <left_val>0.4966568052768707</left_val>
            <right_val>-0.1336694061756134</right_val></_></_>
        <_>
          <!-- tree 15 -->
          <_>
            <!-- root node -->
            <feature>
              <rects>
                <_>
                  32 17 5 2 -1.</_>
                <_>
                  32 18 5 1 2.</_></rects>
              <tilted>0</tilted></feature>
            <threshold>-3.7763870204798877e-04</threshold>
            <left_val>-0.1268195062875748</left_val>
            <right_val>0.0716432407498360</right_val></_></_>
        <_>
          <!-- tree 16 -->
          <_>
            <!-- root node -->
            <feature>
              <rects>
                <_>
                  14 6 15 8 -1.</_>
                <_>
                  19 6 5 8 3.</_></rects>
              <tilted>0</tilted></feature>
            <threshold>0.0718358904123306</threshold>
            <left_val>0.0852965414524078</left_val>
            <right_val>-0.7287914156913757</right_val></_></_>
        <_>
          <!-- tree 17 -->
          <_>
            <!-- root node -->
            <feature>
              <rects>
                <_>
                  13 8 18 8 -1.</_>
                <_>
                  19 8 6 8 3.</_></rects>
              <tilted>0</tilted></feature>
            <threshold>-0.0203542001545429</threshold>
            <left_val>-0.5460895895957947</left_val>
            <right_val>0.0933025926351547</right_val></_></_>
        <_>
          <!-- tree 18 -->
          <_>
            <!-- root node -->
            <feature>
              <rects>
                <_>
                  5 5 4 14 -1.</_>
                <_>
                  5 12 4 7 2.</_></rects>
              <tilted>0</tilted></feature>
            <threshold>-5.7234708219766617e-04</threshold>
            <left_val>-0.5229200720787048</left_val>
            <right_val>0.1080038994550705</right_val></_></_>
        <_>
          <!-- tree 19 -->
          <_>
            <!-- root node -->
            <feature>
              <rects>
                <_>
                  13 17 17 2 -1.</_>
                <_>
                  13 18 17 1 2.</_></rects>
              <tilted>0</tilted></feature>
            <threshold>-2.0549818873405457e-03</threshold>
            <left_val>0.3302139937877655</left_val>
            <right_val>-0.1733210980892181</right_val></_></_></trees>
      <stage_threshold>-1.4189929962158203</stage_threshold>
      <parent>3</parent>
      <next>-1</next></_>
    <_>
      <!-- stage 5 -->
      <trees>
        <_>
          <!-- tree 0 -->
          <_>
            <!-- root node -->
            <feature>
              <rects>
                <_>
                  5 7 33 9 -1.</_>
                <_>
                  16 10 11 3 9.</_></rects>
              <tilted>0</tilted></feature>
            <threshold>0.3462524116039276</threshold>
            <left_val>-0.3974029123783112</left_val>
            <right_val>0.7308312058448792</right_val></_></_>
        <_>
          <!-- tree 1 -->
          <_>
            <!-- root node -->
            <feature>
              <rects>
                <_>
                  36 0 7 18 -1.</_>
                <_>
                  36 9 7 9 2.</_></rects>
              <tilted>0</tilted></feature>
            <threshold>0.0118855098262429</threshold>
            <left_val>-0.2159868925809860</left_val>
            <right_val>0.3462387919425964</right_val></_></_>
        <_>
          <!-- tree 2 -->
          <_>
            <!-- root node -->
            <feature>
              <rects>
                <_>
                  7 5 7 6 -1.</_>
                <_>
                  7 5 7 3 2.</_></rects>
              <tilted>1</tilted></feature>
            <threshold>-0.0526327602565289</threshold>
            <left_val>0.4574759006500244</left_val>
            <right_val>-0.3871442079544067</right_val></_></_>
        <_>
          <!-- tree 3 -->
          <_>
            <!-- root node -->
            <feature>
              <rects>
                <_>
                  22 4 8 6 -1.</_>
                <_>
                  22 6 8 2 3.</_></rects>
              <tilted>0</tilted></feature>
            <threshold>-0.0177673008292913</threshold>
            <left_val>0.4771907031536102</left_val>
            <right_val>-0.2026101946830750</right_val></_></_>
        <_>
          <!-- tree 4 -->
          <_>
            <!-- root node -->
            <feature>
              <rects>
                <_>
                  10 0 15 19 -1.</_>
                <_>
                  15 0 5 19 3.</_></rects>
              <tilted>0</tilted></feature>
            <threshold>0.1063819974660873</threshold>
            <left_val>0.1954566985368729</left_val>
            <right_val>-0.7526841163635254</right_val></_></_>
        <_>
          <!-- tree 5 -->
          <_>
            <!-- root node -->
            <feature>
              <rects>
                <_>
                  5 6 33 7 -1.</_>
                <_>
                  16 6 11 7 3.</_></rects>
              <tilted>0</tilted></feature>
            <threshold>0.0253385305404663</threshold>
            <left_val>-0.5304738283157349</left_val>
            <right_val>0.2242476046085358</right_val></_></_>
        <_>
          <!-- tree 6 -->
          <_>
            <!-- root node -->
            <feature>
              <rects>
                <_>
                  0 0 3 14 -1.</_>
                <_>
                  0 7 3 7 2.</_></rects>
              <tilted>0</tilted></feature>
            <threshold>-5.0435308367013931e-03</threshold>
            <left_val>-0.5285450220108032</left_val>
            <right_val>0.2044274955987930</right_val></_></_>
        <_>
          <!-- tree 7 -->
          <_>
            <!-- root node -->
            <feature>
              <rects>
                <_>
                  26 1 8 4 -1.</_>
                <_>
                  28 1 4 4 2.</_></rects>
              <tilted>0</tilted></feature>
            <threshold>-7.1410499513149261e-03</threshold>
            <left_val>-0.6573246121406555</left_val>
            <right_val>0.0524886585772038</right_val></_></_>
        <_>
          <!-- tree 8 -->
          <_>
            <!-- root node -->
            <feature>
              <rects>
                <_>
                  9 1 8 4 -1.</_>
                <_>
                  11 1 4 4 2.</_></rects>
              <tilted>0</tilted></feature>
            <threshold>-5.1691099070012569e-03</threshold>
            <left_val>-0.7309092879295349</left_val>
            <right_val>0.1332692950963974</right_val></_></_>
        <_>
          <!-- tree 9 -->
          <_>
            <!-- root node -->
            <feature>
              <rects>
                <_>
                  33 14 2 3 -1.</_>
                <_>
                  32 15 2 1 3.</_></rects>
              <tilted>1</tilted></feature>
            <threshold>-1.3575720367953181e-03</threshold>
            <left_val>-0.2937264144420624</left_val>
            <right_val>0.0141693297773600</right_val></_></_>
        <_>
          <!-- tree 10 -->
          <_>
            <!-- root node -->
            <feature>
              <rects>
                <_>
                  10 14 3 2 -1.</_>
                <_>
                  11 15 1 2 3.</_></rects>
              <tilted>1</tilted></feature>
            <threshold>1.0605369461700320e-03</threshold>
            <left_val>0.1296048015356064</left_val>
            <right_val>-0.5438944101333618</right_val></_></_>
        <_>
          <!-- tree 11 -->
          <_>
            <!-- root node -->
            <feature>
              <rects>
                <_>
                  32 13 2 3 -1.</_>
                <_>
                  31 14 2 1 3.</_></rects>
              <tilted>1</tilted></feature>
            <threshold>4.8830648884177208e-03</threshold>
            <left_val>-1.4392009470611811e-03</left_val>
            <right_val>-0.4005908966064453</right_val></_></_>
        <_>
          <!-- tree 12 -->
          <_>
            <!-- root node -->
            <feature>
              <rects>
                <_>
                  0 0 22 2 -1.</_>
                <_>
                  0 0 11 1 2.</_>
                <_>
                  11 1 11 1 2.</_></rects>
              <tilted>0</tilted></feature>
            <threshold>-2.7935879770666361e-03</threshold>
            <left_val>-0.5338960289955139</left_val>
            <right_val>0.1216346994042397</right_val></_></_>
        <_>
          <!-- tree 13 -->
          <_>
            <!-- root node -->
            <feature>
              <rects>
                <_>
                  16 6 15 8 -1.</_>
                <_>
                  21 6 5 8 3.</_></rects>
              <tilted>0</tilted></feature>
            <threshold>-0.0198403093963861</threshold>
            <left_val>-0.4145869016647339</left_val>
            <right_val>0.0580206289887428</right_val></_></_>
        <_>
          <!-- tree 14 -->
          <_>
            <!-- root node -->
            <feature>
              <rects>
                <_>
                  13 5 15 9 -1.</_>
                <_>
                  18 5 5 9 3.</_></rects>
              <tilted>0</tilted></feature>
            <threshold>0.0695119574666023</threshold>
            <left_val>0.0974840372800827</left_val>
            <right_val>-0.6517081856727600</right_val></_></_>
        <_>
          <!-- tree 15 -->
          <_>
            <!-- root node -->
            <feature>
              <rects>
                <_>
                  34 5 4 8 -1.</_>
                <_>
                  34 5 2 8 2.</_></rects>
              <tilted>1</tilted></feature>
            <threshold>6.8300049751996994e-03</threshold>
            <left_val>-0.2809028029441833</left_val>
            <right_val>0.3063985109329224</right_val></_></_>
        <_>
          <!-- tree 16 -->
          <_>
            <!-- root node -->
            <feature>
              <rects>
                <_>
                  9 5 8 4 -1.</_>
                <_>
                  9 5 8 2 2.</_></rects>
              <tilted>1</tilted></feature>
            <threshold>-0.0353688597679138</threshold>
            <left_val>0.5536435246467590</left_val>
            <right_val>-0.1378030925989151</right_val></_></_>
        <_>
          <!-- tree 17 -->
          <_>
            <!-- root node -->
            <feature>
              <rects>
                <_>
                  5 9 38 8 -1.</_>
                <_>
                  24 9 19 4 2.</_>
                <_>
                  5 13 19 4 2.</_></rects>
              <tilted>0</tilted></feature>
            <threshold>0.0605061687529087</threshold>
            <left_val>0.1244762986898422</left_val>
            <right_val>-0.4102593064308167</right_val></_></_>
        <_>
          <!-- tree 18 -->
          <_>
            <!-- root node -->
            <feature>
              <rects>
                <_>
                  11 13 3 2 -1.</_>
                <_>
                  12 14 1 2 3.</_></rects>
              <tilted>1</tilted></feature>
            <threshold>-1.3470479752868414e-03</threshold>
            <left_val>-0.5913885831832886</left_val>
            <right_val>0.1123540028929710</right_val></_></_></trees>
      <stage_threshold>-1.6198730468750000</stage_threshold>
      <parent>4</parent>
      <next>-1</next></_>
    <_>
      <!-- stage 6 -->
      <trees>
        <_>
          <!-- tree 0 -->
          <_>
            <!-- root node -->
            <feature>
              <rects>
                <_>
                  5 8 33 6 -1.</_>
                <_>
                  16 10 11 2 9.</_></rects>
              <tilted>0</tilted></feature>
            <threshold>0.2924998104572296</threshold>
            <left_val>-0.3432508111000061</left_val>
            <right_val>0.7388079166412354</right_val></_></_>
        <_>
          <!-- tree 1 -->
          <_>
            <!-- root node -->
            <feature>
              <rects>
                <_>
                  34 3 6 9 -1.</_>
                <_>
                  36 5 2 9 3.</_></rects>
              <tilted>1</tilted></feature>
            <threshold>-0.0508036203682423</threshold>
            <left_val>0.3577919900417328</left_val>
            <right_val>-0.0169652402400970</right_val></_></_>
        <_>
          <!-- tree 2 -->
          <_>
            <!-- root node -->
            <feature>
              <rects>
                <_>
                  7 1 11 6 -1.</_>
                <_>
                  5 3 11 2 3.</_></rects>
              <tilted>1</tilted></feature>
            <threshold>-0.0669211894273758</threshold>
            <left_val>0.5745987296104431</left_val>
            <right_val>-0.2818751931190491</right_val></_></_>
        <_>
          <!-- tree 3 -->
          <_>
            <!-- root node -->
            <feature>
              <rects>
                <_>
                  23 4 8 6 -1.</_>
                <_>
                  23 6 8 2 3.</_></rects>
              <tilted>0</tilted></feature>
            <threshold>-0.0237434506416321</threshold>
            <left_val>0.4426398873329163</left_val>
            <right_val>-0.0986990034580231</right_val></_></_>
        <_>
          <!-- tree 4 -->
          <_>
            <!-- root node -->
            <feature>
              <rects>
                <_>
                  3 5 7 14 -1.</_>
                <_>
                  3 12 7 7 2.</_></rects>
              <tilted>0</tilted></feature>
            <threshold>0.0186434797942638</threshold>
            <left_val>-0.5120475888252258</left_val>
            <right_val>0.1523326933383942</right_val></_></_>
        <_>
          <!-- tree 5 -->
          <_>
            <!-- root node -->
            <feature>
              <rects>
                <_>
                  16 8 11 9 -1.</_>
                <_>
                  16 11 11 3 3.</_></rects>
              <tilted>0</tilted></feature>
            <threshold>0.0610685907304287</threshold>
            <left_val>-0.1629308015108109</left_val>
            <right_val>0.5082104206085205</right_val></_></_>
        <_>
          <!-- tree 6 -->
          <_>
            <!-- root node -->
            <feature>
              <rects>
                <_>
                  13 6 17 6 -1.</_>
                <_>
                  13 8 17 2 3.</_></rects>
              <tilted>0</tilted></feature>
            <threshold>0.0407095104455948</threshold>
            <left_val>-0.0931634604930878</left_val>
            <right_val>0.6202880740165710</right_val></_></_>
        <_>
          <!-- tree 7 -->
          <_>
            <!-- root node -->
            <feature>
              <rects>
                <_>
                  15 6 16 8 -1.</_>
                <_>
                  19 6 8 8 2.</_></rects>
              <tilted>0</tilted></feature>
            <threshold>0.0649012029170990</threshold>
            <left_val>0.0560542903840542</left_val>
            <right_val>-0.6129643917083740</right_val></_></_>
        <_>
          <!-- tree 8 -->
          <_>
            <!-- root node -->
            <feature>
              <rects>
                <_>
                  18 7 7 4 -1.</_>
                <_>
                  18 8 7 2 2.</_></rects>
              <tilted>0</tilted></feature>
            <threshold>-4.1931690648198128e-03</threshold>
            <left_val>0.3174543976783752</left_val>
            <right_val>-0.2091573029756546</right_val></_></_>
        <_>
          <!-- tree 9 -->
          <_>
            <!-- root node -->
            <feature>
              <rects>
                <_>
                  14 5 20 5 -1.</_>
                <_>
                  19 5 10 5 2.</_></rects>
              <tilted>0</tilted></feature>
            <threshold>-0.0134536502882838</threshold>
            <left_val>-0.5042005181312561</left_val>
            <right_val>0.1333173960447311</right_val></_></_>
        <_>
          <!-- tree 10 -->
          <_>
            <!-- root node -->
            <feature>
              <rects>
                <_>
                  10 3 15 7 -1.</_>
                <_>
                  15 3 5 7 3.</_></rects>
              <tilted>0</tilted></feature>
            <threshold>-0.0182892102748156</threshold>
            <left_val>-0.5908619165420532</left_val>
            <right_val>0.1228099018335342</right_val></_></_>
        <_>
          <!-- tree 11 -->
          <_>
            <!-- root node -->
            <feature>
              <rects>
                <_>
                  19 14 6 3 -1.</_>
                <_>
                  19 15 6 1 3.</_></rects>
              <tilted>0</tilted></feature>
            <threshold>1.4164739986881614e-03</threshold>
            <left_val>-0.1849379986524582</left_val>
            <right_val>0.3181656897068024</right_val></_></_>
        <_>
          <!-- tree 12 -->
          <_>
            <!-- root node -->
            <feature>
              <rects>
                <_>
                  10 6 18 8 -1.</_>
                <_>
                  16 6 6 8 3.</_></rects>
              <tilted>0</tilted></feature>
            <threshold>0.1015290021896362</threshold>
            <left_val>0.0857104063034058</left_val>
            <right_val>-0.6120315790176392</right_val></_></_>
        <_>
          <!-- tree 13 -->
          <_>
            <!-- root node -->
            <feature>
              <rects>
                <_>
                  36 0 4 10 -1.</_>
                <_>
                  37 1 2 10 2.</_></rects>
              <tilted>1</tilted></feature>
            <threshold>-6.6335039446130395e-04</threshold>
            <left_val>-0.2850475907325745</left_val>
            <right_val>0.1840204000473022</right_val></_></_>
        <_>
          <!-- tree 14 -->
          <_>
            <!-- root node -->
            <feature>
              <rects>
                <_>
                  8 2 8 4 -1.</_>
                <_>
                  7 3 8 2 2.</_></rects>
              <tilted>1</tilted></feature>
            <threshold>-0.0165435709059238</threshold>
            <left_val>0.4044224917888641</left_val>
            <right_val>-0.1477831006050110</right_val></_></_>
        <_>
          <!-- tree 15 -->
          <_>
            <!-- root node -->
            <feature>
              <rects>
                <_>
                  11 7 24 7 -1.</_>
                <_>
                  19 7 8 7 3.</_></rects>
              <tilted>0</tilted></feature>
            <threshold>5.4477117955684662e-03</threshold>
            <left_val>-0.3286794126033783</left_val>
            <right_val>0.0964380577206612</right_val></_></_>
        <_>
          <!-- tree 16 -->
          <_>
            <!-- root node -->
            <feature>
              <rects>
                <_>
                  14 10 15 4 -1.</_>
                <_>
                  14 12 15 2 2.</_></rects>
              <tilted>0</tilted></feature>
            <threshold>0.0324538014829159</threshold>
            <left_val>-0.1106365025043488</left_val>
            <right_val>0.4967715144157410</right_val></_></_>
        <_>
          <!-- tree 17 -->
          <_>
            <!-- root node -->
            <feature>
              <rects>
                <_>
                  25 1 8 4 -1.</_>
                <_>
                  27 1 4 4 2.</_></rects>
              <tilted>0</tilted></feature>
            <threshold>4.9129081889986992e-03</threshold>
            <left_val>0.1251274943351746</left_val>
            <right_val>-0.4409075975418091</right_val></_></_>
        <_>
          <!-- tree 18 -->
          <_>
            <!-- root node -->
            <feature>
              <rects>
                <_>
                  12 6 11 4 -1.</_>
                <_>
                  12 8 11 2 2.</_></rects>
              <tilted>0</tilted></feature>
            <threshold>0.0150044700130820</threshold>
            <left_val>-0.1425053030252457</left_val>
            <right_val>0.3761357069015503</right_val></_></_>
        <_>
          <!-- tree 19 -->
          <_>
            <!-- root node -->
            <feature>
              <rects>
                <_>
                  25 1 8 4 -1.</_>
                <_>
                  27 1 4 4 2.</_></rects>
              <tilted>0</tilted></feature>
            <threshold>-6.6534401848912239e-03</threshold>
            <left_val>-0.5242475271224976</left_val>
            <right_val>0.0554500594735146</right_val></_></_>
        <_>
          <!-- tree 20 -->
          <_>
            <!-- root node -->
            <feature>
              <rects>
                <_>
                  10 1 8 4 -1.</_>
                <_>
                  12 1 4 4 2.</_></rects>
              <tilted>0</tilted></feature>
            <threshold>-5.8809188194572926e-03</threshold>
            <left_val>-0.6896951794624329</left_val>
            <right_val>0.0662416368722916</right_val></_></_>
        <_>
          <!-- tree 21 -->
          <_>
            <!-- root node -->
            <feature>
              <rects>
                <_>
                  34 15 9 4 -1.</_>
                <_>
                  34 16 9 2 2.</_></rects>
              <tilted>0</tilted></feature>
            <threshold>-1.7134350491687655e-03</threshold>
            <left_val>-0.5704110860824585</left_val>
            <right_val>0.0528032481670380</right_val></_></_>
        <_>
          <!-- tree 22 -->
          <_>
            <!-- root node -->
            <feature>
              <rects>
                <_>
                  0 15 9 4 -1.</_>
                <_>
                  0 16 9 2 2.</_></rects>
              <tilted>0</tilted></feature>
            <threshold>1.4586830511689186e-03</threshold>
            <left_val>0.0963515564799309</left_val>
            <right_val>-0.4823116958141327</right_val></_></_>
        <_>
          <!-- tree 23 -->
          <_>
            <!-- root node -->
            <feature>
              <rects>
                <_>
                  35 15 2 4 -1.</_>
                <_>
                  35 16 2 2 2.</_></rects>
              <tilted>0</tilted></feature>
            <threshold>1.1160849826410413e-03</threshold>
            <left_val>0.0127985598519444</left_val>
            <right_val>-0.2104281038045883</right_val></_></_>
        <_>
          <!-- tree 24 -->
          <_>
            <!-- root node -->
            <feature>
              <rects>
                <_>
                  4 15 6 4 -1.</_>
                <_>
                  4 16 6 2 2.</_></rects>
              <tilted>0</tilted></feature>
            <threshold>-1.1549630435183644e-03</threshold>
            <left_val>-0.6216204166412354</left_val>
            <right_val>0.0769227221608162</right_val></_></_>
        <_>
          <!-- tree 25 -->
          <_>
            <!-- root node -->
            <feature>
              <rects>
                <_>
                  31 0 7 8 -1.</_>
                <_>
                  31 2 7 4 2.</_></rects>
              <tilted>0</tilted></feature>
            <threshold>1.7676469869911671e-03</threshold>
            <left_val>-0.2710865139961243</left_val>
            <right_val>0.1734599024057388</right_val></_></_>
        <_>
          <!-- tree 26 -->
          <_>
            <!-- root node -->
            <feature>
              <rects>
                <_>
                  15 5 13 4 -1.</_>
                <_>
                  15 6 13 2 2.</_></rects>
              <tilted>0</tilted></feature>
            <threshold>6.1670788563787937e-03</threshold>
            <left_val>-0.1453206986188889</left_val>
            <right_val>0.3875856101512909</right_val></_></_>
        <_>
          <!-- tree 27 -->
          <_>
            <!-- root node -->
            <feature>
              <rects>
                <_>
                  29 1 8 3 -1.</_>
                <_>
                  31 1 4 3 2.</_></rects>
              <tilted>0</tilted></feature>
            <threshold>-4.5395242050290108e-03</threshold>
            <left_val>-0.3353270888328552</left_val>
            <right_val>0.0591825917363167</right_val></_></_>
        <_>
          <!-- tree 28 -->
          <_>
            <!-- root node -->
            <feature>
              <rects>
                <_>
                  6 1 9 2 -1.</_>
                <_>
                  9 1 3 2 3.</_></rects>
              <tilted>0</tilted></feature>
            <threshold>-7.0372051559388638e-03</threshold>
            <left_val>-0.6952705979347229</left_val>
            <right_val>0.0635677427053452</right_val></_></_>
        <_>
          <!-- tree 29 -->
          <_>
            <!-- root node -->
            <feature>
              <rects>
                <_>
                  14 7 20 7 -1.</_>
                <_>
                  19 7 10 7 2.</_></rects>
              <tilted>0</tilted></feature>
            <threshold>-0.0341808013617992</threshold>
            <left_val>-0.4813610911369324</left_val>
            <right_val>0.0168403908610344</right_val></_></_>
        <_>
          <!-- tree 30 -->
          <_>
            <!-- root node -->
            <feature>
              <rects>
                <_>
                  10 7 16 7 -1.</_>
                <_>
                  14 7 8 7 2.</_></rects>
              <tilted>0</tilted></feature>
            <threshold>-0.0127022098749876</threshold>
            <left_val>-0.5471690893173218</left_val>
            <right_val>0.0835793167352676</right_val></_></_>
        <_>
          <!-- tree 31 -->
          <_>
            <!-- root node -->
            <feature>
              <rects>
                <_>
                  17 7 12 1 -1.</_>
                <_>
                  20 7 6 1 2.</_></rects>
              <tilted>0</tilted></feature>
            <threshold>3.9812130853533745e-03</threshold>
            <left_val>0.0539783202111721</left_val>
            <right_val>-0.3982751071453094</right_val></_></_>
        <_>
          <!-- tree 32 -->
          <_>
            <!-- root node -->
            <feature>
              <rects>
                <_>
                  16 15 11 3 -1.</_>
                <_>
                  16 16 11 1 3.</_></rects>
              <tilted>0</tilted></feature>
            <threshold>2.4364429991692305e-03</threshold>
            <left_val>-0.1491588056087494</left_val>
            <right_val>0.3056415021419525</right_val></_></_></trees>
      <stage_threshold>-1.5102779865264893</stage_threshold>
      <parent>5</parent>
      <next>-1</next></_>
    <_>
      <!-- stage 7 -->
      <trees>
        <_>
          <!-- tree 0 -->
          <_>
            <!-- root node -->
            <feature>
              <rects>
                <_>
                  5 8 33 6 -1.</_>
                <_>
                  16 10 11 2 9.</_></rects>
              <tilted>0</tilted></feature>
            <threshold>0.2586139142513275</threshold>
            <left_val>-0.3973562121391296</left_val>
            <right_val>0.6782448887825012</right_val></_></_>
        <_>
          <!-- tree 1 -->
          <_>
            <!-- root node -->
            <feature>
              <rects>
                <_>
                  36 0 7 18 -1.</_>
                <_>
                  36 9 7 9 2.</_></rects>
              <tilted>0</tilted></feature>
            <threshold>2.7991959359496832e-03</threshold>
            <left_val>-0.2640683054924011</left_val>
            <right_val>0.3244929909706116</right_val></_></_>
        <_>
          <!-- tree 2 -->
          <_>
            <!-- root node -->
            <feature>
              <rects>
                <_>
                  0 0 5 16 -1.</_>
                <_>
                  0 8 5 8 2.</_></rects>
              <tilted>0</tilted></feature>
            <threshold>-9.8457839339971542e-03</threshold>
            <left_val>-0.6066709756851196</left_val>
            <right_val>0.2047989070415497</right_val></_></_>
        <_>
          <!-- tree 3 -->
          <_>
            <!-- root node -->
            <feature>
              <rects>
                <_>
                  21 4 12 3 -1.</_>
                <_>
                  25 4 4 3 3.</_></rects>
              <tilted>0</tilted></feature>
            <threshold>-0.0102125899866223</threshold>
            <left_val>-0.5117722153663635</left_val>
            <right_val>0.1170267015695572</right_val></_></_>
        <_>
          <!-- tree 4 -->
          <_>
            <!-- root node -->
            <feature>
              <rects>
                <_>
                  6 17 6 2 -1.</_>
                <_>
                  6 18 6 1 2.</_></rects>
              <tilted>0</tilted></feature>
            <threshold>-1.0223389836028218e-03</threshold>
            <left_val>-0.7273554801940918</left_val>
            <right_val>0.1419368982315063</right_val></_></_>
        <_>
          <!-- tree 5 -->
          <_>
            <!-- root node -->
            <feature>
              <rects>
                <_>
                  33 8 10 10 -1.</_>
                <_>
                  38 8 5 5 2.</_>
                <_>
                  33 13 5 5 2.</_></rects>
              <tilted>0</tilted></feature>
            <threshold>0.0220876596868038</threshold>
            <left_val>-0.1960889995098114</left_val>
            <right_val>0.3204736113548279</right_val></_></_>
        <_>
          <!-- tree 6 -->
          <_>
            <!-- root node -->
            <feature>
              <rects>
                <_>
                  0 7 10 12 -1.</_>
                <_>
                  0 7 5 6 2.</_>
                <_>
                  5 13 5 6 2.</_></rects>
              <tilted>0</tilted></feature>
            <threshold>8.0832606181502342e-03</threshold>
            <left_val>-0.5345715880393982</left_val>
            <right_val>0.1750552952289581</right_val></_></_>
        <_>
          <!-- tree 7 -->
          <_>
            <!-- root node -->
            <feature>
              <rects>
                <_>
                  15 4 15 9 -1.</_>
                <_>
                  20 4 5 9 3.</_></rects>
              <tilted>0</tilted></feature>
            <threshold>-0.0224773194640875</threshold>
            <left_val>-0.6050649881362915</left_val>
            <right_val>0.0938979908823967</right_val></_></_>
        <_>
          <!-- tree 8 -->
          <_>
            <!-- root node -->
            <feature>
              <rects>
                <_>
                  2 7 39 6 -1.</_>
                <_>
                  15 9 13 2 9.</_></rects>
              <tilted>0</tilted></feature>
            <threshold>0.4042334854602814</threshold>
            <left_val>-0.1181695982813835</left_val>
            <right_val>0.6813706755638123</right_val></_></_>
        <_>
          <!-- tree 9 -->
          <_>
            <!-- root node -->
            <feature>
              <rects>
                <_>
                  18 12 7 3 -1.</_>
                <_>
                  18 13 7 1 3.</_></rects>
              <tilted>0</tilted></feature>
            <threshold>2.3316189181059599e-03</threshold>
            <left_val>-0.1765021979808807</left_val>
            <right_val>0.4672960042953491</right_val></_></_>
        <_>
          <!-- tree 10 -->
          <_>
            <!-- root node -->
            <feature>
              <rects>
                <_>
                  21 0 8 7 -1.</_>
                <_>
                  23 2 4 7 2.</_></rects>
              <tilted>1</tilted></feature>
            <threshold>-0.0329743102192879</threshold>
            <left_val>-0.6184732913970947</left_val>
            <right_val>0.1209622994065285</right_val></_></_>
        <_>
          <!-- tree 11 -->
          <_>
            <!-- root node -->
            <feature>
              <rects>
                <_>
                  39 2 4 11 -1.</_>
                <_>
                  39 2 2 11 2.</_></rects>
              <tilted>1</tilted></feature>
            <threshold>0.0174504201859236</threshold>
            <left_val>-0.2246571034193039</left_val>
            <right_val>0.3807336986064911</right_val></_></_>
        <_>
          <!-- tree 12 -->
          <_>
            <!-- root node -->
            <feature>
              <rects>
                <_>
                  4 2 11 4 -1.</_>
                <_>
                  4 2 11 2 2.</_></rects>
              <tilted>1</tilted></feature>
            <threshold>-0.0446206890046597</threshold>
            <left_val>0.4230315089225769</left_val>
            <right_val>-0.1802072972059250</right_val></_></_>
        <_>
          <!-- tree 13 -->
          <_>
            <!-- root node -->
            <feature>
              <rects>
                <_>
                  41 6 2 6 -1.</_>
                <_>
                  39 8 2 2 3.</_></rects>
              <tilted>1</tilted></feature>
            <threshold>-4.6539087779819965e-03</threshold>
            <left_val>0.4111314117908478</left_val>
            <right_val>-0.1897329986095428</right_val></_></_>
        <_>
          <!-- tree 14 -->
          <_>
            <!-- root node -->
            <feature>
              <rects>
                <_>
                  3 5 6 3 -1.</_>
                <_>
                  5 7 2 3 3.</_></rects>
              <tilted>1</tilted></feature>
            <threshold>0.0116686196997762</threshold>
            <left_val>0.1234809979796410</left_val>
            <right_val>-0.6203938126564026</right_val></_></_>
        <_>
          <!-- tree 15 -->
          <_>
            <!-- root node -->
            <feature>
              <rects>
                <_>
                  14 10 15 3 -1.</_>
                <_>
                  14 11 15 1 3.</_></rects>
              <tilted>0</tilted></feature>
            <threshold>5.0789299421012402e-03</threshold>
            <left_val>-0.2128552943468094</left_val>
            <right_val>0.3088223934173584</right_val></_></_>
        <_>
          <!-- tree 16 -->
          <_>
            <!-- root node -->
            <feature>
              <rects>
                <_>
                  18 13 7 4 -1.</_>
                <_>
                  18 14 7 2 2.</_></rects>
              <tilted>0</tilted></feature>
            <threshold>3.1176579650491476e-03</threshold>
            <left_val>-0.1889830976724625</left_val>
            <right_val>0.4126152098178864</right_val></_></_>
        <_>
          <!-- tree 17 -->
          <_>
            <!-- root node -->
            <feature>
              <rects>
                <_>
                  27 3 6 2 -1.</_>
                <_>
                  29 3 2 2 3.</_></rects>
              <tilted>0</tilted></feature>
            <threshold>-2.4921309668570757e-03</threshold>
            <left_val>-0.4839990139007568</left_val>
            <right_val>0.0762264505028725</right_val></_></_>
        <_>
          <!-- tree 18 -->
          <_>
            <!-- root node -->
            <feature>
              <rects>
                <_>
                  0 15 9 3 -1.</_>
                <_>
                  0 16 9 1 3.</_></rects>
              <tilted>0</tilted></feature>
            <threshold>-1.0995790362358093e-03</threshold>
            <left_val>-0.6876292824745178</left_val>
            <right_val>0.0751939564943314</right_val></_></_>
        <_>
          <!-- tree 19 -->
          <_>
            <!-- root node -->
            <feature>
              <rects>
                <_>
                  8 7 30 5 -1.</_>
                <_>
                  18 7 10 5 3.</_></rects>
              <tilted>0</tilted></feature>
            <threshold>-0.0555051304399967</threshold>
            <left_val>-0.6649042963981628</left_val>
            <right_val>0.0187008604407310</right_val></_></_>
        <_>
          <!-- tree 20 -->
          <_>
            <!-- root node -->
            <feature>
              <rects>
                <_>
                  0 13 5 6 -1.</_>
                <_>
                  0 15 5 2 3.</_></rects>
              <tilted>0</tilted></feature>
            <threshold>3.9026590529829264e-03</threshold>
            <left_val>0.1013967990875244</left_val>
            <right_val>-0.5511233806610107</right_val></_></_></trees>
      <stage_threshold>-1.4472450017929077</stage_threshold>
      <parent>6</parent>
      <next>-1</next></_>
    <_>
      <!-- stage 8 -->
      <trees>
        <_>
          <!-- tree 0 -->
          <_>
            <!-- root node -->
            <feature>
              <rects>
                <_>
                  13 8 17 6 -1.</_>
                <_>
                  13 10 17 2 3.</_></rects>
              <tilted>0</tilted></feature>
            <threshold>0.0350037589669228</threshold>
            <left_val>-0.4509024918079376</left_val>
            <right_val>0.7283970713615417</right_val></_></_>
        <_>
          <!-- tree 1 -->
          <_>
            <!-- root node -->
            <feature>
              <rects>
                <_>
                  30 17 10 2 -1.</_>
                <_>
                  30 18 10 1 2.</_></rects>
              <tilted>0</tilted></feature>
            <threshold>1.0795699927257374e-04</threshold>
            <left_val>-0.2249875962734222</left_val>
            <right_val>0.2590970098972321</right_val></_></_>
        <_>
          <!-- tree 2 -->
          <_>
            <!-- root node -->
            <feature>
              <rects>
                <_>
                  3 17 10 2 -1.</_>
                <_>
                  3 18 10 1 2.</_></rects>
              <tilted>0</tilted></feature>
            <threshold>-2.7865800075232983e-03</threshold>
            <left_val>-0.9455981254577637</left_val>
            <right_val>0.1804300993680954</right_val></_></_>
        <_>
          <!-- tree 3 -->
          <_>
            <!-- root node -->
            <feature>
              <rects>
                <_>
                  12 7 19 6 -1.</_>
                <_>
                  12 9 19 2 3.</_></rects>
              <tilted>0</tilted></feature>
            <threshold>0.0643726289272308</threshold>
            <left_val>-0.2092449069023132</left_val>
            <right_val>0.8738716244697571</right_val></_></_>
        <_>
          <!-- tree 4 -->
          <_>
            <!-- root node -->
            <feature>
              <rects>
                <_>
                  0 0 9 18 -1.</_>
                <_>
                  0 9 9 9 2.</_></rects>
              <tilted>0</tilted></feature>
            <threshold>3.6355140036903322e-04</threshold>
            <left_val>-0.5117303729057312</left_val>
            <right_val>0.2740426957607269</right_val></_></_>
        <_>
          <!-- tree 5 -->
          <_>
            <!-- root node -->
            <feature>
              <rects>
                <_>
                  22 7 1 6 -1.</_>
                <_>
                  20 9 1 2 3.</_></rects>
              <tilted>1</tilted></feature>
            <threshold>-5.7709249667823315e-03</threshold>
            <left_val>0.3654058873653412</left_val>
            <right_val>-0.1075104027986526</right_val></_></_>
        <_>
          <!-- tree 6 -->
          <_>
            <!-- root node -->
            <feature>
              <rects>
                <_>
                  8 5 21 6 -1.</_>
                <_>
                  15 5 7 6 3.</_></rects>
              <tilted>0</tilted></feature>
            <threshold>-0.0233821999281645</threshold>
            <left_val>-0.7821180224418640</left_val>
            <right_val>0.2102652937173843</right_val></_></_>
        <_>
          <!-- tree 7 -->
          <_>
            <!-- root node -->
            <feature>
              <rects>
                <_>
                  17 11 9 4 -1.</_>
                <_>
                  17 12 9 2 2.</_></rects>
              <tilted>0</tilted></feature>
            <threshold>9.0892426669597626e-03</threshold>
            <left_val>-0.2038692981004715</left_val>
            <right_val>0.6660009026527405</right_val></_></_>
        <_>
          <!-- tree 8 -->
          <_>
            <!-- root node -->
            <feature>
              <rects>
                <_>
                  12 11 1 6 -1.</_>
                <_>
                  12 11 1 3 2.</_></rects>
              <tilted>1</tilted></feature>
            <threshold>-1.3317499542608857e-04</threshold>
            <left_val>0.2332675009965897</left_val>
            <right_val>-0.5453860759735107</right_val></_></_>
        <_>
          <!-- tree 9 -->
          <_>
            <!-- root node -->
            <feature>
              <rects>
                <_>
                  1 7 42 12 -1.</_>
                <_>
                  22 7 21 6 2.</_>
                <_>
                  1 13 21 6 2.</_></rects>
              <tilted>0</tilted></feature>
            <threshold>0.1332482993602753</threshold>
            <left_val>0.1466982960700989</left_val>
            <right_val>-0.7126160860061646</right_val></_></_>
        <_>
          <!-- tree 10 -->
          <_>
            <!-- root node -->
            <feature>
              <rects>
                <_>
                  13 0 13 4 -1.</_>
                <_>
                  13 2 13 2 2.</_></rects>
              <tilted>0</tilted></feature>
            <threshold>4.4322069734334946e-03</threshold>
            <left_val>-0.2826879918575287</left_val>
            <right_val>0.3820734918117523</right_val></_></_>
        <_>
          <!-- tree 11 -->
          <_>
            <!-- root node -->
            <feature>
              <rects>
                <_>
                  14 10 15 4 -1.</_>
                <_>
                  14 11 15 2 2.</_></rects>
              <tilted>0</tilted></feature>
            <threshold>-0.0101973796263337</threshold>
            <left_val>0.6955131888389587</left_val>
            <right_val>-0.1440515965223312</right_val></_></_></trees>
      <stage_threshold>-1.3572039604187012</stage_threshold>
      <parent>7</parent>
      <next>-1</next></_>
    <_>
      <!-- stage 9 -->
      <trees>
        <_>
          <!-- tree 0 -->
          <_>
            <!-- root node -->
            <feature>
              <rects>
                <_>
                  5 8 33 6 -1.</_>
                <_>
                  16 10 11 2 9.</_></rects>
              <tilted>0</tilted></feature>
            <threshold>0.3288944065570831</threshold>
            <left_val>-0.2751914858818054</left_val>
            <right_val>0.7140343785285950</right_val></_></_>
        <_>
          <!-- tree 1 -->
          <_>
            <!-- root node -->
            <feature>
              <rects>
                <_>
                  39 3 4 9 -1.</_>
                <_>
                  39 3 2 9 2.</_></rects>
              <tilted>1</tilted></feature>
            <threshold>0.0323684997856617</threshold>
            <left_val>-0.0386728197336197</left_val>
            <right_val>0.4574232995510101</right_val></_></_>
        <_>
          <!-- tree 2 -->
          <_>
            <!-- root node -->
            <feature>
              <rects>
                <_>
                  4 3 9 4 -1.</_>
                <_>
                  4 3 9 2 2.</_></rects>
              <tilted>1</tilted></feature>
            <threshold>-0.0274875108152628</threshold>
            <left_val>0.2712799906730652</left_val>
            <right_val>-0.3980104923248291</right_val></_></_>
        <_>
          <!-- tree 3 -->
          <_>
            <!-- root node -->
            <feature>
              <rects>
                <_>
                  12 7 19 6 -1.</_>
                <_>
                  12 9 19 2 3.</_></rects>
              <tilted>0</tilted></feature>
            <threshold>0.0530627705156803</threshold>
            <left_val>-0.1647540032863617</left_val>
            <right_val>0.4832215905189514</right_val></_></_>
        <_>
          <!-- tree 4 -->
          <_>
            <!-- root node -->
            <feature>
              <rects>
                <_>
                  16 11 11 3 -1.</_>
                <_>
                  16 12 11 1 3.</_></rects>
              <tilted>0</tilted></feature>
            <threshold>4.1448730044066906e-03</threshold>
            <left_val>-0.2168994992971420</left_val>
            <right_val>0.3945290148258209</right_val></_></_>
        <_>
          <!-- tree 5 -->
          <_>
            <!-- root node -->
            <feature>
              <rects>
                <_>
                  2 18 40 1 -1.</_>
                <_>
                  12 18 20 1 2.</_></rects>
              <tilted>0</tilted></feature>
            <threshold>0.0136337298899889</threshold>
            <left_val>0.1815049052238464</left_val>
            <right_val>-0.5069969296455383</right_val></_></_>
        <_>
          <!-- tree 6 -->
          <_>
            <!-- root node -->
            <feature>
              <rects>
                <_>
                  3 4 36 6 -1.</_>
                <_>
                  12 4 18 6 2.</_></rects>
              <tilted>0</tilted></feature>
            <threshold>-0.0138385100290179</threshold>
            <left_val>-0.5166277289390564</left_val>
            <right_val>0.1121079996228218</right_val></_></_>
        <_>
          <!-- tree 7 -->
          <_>
            <!-- root node -->
            <feature>
              <rects>
                <_>
                  31 15 2 2 -1.</_>
                <_>
                  31 15 2 1 2.</_></rects>
              <tilted>1</tilted></feature>
            <threshold>-9.2774850782006979e-04</threshold>
            <left_val>0.0996366068720818</left_val>
            <right_val>-0.0287314299494028</right_val></_></_>
        <_>
          <!-- tree 8 -->
          <_>
            <!-- root node -->
            <feature>
              <rects>
                <_>
                  21 0 9 10 -1.</_>
                <_>
                  24 3 3 10 3.</_></rects>
              <tilted>1</tilted></feature>
            <threshold>0.0624026097357273</threshold>
            <left_val>0.0890948697924614</left_val>
            <right_val>-0.5725175142288208</right_val></_></_>
        <_>
          <!-- tree 9 -->
          <_>
            <!-- root node -->
            <feature>
              <rects>
                <_>
                  16 5 12 14 -1.</_>
                <_>
                  22 5 6 7 2.</_>
                <_>
                  16 12 6 7 2.</_></rects>
              <tilted>0</tilted></feature>
            <threshold>-0.0343303605914116</threshold>
            <left_val>-0.5903050899505615</left_val>
            <right_val>0.1050473973155022</right_val></_></_>
        <_>
          <!-- tree 10 -->
          <_>
            <!-- root node -->
            <feature>
              <rects>
                <_>
                  13 6 15 4 -1.</_>
                <_>
                  18 6 5 4 3.</_></rects>
              <tilted>0</tilted></feature>
            <threshold>-0.0126122804358602</threshold>
            <left_val>-0.6328861713409424</left_val>
            <right_val>0.0755526870489120</right_val></_></_>
        <_>
          <!-- tree 11 -->
          <_>
            <!-- root node -->
            <feature>
              <rects>
                <_>
                  16 9 11 2 -1.</_>
                <_>
                  16 10 11 1 2.</_></rects>
              <tilted>0</tilted></feature>
            <threshold>6.2404558993875980e-03</threshold>
            <left_val>-0.1969847977161407</left_val>
            <right_val>0.2874172925949097</right_val></_></_>
        <_>
          <!-- tree 12 -->
          <_>
            <!-- root node -->
            <feature>
              <rects>
                <_>
                  2 6 39 6 -1.</_>
                <_>
                  15 8 13 2 9.</_></rects>
              <tilted>0</tilted></feature>
            <threshold>0.3745301067829132</threshold>
            <left_val>-0.0733710229396820</left_val>
            <right_val>0.7300301790237427</right_val></_></_>
        <_>
          <!-- tree 13 -->
          <_>
            <!-- root node -->
            <feature>
              <rects>
                <_>
                  17 13 9 3 -1.</_>
                <_>
                  17 14 9 1 3.</_></rects>
              <tilted>0</tilted></feature>
            <threshold>2.7347418945282698e-03</threshold>
            <left_val>-0.1425887048244476</left_val>
            <right_val>0.3920159935951233</right_val></_></_>
        <_>
          <!-- tree 14 -->
          <_>
            <!-- root node -->
            <feature>
              <rects>
                <_>
                  0 17 10 2 -1.</_>
                <_>
                  0 18 10 1 2.</_></rects>
              <tilted>0</tilted></feature>
            <threshold>1.9111150177195668e-03</threshold>
            <left_val>0.0913449078798294</left_val>
            <right_val>-0.6318045854568481</right_val></_></_>
        <_>
          <!-- tree 15 -->
          <_>
            <!-- root node -->
            <feature>
              <rects>
                <_>
                  3 9 40 8 -1.</_>
                <_>
                  23 9 20 4 2.</_>
                <_>
                  3 13 20 4 2.</_></rects>
              <tilted>0</tilted></feature>
            <threshold>0.0686474964022636</threshold>
            <left_val>0.0765040963888168</left_val>
            <right_val>-0.4360410869121552</right_val></_></_>
        <_>
          <!-- tree 16 -->
          <_>
            <!-- root node -->
            <feature>
              <rects>
                <_>
                  11 5 6 4 -1.</_>
                <_>
                  10 6 6 2 2.</_></rects>
              <tilted>1</tilted></feature>
            <threshold>-0.0103133199736476</threshold>
            <left_val>0.2718592882156372</left_val>
            <right_val>-0.1859111934900284</right_val></_></_>
        <_>
          <!-- tree 17 -->
          <_>
            <!-- root node -->
            <feature>
              <rects>
                <_>
                  34 17 3 2 -1.</_>
                <_>
                  34 18 3 1 2.</_></rects>
              <tilted>0</tilted></feature>
            <threshold>-4.6240180381573737e-04</threshold>
            <left_val>-0.2300041019916534</left_val>
            <right_val>0.0677438080310822</right_val></_></_>
        <_>
          <!-- tree 18 -->
          <_>
            <!-- root node -->
            <feature>
              <rects>
                <_>
                  3 9 3 3 -1.</_>
                <_>
                  4 10 1 3 3.</_></rects>
              <tilted>1</tilted></feature>
            <threshold>2.1680761128664017e-03</threshold>
            <left_val>0.0740492865443230</left_val>
            <right_val>-0.5944867730140686</right_val></_></_>
        <_>
          <!-- tree 19 -->
          <_>
            <!-- root node -->
            <feature>
              <rects>
                <_>
                  34 17 3 2 -1.</_>
                <_>
                  34 18 3 1 2.</_></rects>
              <tilted>0</tilted></feature>
            <threshold>4.5945050078444183e-04</threshold>
            <left_val>-0.0301604904234409</left_val>
            <right_val>0.0370963290333748</right_val></_></_>
        <_>
          <!-- tree 20 -->
          <_>
            <!-- root node -->
            <feature>
              <rects>
                <_>
                  6 17 3 2 -1.</_>
                <_>
                  6 18 3 1 2.</_></rects>
              <tilted>0</tilted></feature>
            <threshold>-4.9449317157268524e-04</threshold>
            <left_val>-0.5030834078788757</left_val>
            <right_val>0.0858924835920334</right_val></_></_>
        <_>
          <!-- tree 21 -->
          <_>
            <!-- root node -->
            <feature>
              <rects>
                <_>
                  14 9 22 4 -1.</_>
                <_>
                  25 9 11 2 2.</_>
                <_>
                  14 11 11 2 2.</_></rects>
              <tilted>0</tilted></feature>
            <threshold>0.0270928200334311</threshold>
            <left_val>0.0243279803544283</left_val>
            <right_val>-0.1942337006330490</right_val></_></_>
        <_>
          <!-- tree 22 -->
          <_>
            <!-- root node -->
            <feature>
              <rects>
                <_>
                  2 10 39 6 -1.</_>
                <_>
                  15 12 13 2 9.</_></rects>
              <tilted>0</tilted></feature>
            <threshold>0.2976523041725159</threshold>
            <left_val>-0.0937292426824570</left_val>
            <right_val>0.4695883095264435</right_val></_></_>
        <_>
          <!-- tree 23 -->
          <_>
            <!-- root node -->
            <feature>
              <rects>
                <_>
                  18 15 7 4 -1.</_>
                <_>
                  18 16 7 2 2.</_></rects>
              <tilted>0</tilted></feature>
            <threshold>2.0377680193632841e-03</threshold>
            <left_val>-0.1412850022315979</left_val>
            <right_val>0.2772254943847656</right_val></_></_>
        <_>
          <!-- tree 24 -->
          <_>
            <!-- root node -->
            <feature>
              <rects>
                <_>
                  13 0 2 5 -1.</_>
                <_>
                  13 0 1 5 2.</_></rects>
              <tilted>1</tilted></feature>
            <threshold>-1.8936980050057173e-03</threshold>
            <left_val>-0.3871329128742218</left_val>
            <right_val>0.1061689034104347</right_val></_></_>
        <_>
          <!-- tree 25 -->
          <_>
            <!-- root node -->
            <feature>
              <rects>
                <_>
                  26 2 8 4 -1.</_>
                <_>
                  28 2 4 4 2.</_></rects>
              <tilted>0</tilted></feature>
            <threshold>-3.2124060671776533e-03</threshold>
            <left_val>-0.2937707006931305</left_val>
            <right_val>0.0677878931164742</right_val></_></_>
        <_>
          <!-- tree 26 -->
          <_>
            <!-- root node -->
            <feature>
              <rects>
                <_>
                  9 2 8 4 -1.</_>
                <_>
                  11 2 4 4 2.</_></rects>
              <tilted>0</tilted></feature>
            <threshold>-4.9263797700405121e-03</threshold>
            <left_val>-0.6203898191452026</left_val>
            <right_val>0.0684578567743301</right_val></_></_>
        <_>
          <!-- tree 27 -->
          <_>
            <!-- root node -->
            <feature>
              <rects>
                <_>
                  25 3 3 2 -1.</_>
                <_>
                  26 3 1 2 3.</_></rects>
              <tilted>0</tilted></feature>
            <threshold>4.3169109267182648e-04</threshold>
            <left_val>0.0290800090879202</left_val>
            <right_val>-0.2598018944263458</right_val></_></_>
        <_>
          <!-- tree 28 -->
          <_>
            <!-- root node -->
            <feature>
              <rects>
                <_>
                  15 3 3 2 -1.</_>
                <_>
                  16 3 1 2 3.</_></rects>
              <tilted>0</tilted></feature>
            <threshold>-5.1961361896246672e-04</threshold>
            <left_val>-0.5395563840866089</left_val>
            <right_val>0.0684769898653030</right_val></_></_>
        <_>
          <!-- tree 29 -->
          <_>
            <!-- root node -->
            <feature>
              <rects>
                <_>
                  18 8 12 11 -1.</_>
                <_>
                  22 8 4 11 3.</_></rects>
              <tilted>0</tilted></feature>
            <threshold>-0.0275938492268324</threshold>
            <left_val>-0.5786405205726624</left_val>
            <right_val>0.0458064116537571</right_val></_></_>
        <_>
          <!-- tree 30 -->
          <_>
            <!-- root node -->
            <feature>
              <rects>
                <_>
                  0 1 14 18 -1.</_>
                <_>
                  0 10 14 9 2.</_></rects>
              <tilted>0</tilted></feature>
            <threshold>-5.0218352116644382e-03</threshold>
            <left_val>-0.3017990887165070</left_val>
            <right_val>0.1228132992982864</right_val></_></_>
        <_>
          <!-- tree 31 -->
          <_>
            <!-- root node -->
            <feature>
              <rects>
                <_>
                  12 3 19 6 -1.</_>
                <_>
                  12 5 19 2 3.</_></rects>
              <tilted>0</tilted></feature>
            <threshold>0.0242857504636049</threshold>
            <left_val>-0.1406925022602081</left_val>
            <right_val>0.2689014971256256</right_val></_></_>
        <_>
          <!-- tree 32 -->
          <_>
            <!-- root node -->
            <feature>
              <rects>
                <_>
                  12 7 7 4 -1.</_>
                <_>
                  12 8 7 2 2.</_></rects>
              <tilted>0</tilted></feature>
            <threshold>3.3081639558076859e-03</threshold>
            <left_val>-0.1164205968379974</left_val>
            <right_val>0.2856006026268005</right_val></_></_>
        <_>
          <!-- tree 33 -->
          <_>
            <!-- root node -->
            <feature>
              <rects>
                <_>
                  3 9 40 10 -1.</_>
                <_>
                  23 9 20 5 2.</_>
                <_>
                  3 14 20 5 2.</_></rects>
              <tilted>0</tilted></feature>
            <threshold>0.0324673689901829</threshold>
            <left_val>0.1046869978308678</left_val>
            <right_val>-0.1973807960748672</right_val></_></_>
        <_>
          <!-- tree 34 -->
          <_>
            <!-- root node -->
            <feature>
              <rects>
                <_>
                  0 13 10 2 -1.</_>
                <_>
                  0 13 5 1 2.</_>
                <_>
                  5 14 5 1 2.</_></rects>
              <tilted>0</tilted></feature>
            <threshold>-1.5922609600238502e-04</threshold>
            <left_val>-0.3596689105033875</left_val>
            <right_val>0.1001736000180244</right_val></_></_>
        <_>
          <!-- tree 35 -->
          <_>
            <!-- root node -->
            <feature>
              <rects>
                <_>
                  11 9 32 10 -1.</_>
                <_>
                  27 9 16 5 2.</_>
                <_>
                  11 14 16 5 2.</_></rects>
              <tilted>0</tilted></feature>
            <threshold>0.0728304088115692</threshold>
            <left_val>0.0319260805845261</left_val>
            <right_val>-0.2609367966651917</right_val></_></_>
        <_>
          <!-- tree 36 -->
          <_>
            <!-- root node -->
            <feature>
              <rects>
                <_>
                  19 0 4 7 -1.</_>
                <_>
                  20 1 2 7 2.</_></rects>
              <tilted>1</tilted></feature>
            <threshold>-0.0108705498278141</threshold>
            <left_val>-0.5453823804855347</left_val>
            <right_val>0.0606020092964172</right_val></_></_>
        <_>
          <!-- tree 37 -->
          <_>
            <!-- root node -->
            <feature>
              <rects>
                <_>
                  13 0 18 10 -1.</_>
                <_>
                  22 0 9 5 2.</_>
                <_>
                  13 5 9 5 2.</_></rects>
              <tilted>0</tilted></feature>
            <threshold>0.0379609912633896</threshold>
            <left_val>0.0914111807942390</left_val>
            <right_val>-0.3779872953891754</right_val></_></_>
        <_>
          <!-- tree 38 -->
          <_>
            <!-- root node -->
            <feature>
              <rects>
                <_>
                  13 0 17 2 -1.</_>
                <_>
                  13 1 17 1 2.</_></rects>
              <tilted>0</tilted></feature>
            <threshold>2.3380620405077934e-03</threshold>
            <left_val>-0.1595109999179840</left_val>
            <right_val>0.2007289975881577</right_val></_></_></trees>
      <stage_threshold>-1.5033450126647949</stage_threshold>
      <parent>8</parent>
      <next>-1</next></_>
    <_>
      <!-- stage 10 -->
      <trees>
        <_>
          <!-- tree 0 -->
          <_>
            <!-- root node -->
            <feature>
              <rects>
                <_>
                  3 10 36 1 -1.</_>
                <_>
                  12 10 18 1 2.</_></rects>
              <tilted>0</tilted></feature>
            <threshold>0.0311120003461838</threshold>
            <left_val>-0.3182750940322876</left_val>
            <right_val>0.5619807243347168</right_val></_></_>
        <_>
          <!-- tree 1 -->
          <_>
            <!-- root node -->
            <feature>
              <rects>
                <_>
                  34 3 6 9 -1.</_>
                <_>
                  36 5 2 9 3.</_></rects>
              <tilted>1</tilted></feature>
            <threshold>-0.0689516812562943</threshold>
            <left_val>0.4661625921726227</left_val>
            <right_val>-0.0236991606652737</right_val></_></_>
        <_>
          <!-- tree 2 -->
          <_>
            <!-- root node -->
            <feature>
              <rects>
                <_>
                  9 3 9 6 -1.</_>
                <_>
                  7 5 9 2 3.</_></rects>
              <tilted>1</tilted></feature>
            <threshold>-0.0495922900736332</threshold>
            <left_val>0.4002149105072021</left_val>
            <right_val>-0.3005942106246948</right_val></_></_>
        <_>
          <!-- tree 3 -->
          <_>
            <!-- root node -->
            <feature>
              <rects>
                <_>
                  17 10 9 4 -1.</_>
                <_>
                  17 11 9 2 2.</_></rects>
              <tilted>0</tilted></feature>
            <threshold>7.6876040548086166e-03</threshold>
            <left_val>-0.1916038990020752</left_val>
            <right_val>0.4316745102405548</right_val></_></_>
        <_>
          <!-- tree 4 -->
          <_>
            <!-- root node -->
            <feature>
              <rects>
                <_>
                  16 10 3 4 -1.</_>
                <_>
                  16 11 3 2 2.</_></rects>
              <tilted>0</tilted></feature>
            <threshold>-1.7698359442874789e-03</threshold>
            <left_val>0.3892743885517120</left_val>
            <right_val>-0.1927009969949722</right_val></_></_>
        <_>
          <!-- tree 5 -->
          <_>
            <!-- root node -->
            <feature>
              <rects>
                <_>
                  34 13 3 3 -1.</_>
                <_>
                  33 14 3 1 3.</_></rects>
              <tilted>1</tilted></feature>
            <threshold>-1.1972669744864106e-03</threshold>
            <left_val>-0.1563241034746170</left_val>
            <right_val>0.0912292227149010</right_val></_></_>
        <_>
          <!-- tree 6 -->
          <_>
            <!-- root node -->
            <feature>
              <rects>
                <_>
                  9 13 3 3 -1.</_>
                <_>
                  10 14 1 3 3.</_></rects>
              <tilted>1</tilted></feature>
            <threshold>2.0437769126147032e-03</threshold>
            <left_val>0.1090935021638870</left_val>
            <right_val>-0.7253165245056152</right_val></_></_>
        <_>
          <!-- tree 7 -->
          <_>
            <!-- root node -->
            <feature>
              <rects>
                <_>
                  22 0 11 8 -1.</_>
                <_>
                  20 2 11 4 2.</_></rects>
              <tilted>1</tilted></feature>
            <threshold>-0.0416056998074055</threshold>
            <left_val>-0.7035201191902161</left_val>
            <right_val>0.0375937111675739</right_val></_></_>
        <_>
          <!-- tree 8 -->
          <_>
            <!-- root node -->
            <feature>
              <rects>
                <_>
                  13 0 17 8 -1.</_>
                <_>
                  13 2 17 4 2.</_></rects>
              <tilted>0</tilted></feature>
            <threshold>0.0413904897868633</threshold>
            <left_val>-0.2088949978351593</left_val>
            <right_val>0.3349848091602325</right_val></_></_>
        <_>
          <!-- tree 9 -->
          <_>
            <!-- root node -->
            <feature>
              <rects>
                <_>
                  37 3 6 4 -1.</_>
                <_>
                  37 3 3 4 2.</_></rects>
              <tilted>1</tilted></feature>
            <threshold>-0.0375049598515034</threshold>
            <left_val>0.3732266128063202</left_val>
            <right_val>-2.5639110244810581e-03</right_val></_></_>
        <_>
          <!-- tree 10 -->
          <_>
            <!-- root node -->
            <feature>
              <rects>
                <_>
                  6 3 4 6 -1.</_>
                <_>
                  6 3 4 3 2.</_></rects>
              <tilted>1</tilted></feature>
            <threshold>-0.0142554501071572</threshold>
            <left_val>0.2021028995513916</left_val>
            <right_val>-0.2970401942729950</right_val></_></_>
        <_>
          <!-- tree 11 -->
          <_>
            <!-- root node -->
            <feature>
              <rects>
                <_>
                  36 14 1 4 -1.</_>
                <_>
                  35 15 1 2 2.</_></rects>
              <tilted>1</tilted></feature>
            <threshold>-1.8005230231210589e-03</threshold>
            <left_val>-0.2816048860549927</left_val>
            <right_val>0.0183345191180706</right_val></_></_>
        <_>
          <!-- tree 12 -->
          <_>
            <!-- root node -->
            <feature>
              <rects>
                <_>
                  7 14 4 1 -1.</_>
                <_>
                  8 15 2 1 2.</_></rects>
              <tilted>1</tilted></feature>
            <threshold>-5.4813298629596829e-04</threshold>
            <left_val>-0.4630205929279327</left_val>
            <right_val>0.1387864947319031</right_val></_></_>
        <_>
          <!-- tree 13 -->
          <_>
            <!-- root node -->
            <feature>
              <rects>
                <_>
                  11 11 32 6 -1.</_>
                <_>
                  27 11 16 3 2.</_>
                <_>
                  11 14 16 3 2.</_></rects>
              <tilted>0</tilted></feature>
            <threshold>-0.0173532292246819</threshold>
            <left_val>0.1456767022609711</left_val>
            <right_val>-0.1538141965866089</right_val></_></_>
        <_>
          <!-- tree 14 -->
          <_>
            <!-- root node -->
            <feature>
              <rects>
                <_>
                  21 1 6 6 -1.</_>
                <_>
                  23 3 2 6 3.</_></rects>
              <tilted>1</tilted></feature>
            <threshold>-0.0300808399915695</threshold>
            <left_val>-0.7111067175865173</left_val>
            <right_val>0.0692064985632896</right_val></_></_>
        <_>
          <!-- tree 15 -->
          <_>
            <!-- root node -->
            <feature>
              <rects>
                <_>
                  35 0 2 2 -1.</_>
                <_>
                  35 0 1 2 2.</_></rects>
              <tilted>1</tilted></feature>
            <threshold>9.4029371393844485e-04</threshold>
            <left_val>0.0375620312988758</left_val>
            <right_val>-0.1671337932348251</right_val></_></_>
        <_>
          <!-- tree 16 -->
          <_>
            <!-- root node -->
            <feature>
              <rects>
                <_>
                  8 0 2 2 -1.</_>
                <_>
                  8 0 2 1 2.</_></rects>
              <tilted>1</tilted></feature>
            <threshold>-8.9918507728725672e-04</threshold>
            <left_val>-0.6151574254035950</left_val>
            <right_val>0.0949051529169083</right_val></_></_>
        <_>
          <!-- tree 17 -->
          <_>
            <!-- root node -->
            <feature>
              <rects>
                <_>
                  22 2 2 15 -1.</_>
                <_>
                  17 7 2 5 3.</_></rects>
              <tilted>1</tilted></feature>
            <threshold>0.0551288500428200</threshold>
            <left_val>-0.0407133698463440</left_val>
            <right_val>0.2995330989360809</right_val></_></_>
        <_>
          <!-- tree 18 -->
          <_>
            <!-- root node -->
            <feature>
              <rects>
                <_>
                  1 16 14 3 -1.</_>
                <_>
                  1 17 14 1 3.</_></rects>
              <tilted>0</tilted></feature>
            <threshold>2.8937060851603746e-03</threshold>
            <left_val>0.0704159215092659</left_val>
            <right_val>-0.6439328789710999</right_val></_></_>
        <_>
          <!-- tree 19 -->
          <_>
            <!-- root node -->
            <feature>
              <rects>
                <_>
                  11 10 30 8 -1.</_>
                <_>
                  26 10 15 4 2.</_>
                <_>
                  11 14 15 4 2.</_></rects>
              <tilted>0</tilted></feature>
            <threshold>0.0712641626596451</threshold>
            <left_val>0.0214446391910315</left_val>
            <right_val>-0.3696326911449432</right_val></_></_>
        <_>
          <!-- tree 20 -->
          <_>
            <!-- root node -->
            <feature>
              <rects>
                <_>
                  15 11 13 6 -1.</_>
                <_>
                  15 13 13 2 3.</_></rects>
              <tilted>0</tilted></feature>
            <threshold>0.0311491806060076</threshold>
            <left_val>-0.0944641083478928</left_val>
            <right_val>0.4774839878082275</right_val></_></_>
        <_>
          <!-- tree 21 -->
          <_>
            <!-- root node -->
            <feature>
              <rects>
                <_>
                  9 10 34 6 -1.</_>
                <_>
                  26 10 17 3 2.</_>
                <_>
                  9 13 17 3 2.</_></rects>
              <tilted>0</tilted></feature>
            <threshold>-0.1593573987483978</threshold>
            <left_val>-0.6382712125778198</left_val>
            <right_val>0.0128518901765347</right_val></_></_>
        <_>
          <!-- tree 22 -->
          <_>
            <!-- root node -->
            <feature>
              <rects>
                <_>
                  0 10 32 6 -1.</_>
                <_>
                  0 10 16 3 2.</_>
                <_>
                  16 13 16 3 2.</_></rects>
              <tilted>0</tilted></feature>
            <threshold>-0.0552352294325829</threshold>
            <left_val>0.3573279082775116</left_val>
            <right_val>-0.1557970046997070</right_val></_></_>
        <_>
          <!-- tree 23 -->
          <_>
            <!-- root node -->
            <feature>
              <rects>
                <_>
                  18 13 7 6 -1.</_>
                <_>
                  18 15 7 2 3.</_></rects>
              <tilted>0</tilted></feature>
            <threshold>0.0165239702910185</threshold>
            <left_val>-0.1106308996677399</left_val>
            <right_val>0.4218069016933441</right_val></_></_>
        <_>
          <!-- tree 24 -->
          <_>
            <!-- root node -->
            <feature>
