<?xml version="1.0"?>
<opencv_storage>
<flickrlw type_id="opencv-haar-classifier">
  <size>
    43 19</size>
  <stages>
    <_>
      <!-- stage 0 -->
      <trees>
        <_>
          <!-- tree 0 -->
          <_>
            <!-- root node -->
            <feature>
              <rects>
                <_>
                  8 1 10 8 -1.</_>
                <_>
                  6 3 10 4 2.</_></rects>
              <tilted>1</tilted></feature>
            <threshold>-0.0352968387305737</threshold>
            <left_val>0.7272543907165527</left_val>
            <right_val>-0.5575044155120850</right_val></_></_>
        <_>
          <!-- tree 1 -->
          <_>
            <!-- root node -->
            <feature>
              <rects>
                <_>
                  5 8 33 6 -1.</_>
                <_>
                  16 10 11 2 9.</_></rects>
              <tilted>0</tilted></feature>
            <threshold>0.2124972045421600</threshold>
            <left_val>-0.3355003893375397</left_val>
            <right_val>0.8720384240150452</right_val></_></_>
        <_>
          <!-- tree 2 -->
          <_>
            <!-- root node -->
            <feature>
              <rects>
                <_>
                  8 6 27 7 -1.</_>
                <_>
                  17 6 9 7 3.</_></rects>
              <tilted>0</tilted></feature>
            <threshold>-0.0240229293704033</threshold>
            <left_val>-0.6029508113861084</left_val>
            <right_val>0.2977524101734161</right_val></_></_>
        <_>
          <!-- tree 3 -->
          <_>
            <!-- root node -->
            <feature>
              <rects>
                <_>
                  16 3 12 9 -1.</_>
                <_>
                  20 3 4 9 3.</_></rects>
              <tilted>0</tilted></feature>
            <threshold>0.0432793013751507</threshold>
            <left_val>0.1821531057357788</left_val>
            <right_val>-0.8697491884231567</right_val></_></_>
        <_>
          <!-- tree 4 -->
          <_>
            <!-- root node -->
            <feature>
              <rects>
                <_>
                  5 7 6 12 -1.</_>
                <_>
                  5 13 6 6 2.</_></rects>
              <tilted>0</tilted></feature>
            <threshold>8.6735337972640991e-03</threshold>
            <left_val>-0.5159059166908264</left_val>
            <right_val>0.2656210958957672</right_val></_></_>
        <_>
          <!-- tree 5 -->
          <_>
            <!-- root node -->
            <feature>
              <rects>
                <_>
                  15 8 13 3 -1.</_>
                <_>
                  15 9 13 1 3.</_></rects>
              <tilted>0</tilted></feature>
            <threshold>7.2939861565828323e-03</threshold>
            <left_val>-0.1689212024211884</left_val>
            <right_val>0.8264697194099426</right_val></_></_>
        <_>
          <!-- tree 6 -->
          <_>
            <!-- root node -->
            <feature>
              <rects>
                <_>
                  17 7 8 6 -1.</_>
                <_>
                  17 9 8 2 3.</_></rects>
              <tilted>0</tilted></feature>
            <threshold>-0.0210364907979965</threshold>
            <left_val>0.7658640742301941</left_val>
            <right_val>-0.2165548056364059</right_val></_></_>
        <_>
          <!-- tree 7 -->
          <_>
            <!-- root node -->
            <feature>
              <rects>
                <_>
                  17 9 9 3 -1.</_>
                <_>
                  17 10 9 1 3.</_></rects>
              <tilted>0</tilted></feature>
            <threshold>4.2551150545477867e-03</threshold>
            <left_val>-0.1996809989213943</left_val>
            <right_val>0.7130460143089294</right_val></_></_>
        <_>
          <!-- tree 8 -->
          <_>
            <!-- root node -->
            <feature>
              <rects>
                <_>
                  12 0 18 6 -1.</_>
                <_>
                  12 3 18 3 2.</_></rects>
              <tilted>0</tilted></feature>
            <threshold>4.3265880085527897e-03</threshold>
            <left_val>-0.2528494894504547</left_val>
            <right_val>0.4658375084400177</right_val></_></_>
        <_>
          <!-- tree 9 -->
          <_>
            <!-- root node -->
            <feature>
              <rects>
                <_>
                  33 8 3 4 -1.</_>
                <_>
                  34 9 1 4 3.</_></rects>
              <tilted>1</tilted></feature>
            <threshold>-7.1933898143470287e-03</threshold>
            <left_val>0.5238851904869080</left_val>
            <right_val>-0.1115152984857559</right_val></_></_>
        <_>
          <!-- tree 10 -->
          <_>
            <!-- root node -->
            <feature>
              <rects>
                <_>
                  9 7 6 3 -1.</_>
                <_>
                  8 8 6 1 3.</_></rects>
              <tilted>1</tilted></feature>
            <threshold>3.7000749725848436e-03</threshold>
            <left_val>-0.1777178943157196</left_val>
            <right_val>0.5753737092018127</right_val></_></_></trees>
      <stage_threshold>-1.5400199890136719</stage_threshold>
      <parent>-1</parent>
      <next>-1</next></_>
    <_>
      <!-- stage 1 -->
      <trees>
        <_>
          <!-- tree 0 -->
          <_>
            <!-- root node -->
            <feature>
              <rects>
                <_>
                  5 8 33 6 -1.</_>
                <_>
                  16 10 11 2 9.</_></rects>
              <tilted>0</tilted></feature>
            <threshold>0.2489183992147446</threshold>
            <left_val>-0.3818063139915466</left_val>
            <right_val>0.8956645131111145</right_val></_></_>
        <_>
          <!-- tree 1 -->
          <_>
            <!-- root node -->
            <feature>
              <rects>
                <_>
                  33 2 8 7 -1.</_>
                <_>
                  35 4 4 7 2.</_></rects>
              <tilted>1</tilted></feature>
            <threshold>-0.0388690605759621</threshold>
            <left_val>0.5780054926872253</left_val>
            <right_val>-0.1521100997924805</right_val></_></_>
        <_>
          <!-- tree 2 -->
          <_>
            <!-- root node -->
            <feature>
              <rects>
                <_>
                  8 1 10 8 -1.</_>
                <_>
                  6 3 10 4 2.</_></rects>
              <tilted>1</tilted></feature>
            <threshold>-0.0530637018382549</threshold>
            <left_val>0.6534528732299805</left_val>
            <right_val>-0.3189491033554077</right_val></_></_>
        <_>
          <!-- tree 3 -->
          <_>
            <!-- root node -->
            <feature>
              <rects>
                <_>
                  14 10 15 4 -1.</_>
                <_>
                  14 11 15 2 2.</_></rects>
              <tilted>0</tilted></feature>
            <threshold>0.0107133397832513</threshold>
            <left_val>-0.2104696035385132</left_val>
            <right_val>0.6827455759048462</right_val></_></_>
        <_>
          <!-- tree 4 -->
          <_>
            <!-- root node -->
            <feature>
              <rects>
                <_>
                  17 9 6 6 -1.</_>
                <_>
                  17 11 6 2 3.</_></rects>
              <tilted>0</tilted></feature>
            <threshold>-0.0127968899905682</threshold>
            <left_val>0.6768224239349365</left_val>
            <right_val>-0.2253502011299133</right_val></_></_>
        <_>
          <!-- tree 5 -->
          <_>
            <!-- root node -->
            <feature>
              <rects>
                <_>
                  25 4 18 9 -1.</_>
                <_>
                  31 7 6 3 9.</_></rects>
              <tilted>0</tilted></feature>
            <threshold>-0.0128646902740002</threshold>
            <left_val>0.1996604055166245</left_val>
            <right_val>-0.1644355952739716</right_val></_></_>
        <_>
          <!-- tree 6 -->
          <_>
            <!-- root node -->
            <feature>
              <rects>
                <_>
                  16 12 11 3 -1.</_>
                <_>
                  16 13 11 1 3.</_></rects>
              <tilted>0</tilted></feature>
            <threshold>5.1512708887457848e-03</threshold>
            <left_val>-0.1818058043718338</left_val>
            <right_val>0.5960112810134888</right_val></_></_>
        <_>
          <!-- tree 7 -->
          <_>
            <!-- root node -->
            <feature>
              <rects>
                <_>
                  18 10 7 3 -1.</_>
                <_>
                  18 11 7 1 3.</_></rects>
              <tilted>0</tilted></feature>
            <threshold>2.6560549158602953e-03</threshold>
            <left_val>-0.2228572964668274</left_val>
            <right_val>0.5199232101440430</right_val></_></_>
        <_>
          <!-- tree 8 -->
          <_>
            <!-- root node -->
            <feature>
              <rects>
                <_>
                  10 2 7 6 -1.</_>
                <_>
                  8 4 7 2 3.</_></rects>
              <tilted>1</tilted></feature>
            <threshold>-0.0359905809164047</threshold>
            <left_val>0.6892839074134827</left_val>
            <right_val>-0.1655427068471909</right_val></_></_>
        <_>
          <!-- tree 9 -->
          <_>
            <!-- root node -->
            <feature>
              <rects>
                <_>
                  19 5 12 11 -1.</_>
                <_>
                  23 5 4 11 3.</_></rects>
              <tilted>0</tilted></feature>
            <threshold>-0.0247728005051613</threshold>
            <left_val>-0.6704226136207581</left_val>
            <right_val>0.1891926974058151</right_val></_></_>
        <_>
          <!-- tree 10 -->
          <_>
            <!-- root node -->
            <feature>
              <rects>
                <_>
                  12 7 12 10 -1.</_>
                <_>
                  16 7 4 10 3.</_></rects>
              <tilted>0</tilted></feature>
            <threshold>-0.0227739103138447</threshold>
            <left_val>-0.7597916126251221</left_val>
            <right_val>0.1581910997629166</right_val></_></_>
        <_>
          <!-- tree 11 -->
          <_>
            <!-- root node -->
            <feature>
              <rects>
                <_>
                  37 0 6 1 -1.</_>
                <_>
                  37 0 3 1 2.</_></rects>
              <tilted>0</tilted></feature>
            <threshold>1.0164029663428664e-04</threshold>
            <left_val>0.1593980938196182</left_val>
            <right_val>-0.2199234962463379</right_val></_></_>
        <_>
          <!-- tree 12 -->
          <_>
            <!-- root node -->
            <feature>
              <rects>
                <_>
                  4 7 5 12 -1.</_>
                <_>
                  4 13 5 6 2.</_></rects>
              <tilted>0</tilted></feature>
            <threshold>7.9063391312956810e-03</threshold>
            <left_val>-0.4157620966434479</left_val>
            <right_val>0.2545030117034912</right_val></_></_>
        <_>
          <!-- tree 13 -->
          <_>
            <!-- root node -->
            <feature>
              <rects>
                <_>
                  14 0 15 10 -1.</_>
                <_>
                  14 5 15 5 2.</_></rects>
              <tilted>0</tilted></feature>
            <threshold>-0.0402617789804935</threshold>
            <left_val>-0.3860951960086823</left_val>
            <right_val>0.2581548988819122</right_val></_></_>
        <_>
          <!-- tree 14 -->
          <_>
            <!-- root node -->
            <feature>
              <rects>
                <_>
                  15 8 10 3 -1.</_>
                <_>
                  15 9 10 1 3.</_></rects>
              <tilted>0</tilted></feature>
            <threshold>5.5293021723628044e-03</threshold>
            <left_val>-0.1643072068691254</left_val>
            <right_val>0.6527701020240784</right_val></_></_></trees>
      <stage_threshold>-1.7959020137786865</stage_threshold>
      <parent>0</parent>
      <next>-1</next></_>
    <_>
      <!-- stage 2 -->
      <trees>
        <_>
          <!-- tree 0 -->
          <_>
            <!-- root node -->
            <feature>
              <rects>
                <_>
                  5 8 33 6 -1.</_>
                <_>
                  16 10 11 2 9.</_></rects>
              <tilted>0</tilted></feature>
            <threshold>0.2796796858310699</threshold>
            <left_val>-0.3389571905136108</left_val>
            <right_val>0.9048331975936890</right_val></_></_>
        <_>
          <!-- tree 1 -->
          <_>
            <!-- root node -->
            <feature>
              <rects>
                <_>
                  30 1 12 4 -1.</_>
                <_>
                  33 4 6 4 2.</_></rects>
              <tilted>1</tilted></feature>
            <threshold>-8.2972403615713120e-03</threshold>
            <left_val>0.2812021970748901</left_val>
            <right_val>-0.3819516003131866</right_val></_></_>
        <_>
          <!-- tree 2 -->
          <_>
            <!-- root node -->
            <feature>
              <rects>
                <_>
                  11 3 4 8 -1.</_>
                <_>
                  9 5 4 4 2.</_></rects>
              <tilted>1</tilted></feature>
            <threshold>-0.0267347097396851</threshold>
            <left_val>0.5370674133300781</left_val>
            <right_val>-0.3214814066886902</right_val></_></_>
        <_>
          <!-- tree 3 -->
          <_>
            <!-- root node -->
            <feature>
              <rects>
                <_>
                  18 9 11 6 -1.</_>
                <_>
                  18 11 11 2 3.</_></rects>
              <tilted>0</tilted></feature>
            <threshold>0.0304341800510883</threshold>
            <left_val>-0.2040565013885498</left_val>
            <right_val>0.5520613193511963</right_val></_></_>
        <_>
          <!-- tree 4 -->
          <_>
            <!-- root node -->
            <feature>
              <rects>
                <_>
                  12 8 17 3 -1.</_>
                <_>
                  12 9 17 1 3.</_></rects>
              <tilted>0</tilted></feature>
            <threshold>7.1387072093784809e-03</threshold>
            <left_val>-0.2020083963871002</left_val>
            <right_val>0.6867704987525940</right_val></_></_>
        <_>
          <!-- tree 5 -->
          <_>
            <!-- root node -->
            <feature>
              <rects>
                <_>
                  15 4 13 6 -1.</_>
                <_>
                  15 6 13 2 3.</_></rects>
              <tilted>0</tilted></feature>
            <threshold>0.0221954993903637</threshold>
            <left_val>-0.1744385957717896</left_val>
            <right_val>0.6250560879707336</right_val></_></_>
        <_>
          <!-- tree 6 -->
          <_>
            <!-- root node -->
            <feature>
              <rects>
                <_>
                  12 5 12 8 -1.</_>
                <_>
                  16 5 4 8 3.</_></rects>
              <tilted>0</tilted></feature>
            <threshold>-0.0230336897075176</threshold>
            <left_val>-0.7929198741912842</left_val>
            <right_val>0.2099077999591827</right_val></_></_>
        <_>
          <!-- tree 7 -->
          <_>
            <!-- root node -->
            <feature>
              <rects>
                <_>
                  17 13 9 3 -1.</_>
                <_>
                  17 14 9 1 3.</_></rects>
              <tilted>0</tilted></feature>
            <threshold>3.9157802239060402e-03</threshold>
            <left_val>-0.2395295947790146</left_val>
            <right_val>0.5066366195678711</right_val></_></_>
        <_>
          <!-- tree 8 -->
          <_>
            <!-- root node -->
            <feature>
              <rects>
                <_>
                  0 0 6 12 -1.</_>
                <_>
                  3 0 3 12 2.</_></rects>
              <tilted>0</tilted></feature>
            <threshold>-5.7318119797855616e-04</threshold>
            <left_val>0.3273433148860931</left_val>
            <right_val>-0.3344495892524719</right_val></_></_>
        <_>
          <!-- tree 9 -->
          <_>
            <!-- root node -->
            <feature>
              <rects>
                <_>
                  23 10 6 3 -1.</_>
                <_>
                  23 11 6 1 3.</_></rects>
              <tilted>0</tilted></feature>
            <threshold>1.8034089589491487e-03</threshold>
            <left_val>-0.1706193983554840</left_val>
            <right_val>0.2693617939949036</right_val></_></_>
        <_>
          <!-- tree 10 -->
          <_>
            <!-- root node -->
            <feature>
              <rects>
                <_>
                  14 1 12 10 -1.</_>
                <_>
                  17 1 6 10 2.</_></rects>
              <tilted>0</tilted></feature>
            <threshold>0.0303694996982813</threshold>
            <left_val>0.1387723982334137</left_val>
            <right_val>-0.7486863732337952</right_val></_></_>
        <_>
          <!-- tree 11 -->
          <_>
            <!-- root node -->
            <feature>
              <rects>
                <_>
                  14 7 15 9 -1.</_>
                <_>
                  19 7 5 9 3.</_></rects>
              <tilted>0</tilted></feature>
            <threshold>-0.0274906996637583</threshold>
            <left_val>-0.7189897894859314</left_val>
            <right_val>0.1323897987604141</right_val></_></_>
        <_>
          <!-- tree 12 -->
          <_>
            <!-- root node -->
            <feature>
              <rects>
                <_>
                  17 15 7 3 -1.</_>
                <_>
                  17 16 7 1 3.</_></rects>
              <tilted>0</tilted></feature>
            <threshold>1.8921369919553399e-03</threshold>
            <left_val>-0.2216684073209763</left_val>
            <right_val>0.4755080938339233</right_val></_></_>
        <_>
          <!-- tree 13 -->
          <_>
            <!-- root node -->
            <feature>
              <rects>
                <_>
                  33 7 3 12 -1.</_>
                <_>
                  33 13 3 6 2.</_></rects>
              <tilted>0</tilted></feature>
            <threshold>4.8414319753646851e-03</threshold>
            <left_val>-0.2541412115097046</left_val>
            <right_val>0.1444454044103622</right_val></_></_>
        <_>
          <!-- tree 14 -->
          <_>
            <!-- root node -->
            <feature>
              <rects>
                <_>
                  7 1 22 10 -1.</_>
                <_>
                  7 1 11 5 2.</_>
                <_>
                  18 6 11 5 2.</_></rects>
              <tilted>0</tilted></feature>
            <threshold>-0.0324234887957573</threshold>
            <left_val>-0.5655124187469482</left_val>
            <right_val>0.1428350955247879</right_val></_></_>
        <_>
          <!-- tree 15 -->
          <_>
            <!-- root node -->
            <feature>
              <rects>
                <_>
                  16 12 12 3 -1.</_>
                <_>
                  16 13 12 1 3.</_></rects>
              <tilted>0</tilted></feature>
            <threshold>6.6371541470289230e-03</threshold>
            <left_val>-0.1464931070804596</left_val>
            <right_val>0.5430788993835449</right_val></_></_>
        <_>
          <!-- tree 16 -->
          <_>
            <!-- root node -->
            <feature>
              <rects>
                <_>
                  14 9 7 3 -1.</_>
                <_>
                  14 10 7 1 3.</_></rects>
              <tilted>0</tilted></feature>
            <threshold>4.4037639163434505e-03</threshold>
            <left_val>-0.1374721974134445</left_val>
            <right_val>0.5718833804130554</right_val></_></_></trees>
      <stage_threshold>-1.6197249889373779</stage_threshold>
      <parent>1</parent>
      <next>-1</next></_>
    <_>
      <!-- stage 3 -->
      <trees>
        <_>
          <!-- tree 0 -->
          <_>
            <!-- root node -->
            <feature>
              <rects>
                <_>
                  2 8 39 6 -1.</_>
                <_>
                  15 10 13 2 9.</_></rects>
              <tilted>0</tilted></feature>
            <threshold>0.3029195964336395</threshold>
            <left_val>-0.3342899978160858</left_val>
            <right_val>0.8153287768363953</right_val></_></_>
        <_>
          <!-- tree 1 -->
          <_>
            <!-- root node -->
            <feature>
              <rects>
                <_>
                  37 0 6 11 -1.</_>
                <_>
                  39 2 2 11 3.</_></rects>
              <tilted>1</tilted></feature>
            <threshold>-0.0495022200047970</threshold>
            <left_val>0.5526142120361328</left_val>
            <right_val>-0.0747720375657082</right_val></_></_>
        <_>
          <!-- tree 2 -->
          <_>
            <!-- root node -->
            <feature>
              <rects>
                <_>
                  6 0 11 6 -1.</_>
                <_>
                  4 2 11 2 3.</_></rects>
              <tilted>1</tilted></feature>
            <threshold>-0.0538012087345123</threshold>
            <left_val>0.6651902198791504</left_val>
            <right_val>-0.2276809960603714</right_val></_></_>
        <_>
          <!-- tree 3 -->
          <_>
            <!-- root node -->
            <feature>
              <rects>
                <_>
                  16 10 11 2 -1.</_>
                <_>
                  16 11 11 1 2.</_></rects>
              <tilted>0</tilted></feature>
            <threshold>8.0473795533180237e-03</threshold>
            <left_val>-0.1860032975673676</left_val>
            <right_val>0.6869745254516602</right_val></_></_>
        <_>
          <!-- tree 4 -->
          <_>
            <!-- root node -->
            <feature>
              <rects>
                <_>
                  15 9 13 3 -1.</_>
                <_>
                  15 10 13 1 3.</_></rects>
              <tilted>0</tilted></feature>
            <threshold>7.3164859786629677e-03</threshold>
            <left_val>-0.1642556935548782</left_val>
            <right_val>0.6534079909324646</right_val></_></_>
        <_>
          <!-- tree 5 -->
          <_>
            <!-- root node -->
            <feature>
              <rects>
                <_>
                  15 9 15 4 -1.</_>
                <_>
                  15 10 15 2 2.</_></rects>
              <tilted>0</tilted></feature>
            <threshold>-0.0153873795643449</threshold>
            <left_val>0.6734672188758850</left_val>
            <right_val>-0.1775342971086502</right_val></_></_>
        <_>
          <!-- tree 6 -->
          <_>
            <!-- root node -->
            <feature>
              <rects>
                <_>
                  8 6 3 8 -1.</_>
                <_>
                  8 6 3 4 2.</_></rects>
              <tilted>1</tilted></feature>
            <threshold>-6.1734230257570744e-03</threshold>
            <left_val>0.2633509039878845</left_val>
            <right_val>-0.4028066992759705</right_val></_></_>
        <_>
          <!-- tree 7 -->
          <_>
            <!-- root node -->
            <feature>
              <rects>
                <_>
                  16 5 12 7 -1.</_>
                <_>
                  19 5 6 7 2.</_></rects>
              <tilted>0</tilted></feature>
            <threshold>0.0315098688006401</threshold>
            <left_val>0.1261940002441406</left_val>
            <right_val>-0.8470025062561035</right_val></_></_>
        <_>
          <!-- tree 8 -->
          <_>
            <!-- root node -->
            <feature>
              <rects>
                <_>
                  11 0 18 4 -1.</_>
                <_>
                  11 2 18 2 2.</_></rects>
              <tilted>0</tilted></feature>
            <threshold>3.4750190097838640e-03</threshold>
            <left_val>-0.3211590051651001</left_val>
            <right_val>0.2744809091091156</right_val></_></_>
        <_>
          <!-- tree 9 -->
          <_>
            <!-- root node -->
            <feature>
              <rects>
                <_>
                  11 7 21 5 -1.</_>
                <_>
                  18 7 7 5 3.</_></rects>
              <tilted>0</tilted></feature>
            <threshold>-0.0240395795553923</threshold>
            <left_val>-0.6414021849632263</left_val>
            <right_val>0.1411485970020294</right_val></_></_>
        <_>
          <!-- tree 10 -->
          <_>
            <!-- root node -->
            <feature>
              <rects>
                <_>
                  6 4 8 6 -1.</_>
                <_>
                  4 6 8 2 3.</_></rects>
              <tilted>1</tilted></feature>
            <threshold>-0.0322153903543949</threshold>
            <left_val>0.5175601840019226</left_val>
            <right_val>-0.1672676950693130</right_val></_></_>
        <_>
          <!-- tree 11 -->
          <_>
            <!-- root node -->
            <feature>
              <rects>
                <_>
                  37 4 2 9 -1.</_>
                <_>
                  37 4 1 9 2.</_></rects>
              <tilted>1</tilted></feature>
            <threshold>4.8698089085519314e-03</threshold>
            <left_val>-0.2012729048728943</left_val>
            <right_val>0.3110448122024536</right_val></_></_>
        <_>
          <!-- tree 12 -->
          <_>
            <!-- root node -->
            <feature>
              <rects>
                <_>
                  8 5 5 6 -1.</_>
                <_>
                  6 7 5 2 3.</_></rects>
              <tilted>1</tilted></feature>
            <threshold>0.0164864491671324</threshold>
            <left_val>-0.1380386948585510</left_val>
            <right_val>0.5947281122207642</right_val></_></_>
        <_>
          <!-- tree 13 -->
          <_>
            <!-- root node -->
            <feature>
              <rects>
                <_>
                  14 7 17 4 -1.</_>
                <_>
                  14 8 17 2 2.</_></rects>
              <tilted>0</tilted></feature>
            <threshold>0.0173659399151802</threshold>
            <left_val>-0.0905313864350319</left_val>
            <right_val>0.6920186877250671</right_val></_></_>
        <_>
          <!-- tree 14 -->
          <_>
            <!-- root node -->
            <feature>
              <rects>
                <_>
                  15 10 8 3 -1.</_>
                <_>
                  15 11 8 1 3.</_></rects>
              <tilted>0</tilted></feature>
            <threshold>2.8829500079154968e-03</threshold>
            <left_val>-0.2026261985301971</left_val>
            <right_val>0.4366899132728577</right_val></_></_>
        <_>
          <!-- tree 15 -->
          <_>
            <!-- root node -->
            <feature>
              <rects>
                <_>
                  18 1 12 9 -1.</_>
                <_>
                  22 1 4 9 3.</_></rects>
              <tilted>0</tilted></feature>
            <threshold>0.0484583117067814</threshold>
            <left_val>0.0481736809015274</left_val>
            <right_val>-0.7853531241416931</right_val></_></_>
        <_>
          <!-- tree 16 -->
          <_>
            <!-- root node -->
            <feature>
              <rects>
                <_>
                  13 1 12 9 -1.</_>
                <_>
                  17 1 4 9 3.</_></rects>
              <tilted>0</tilted></feature>
            <threshold>0.0324461497366428</threshold>
            <left_val>0.1216785013675690</left_val>
            <right_val>-0.6775639057159424</right_val></_></_>
        <_>
          <!-- tree 17 -->
          <_>
            <!-- root node -->
            <feature>
              <rects>
                <_>
                  20 12 9 4 -1.</_>
                <_>
                  20 13 9 2 2.</_></rects>
              <tilted>0</tilted></feature>
            <threshold>6.2484121881425381e-03</threshold>
            <left_val>-0.1257050931453705</left_val>
            <right_val>0.3158585131168365</right_val></_></_>
        <_>
          <!-- tree 18 -->
          <_>
            <!-- root node -->
            <feature>
              <rects>
                <_>
                  0 0 6 1 -1.</_>
                <_>
                  3 0 3 1 2.</_></rects>
              <tilted>0</tilted></feature>
            <threshold>4.3390170321799815e-04</threshold>
            <left_val>0.2452529966831207</left_val>
            <right_val>-0.3030441999435425</right_val></_></_></trees>
      <stage_threshold>-1.4921799898147583</stage_threshold>
      <parent>2</parent>
      <next>-1</next></_>
    <_>
      <!-- stage 4 -->
      <trees>
        <_>
          <!-- tree 0 -->
          <_>
            <!-- root node -->
            <feature>
              <rects>
                <_>
                  5 8 33 6 -1.</_>
                <_>
                  16 10 11 2 9.</_></rects>
              <tilted>0</tilted></feature>
            <threshold>0.2306587994098663</threshold>
            <left_val>-0.3906902074813843</left_val>
            <right_val>0.7395684719085693</right_val></_></_>
        <_>
          <!-- tree 1 -->
          <_>
            <!-- root node -->
            <feature>
              <rects>
                <_>
                  34 5 5 14 -1.</_>
                <_>
                  34 12 5 7 2.</_></rects>
              <tilted>0</tilted></feature>
            <threshold>7.3054088279604912e-03</threshold>
            <left_val>-0.4710228145122528</left_val>
            <right_val>0.3324593007564545</right_val></_></_>
        <_>
          <!-- tree 2 -->
          <_>
            <!-- root node -->
            <feature>
              <rects>
                <_>
                  6 1 12 6 -1.</_>
                <_>
                  4 3 12 2 3.</_></rects>
              <tilted>1</tilted></feature>
            <threshold>-0.0635289996862411</threshold>
            <left_val>0.6272084712982178</left_val>
            <right_val>-0.1724542975425720</right_val></_></_>
        <_>
          <!-- tree 3 -->
          <_>
            <!-- root node -->
            <feature>
              <rects>
                <_>
                  18 5 12 11 -1.</_>
                <_>
                  21 5 6 11 2.</_></rects>
              <tilted>0</tilted></feature>
            <threshold>-0.0174187794327736</threshold>
            <left_val>-0.6734747886657715</left_val>
            <right_val>0.1182349994778633</right_val></_></_>
        <_>
          <!-- tree 4 -->
          <_>
            <!-- root node -->
            <feature>
              <rects>
                <_>
                  14 5 12 10 -1.</_>
                <_>
                  17 5 6 10 2.</_></rects>
              <tilted>0</tilted></feature>
            <threshold>0.0432066991925240</threshold>
            <left_val>0.1134042963385582</left_val>
            <right_val>-0.8161240220069885</right_val></_></_>
        <_>
          <!-- tree 5 -->
          <_>
            <!-- root node -->
            <feature>
              <rects>
                <_>
                  34 7 4 12 -1.</_>
                <_>
                  34 13 4 6 2.</_></rects>
              <tilted>0</tilted></feature>
            <threshold>0.0259667597711086</threshold>
            <left_val>-0.1374893039464951</left_val>
            <right_val>0.2411959022283554</right_val></_></_>
        <_>
          <!-- tree 6 -->
          <_>
            <!-- root node -->
            <feature>
              <rects>
                <_>
                  6 7 12 5 -1.</_>
                <_>
                  12 7 6 5 2.</_></rects>
              <tilted>0</tilted></feature>
            <threshold>0.1367484033107758</threshold>
            <left_val>-0.0232695993036032</left_val>
            <right_val>-1.2515939941406250e+03</right_val></_></_>
        <_>
          <!-- tree 7 -->
          <_>
            <!-- root node -->
            <feature>
              <rects>
                <_>
                  2 10 39 6 -1.</_>
                <_>
                  15 12 13 2 9.</_></rects>
              <tilted>0</tilted></feature>
            <threshold>0.3620947003364563</threshold>
            <left_val>-0.1026497036218643</left_val>
            <right_val>0.7840408086776733</right_val></_></_>
        <_>
          <!-- tree 8 -->
          <_>
            <!-- root node -->
            <feature>
              <rects>
                <_>
                  5 7 4 12 -1.</_>
                <_>
                  5 13 4 6 2.</_></rects>
              <tilted>0</tilted></feature>
            <threshold>1.6097089974209666e-03</threshold>
            <left_val>-0.5262467861175537</left_val>
            <right_val>0.1772028952836990</right_val></_></_>
        <_>
          <!-- tree 9 -->
          <_>
            <!-- root node -->
            <feature>
              <rects>
                <_>
                  41 0 2 1 -1.</_>
                <_>
                  41 0 1 1 2.</_></rects>
              <tilted>0</tilted></feature>
            <threshold>3.0662570497952402e-04</threshold>
            <left_val>0.0890925228595734</left_val>
            <right_val>-0.4811364114284515</right_val></_></_>
        <_>
          <!-- tree 10 -->
          <_>
            <!-- root node -->
            <feature>
              <rects>
                <_>
                  17 14 9 3 -1.</_>
                <_>
                  17 15 9 1 3.</_></rects>
              <tilted>0</tilted></feature>
            <threshold>2.7951260562986135e-03</threshold>
            <left_val>-0.1716534942388535</left_val>
            <right_val>0.4101451039314270</right_val></_></_>
        <_>
          <!-- tree 11 -->
          <_>
            <!-- root node -->
            <feature>
              <rects>
                <_>
                  39 0 4 1 -1.</_>
                <_>
                  39 0 2 1 2.</_></rects>
              <tilted>0</tilted></feature>
            <threshold>6.0375208704499528e-05</threshold>
            <left_val>0.1723513007164001</left_val>
            <right_val>-0.1861317008733749</right_val></_></_>
        <_>
          <!-- tree 12 -->
          <_>
            <!-- root node -->
            <feature>
              <rects>
                <_>
                  10 3 16 12 -1.</_>
                <_>
                  14 3 8 12 2.</_></rects>
              <tilted>0</tilted></feature>
            <threshold>-0.0247868206351995</threshold>
            <left_val>-0.5642706155776978</left_val>
            <right_val>0.1290436983108521</right_val></_></_>
        <_>
          <!-- tree 13 -->
          <_>
            <!-- root node -->
            <feature>
              <rects>
                <_>
                  16 8 12 3 -1.</_>
                <_>
                  16 9 12 1 3.</_></rects>
              <tilted>0</tilted></feature>
            <threshold>6.9522629491984844e-03</threshold>
            <left_val>-0.1573541015386581</left_val>
            <right_val>0.4320920109748840</right_val></_></_>
        <_>
          <!-- tree 14 -->
          <_>
            <!-- root node -->
            <feature>
              <rects>
                <_>
                  16 11 11 3 -1.</_>
                <_>
                  16 12 11 1 3.</_></rects>
              <tilted>0</tilted></feature>
            <threshold>3.8905250839889050e-03</threshold>
            <left_val>-0.1863556951284409</left_val>
            <right_val>0.3951337933540344</right_val></_></_>
        <_>
          <!-- tree 15 -->
          <_>
            <!-- root node -->
            <feature>
              <rects>
                <_>
                  35 5 4 8 -1.</_>
                <_>
                  35 5 2 8 2.</_></rects>
              <tilted>1</tilted></feature>
            <threshold>0.0247310996055603</threshold>
            <left_val>-0.1050951033830643</left_val>
            <right_val>0.5146192908287048</right_val></_></_>
        <_>
          <!-- tree 16 -->
          <_>
            <!-- root node -->
            <feature>
              <rects>
                <_>
                  15 11 12 3 -1.</_>
                <_>
                  15 12 12 1 3.</_></rects>
              <tilted>0</tilted></feature>
            <threshold>-3.8110821042209864e-03</threshold>
            <left_val>0.3642817139625549</left_val>
            <right_val>-0.1688801050186157</right_val></_></_>
        <_>
          <!-- tree 17 -->
          <_>
            <!-- root node -->
            <feature>
              <rects>
                <_>
                  33 7 7 9 -1.</_>
                <_>
                  33 10 7 3 3.</_></rects>
              <tilted>0</tilted></feature>
            <threshold>0.0183477196842432</threshold>
            <left_val>-0.0570564381778240</left_val>
            <right_val>0.3307501077651978</right_val></_></_>
        <_>
          <!-- tree 18 -->
          <_>
            <!-- root node -->
            <feature>
              <rects>
                <_>
                  3 7 7 9 -1.</_>
                <_>
                  3 10 7 3 3.</_></rects>
              <tilted>0</tilted></feature>
            <threshold>8.3518493920564651e-03</threshold>
            <left_val>-0.1639569997787476</left_val>
            <right_val>0.3520534038543701</right_val></_></_>
        <_>
          <!-- tree 19 -->
          <_>
            <!-- root node -->
            <feature>
              <rects>
                <_>
                  39 0 4 1 -1.</_>
                <_>
                  39 0 2 1 2.</_></rects>
              <tilted>0</tilted></feature>
            <threshold>-2.5828070938587189e-03</threshold>
            <left_val>-0.5541169047355652</left_val>
            <right_val>0.0316436886787415</right_val></_></_>
        <_>
          <!-- tree 20 -->
          <_>
            <!-- root node -->
            <feature>
              <rects>
                <_>
                  0 0 4 1 -1.</_>
                <_>
                  2 0 2 1 2.</_></rects>
              <tilted>0</tilted></feature>
            <threshold>4.8616511048749089e-04</threshold>
            <left_val>0.1689337044954300</left_val>
            <right_val>-0.3582282066345215</right_val></_></_>
        <_>
          <!-- tree 21 -->
          <_>
            <!-- root node -->
            <feature>
              <rects>
                <_>
                  21 18 9 1 -1.</_>
                <_>
                  24 18 3 1 3.</_></rects>
              <tilted>0</tilted></feature>
            <threshold>3.2934609334915876e-03</threshold>
            <left_val>0.0429656617343426</left_val>
            <right_val>-0.6610348820686340</right_val></_></_>
        <_>
          <!-- tree 22 -->
          <_>
            <!-- root node -->
            <feature>
              <rects>
                <_>
                  9 18 18 1 -1.</_>
                <_>
                  15 18 6 1 3.</_></rects>
              <tilted>0</tilted></feature>
            <threshold>4.1281739249825478e-03</threshold>
            <left_val>0.1245495975017548</left_val>
            <right_val>-0.4021106064319611</right_val></_></_>
        <_>
          <!-- tree 23 -->
          <_>
            <!-- root node -->
            <feature>
              <rects>
                <_>
                  20 14 9 5 -1.</_>
                <_>
                  23 14 3 5 3.</_></rects>
              <tilted>0</tilted></feature>
            <threshold>-0.0138834100216627</threshold>
            <left_val>-0.6696864962577820</left_val>
            <right_val>0.0515777803957462</right_val></_></_></trees>
      <stage_threshold>-1.4931559562683105</stage_threshold>
      <parent>3</parent>
      <next>-1</next></_>
    <_>
      <!-- stage 5 -->
      <trees>
        <_>
          <!-- tree 0 -->
          <_>
            <!-- root node -->
            <feature>
              <rects>
                <_>
                  5 7 33 9 -1.</_>
                <_>
                  16 10 11 3 9.</_></rects>
              <tilted>0</tilted></feature>
            <threshold>0.3258287012577057</threshold>
            <left_val>-0.3745591938495636</left_val>
            <right_val>0.7219203114509583</right_val></_></_>
        <_>
          <!-- tree 1 -->
          <_>
            <!-- root node -->
            <feature>
              <rects>
                <_>
                  37 0 5 18 -1.</_>
                <_>
                  37 9 5 9 2.</_></rects>
              <tilted>0</tilted></feature>
            <threshold>4.6028490178287029e-03</threshold>
            <left_val>-0.2261261045932770</left_val>
            <right_val>0.3149614930152893</right_val></_></_>
        <_>
          <!-- tree 2 -->
          <_>
            <!-- root node -->
            <feature>
              <rects>
                <_>
                  7 5 5 6 -1.</_>
                <_>
                  7 5 5 3 2.</_></rects>
              <tilted>1</tilted></feature>
            <threshold>-0.0355533510446548</threshold>
            <left_val>0.4381695091724396</left_val>
            <right_val>-0.2548078000545502</right_val></_></_>
        <_>
          <!-- tree 3 -->
          <_>
            <!-- root node -->
            <feature>
              <rects>
                <_>
                  5 8 33 5 -1.</_>
                <_>
                  16 8 11 5 3.</_></rects>
              <tilted>0</tilted></feature>
            <threshold>7.9966373741626740e-03</threshold>
            <left_val>-0.4730016887187958</left_val>
            <right_val>0.1562435030937195</right_val></_></_>
        <_>
          <!-- tree 4 -->
          <_>
            <!-- root node -->
            <feature>
              <rects>
                <_>
                  10 0 15 19 -1.</_>
                <_>
                  15 0 5 19 3.</_></rects>
              <tilted>0</tilted></feature>
            <threshold>0.1235015019774437</threshold>
            <left_val>0.1847674995660782</left_val>
            <right_val>-0.8416420817375183</right_val></_></_>
        <_>
          <!-- tree 5 -->
          <_>
            <!-- root node -->
            <feature>
              <rects>
                <_>
                  24 0 18 2 -1.</_>
                <_>
                  24 1 18 1 2.</_></rects>
              <tilted>0</tilted></feature>
            <threshold>-4.8809949657879770e-04</threshold>
            <left_val>-0.3094823956489563</left_val>
            <right_val>0.1013256013393402</right_val></_></_>
        <_>
          <!-- tree 6 -->
          <_>
            <!-- root node -->
            <feature>
              <rects>
                <_>
                  0 0 2 1 -1.</_>
                <_>
                  1 0 1 1 2.</_></rects>
              <tilted>0</tilted></feature>
            <threshold>1.2426679313648492e-04</threshold>
            <left_val>0.2038076967000961</left_val>
            <right_val>-0.3363657891750336</right_val></_></_>
        <_>
          <!-- tree 7 -->
          <_>
            <!-- root node -->
            <feature>
              <rects>
                <_>
                  34 14 2 3 -1.</_>
                <_>
                  33 15 2 1 3.</_></rects>
              <tilted>1</tilted></feature>
            <threshold>-1.3097010087221861e-03</threshold>
            <left_val>-0.5291910767555237</left_val>
            <right_val>0.0506319105625153</right_val></_></_>
        <_>
          <!-- tree 8 -->
          <_>
            <!-- root node -->
            <feature>
              <rects>
                <_>
                  9 14 3 2 -1.</_>
                <_>
                  10 15 1 2 3.</_></rects>
              <tilted>1</tilted></feature>
            <threshold>-1.5989009989425540e-03</threshold>
            <left_val>-0.6834833025932312</left_val>
            <right_val>0.0882901772856712</right_val></_></_>
        <_>
          <!-- tree 9 -->
          <_>
            <!-- root node -->
            <feature>
              <rects>
                <_>
                  34 13 3 3 -1.</_>
                <_>
                  33 14 3 1 3.</_></rects>
              <tilted>1</tilted></feature>
            <threshold>1.1159389978274703e-03</threshold>
            <left_val>0.0391944386065006</left_val>
            <right_val>-0.1800169944763184</right_val></_></_>
        <_>
          <!-- tree 10 -->
          <_>
            <!-- root node -->
            <feature>
              <rects>
                <_>
                  9 13 3 3 -1.</_>
                <_>
                  10 14 1 3 3.</_></rects>
              <tilted>1</tilted></feature>
            <threshold>2.3932140320539474e-03</threshold>
            <left_val>0.0869900286197662</left_val>
            <right_val>-0.6777225136756897</right_val></_></_>
        <_>
          <!-- tree 11 -->
          <_>
            <!-- root node -->
            <feature>
              <rects>
                <_>
                  29 3 4 2 -1.</_>
                <_>
                  30 3 2 2 2.</_></rects>
              <tilted>0</tilted></feature>
            <threshold>-9.1997231356799603e-04</threshold>
            <left_val>-0.5745438933372498</left_val>
            <right_val>0.0507547184824944</right_val></_></_>
        <_>
          <!-- tree 12 -->
          <_>
            <!-- root node -->
            <feature>
              <rects>
                <_>
                  8 5 4 3 -1.</_>
                <_>
                  7 6 4 1 3.</_></rects>
              <tilted>1</tilted></feature>
            <threshold>2.6627059560269117e-03</threshold>
            <left_val>-0.1113711968064308</left_val>
            <right_val>0.4862678050994873</right_val></_></_>
        <_>
          <!-- tree 13 -->
          <_>
            <!-- root node -->
            <feature>
              <rects>
                <_>
                  27 1 6 4 -1.</_>
                <_>
                  29 1 2 4 3.</_></rects>
              <tilted>0</tilted></feature>
            <threshold>4.1872030124068260e-03</threshold>
            <left_val>0.1030998006463051</left_val>
            <right_val>-0.4080268144607544</right_val></_></_>
        <_>
          <!-- tree 14 -->
          <_>
            <!-- root node -->
            <feature>
              <rects>
                <_>
                  14 10 15 8 -1.</_>
                <_>
                  19 10 5 8 3.</_></rects>
              <tilted>0</tilted></feature>
            <threshold>-0.0233506690710783</threshold>
            <left_val>-0.5407481789588928</left_val>
            <right_val>0.0819180831313133</right_val></_></_>
        <_>
          <!-- tree 15 -->
          <_>
            <!-- root node -->
            <feature>
              <rects>
                <_>
                  16 7 12 6 -1.</_>
                <_>
                  19 7 6 6 2.</_></rects>
              <tilted>0</tilted></feature>
            <threshold>0.0195460505783558</threshold>
            <left_val>0.0856369063258171</left_val>
            <right_val>-0.4586698114871979</right_val></_></_>
        <_>
          <!-- tree 16 -->
          <_>
            <!-- root node -->
            <feature>
              <rects>
                <_>
                  2 7 39 6 -1.</_>
                <_>
                  15 9 13 2 9.</_></rects>
              <tilted>0</tilted></feature>
            <threshold>0.4073404073715210</threshold>
            <left_val>-0.0887423604726791</left_val>
            <right_val>0.6989734172821045</right_val></_></_>
        <_>
          <!-- tree 17 -->
          <_>
            <!-- root node -->
            <feature>
              <rects>
                <_>
                  22 1 7 9 -1.</_>
                <_>
                  19 4 7 3 3.</_></rects>
              <tilted>1</tilted></feature>
            <threshold>0.0560031794011593</threshold>
            <left_val>0.0476003214716911</left_val>
            <right_val>-0.2361277937889099</right_val></_></_>
        <_>
          <!-- tree 18 -->
          <_>
            <!-- root node -->
            <feature>
              <rects>
                <_>
                  18 0 15 4 -1.</_>
                <_>
                  17 1 15 2 2.</_></rects>
              <tilted>1</tilted></feature>
            <threshold>-8.1342132762074471e-03</threshold>
            <left_val>-0.4741173982620239</left_val>
            <right_val>0.1057024002075195</right_val></_></_>
        <_>
          <!-- tree 19 -->
          <_>
            <!-- root node -->
            <feature>
              <rects>
                <_>
                  26 3 9 2 -1.</_>
                <_>
                  29 3 3 2 3.</_></rects>
              <tilted>0</tilted></feature>
            <threshold>-3.2761169131845236e-03</threshold>
            <left_val>-0.2832899093627930</left_val>
            <right_val>0.0610993988811970</right_val></_></_>
        <_>
          <!-- tree 20 -->
          <_>
            <!-- root node -->
            <feature>
              <rects>
                <_>
                  8 3 9 2 -1.</_>
                <_>
                  11 3 3 2 3.</_></rects>
              <tilted>0</tilted></feature>
            <threshold>-5.8006201870739460e-03</threshold>
            <left_val>-0.6364119052886963</left_val>
            <right_val>0.0703834220767021</right_val></_></_>
        <_>
          <!-- tree 21 -->
          <_>
            <!-- root node -->
            <feature>
              <rects>
                <_>
                  29 3 4 2 -1.</_>
                <_>
                  30 3 2 2 2.</_></rects>
              <tilted>0</tilted></feature>
            <threshold>4.4721690937876701e-04</threshold>
            <left_val>0.0340858288109303</left_val>
            <right_val>-0.1539895981550217</right_val></_></_>
        <_>
          <!-- tree 22 -->
          <_>
            <!-- root node -->
            <feature>
              <rects>
                <_>
                  10 3 4 2 -1.</_>
                <_>
                  11 3 2 2 2.</_></rects>
              <tilted>0</tilted></feature>
            <threshold>9.0732902754098177e-04</threshold>
            <left_val>0.0834351480007172</left_val>
            <right_val>-0.5491042137145996</right_val></_></_>
        <_>
          <!-- tree 23 -->
          <_>
            <!-- root node -->
            <feature>
              <rects>
                <_>
                  18 15 7 3 -1.</_>
                <_>
                  18 16 7 1 3.</_></rects>
              <tilted>0</tilted></feature>
            <threshold>2.3255599662661552e-03</threshold>
            <left_val>-0.1465952992439270</left_val>
            <right_val>0.3340598940849304</right_val></_></_>
        <_>
          <!-- tree 24 -->
          <_>
            <!-- root node -->
            <feature>
              <rects>
                <_>
                  17 12 9 3 -1.</_>
                <_>
                  17 13 9 1 3.</_></rects>
              <tilted>0</tilted></feature>
            <threshold>5.0889807753264904e-03</threshold>
            <left_val>-0.1258327066898346</left_val>
            <right_val>0.3786950111389160</right_val></_></_>
        <_>
          <!-- tree 25 -->
          <_>
            <!-- root node -->
            <feature>
              <rects>
                <_>
                  36 6 2 8 -1.</_>
                <_>
                  36 6 1 8 2.</_></rects>
              <tilted>1</tilted></feature>
            <threshold>4.2935460805892944e-03</threshold>
            <left_val>-0.1757797002792358</left_val>
            <right_val>0.3967140913009644</right_val></_></_>
        <_>
          <!-- tree 26 -->
          <_>
            <!-- root node -->
            <feature>
              <rects>
                <_>
                  7 6 8 2 -1.</_>
                <_>
                  7 6 8 1 2.</_></rects>
              <tilted>1</tilted></feature>
            <threshold>-0.0110606197267771</threshold>
            <left_val>0.4370526969432831</left_val>
            <right_val>-0.1115686967968941</right_val></_></_>
        <_>
          <!-- tree 27 -->
          <_>
            <!-- root node -->
            <feature>
              <rects>
                <_>
                  15 13 13 4 -1.</_>
                <_>
                  15 14 13 2 2.</_></rects>
              <tilted>0</tilted></feature>
            <threshold>7.9846577718853951e-03</threshold>
            <left_val>-0.1341854035854340</left_val>
            <right_val>0.3332323133945465</right_val></_></_>
        <_>
          <!-- tree 28 -->
          <_>
            <!-- root node -->
            <feature>
              <rects>
                <_>
                  18 10 7 3 -1.</_>
                <_>
                  18 11 7 1 3.</_></rects>
              <tilted>0</tilted></feature>
            <threshold>3.5943479742854834e-03</threshold>
            <left_val>-0.1586102992296219</left_val>
            <right_val>0.2918420135974884</right_val></_></_>
        <_>
          <!-- tree 29 -->
          <_>
            <!-- root node -->
            <feature>
              <rects>
                <_>
                  26 2 6 3 -1.</_>
                <_>
                  28 2 2 3 3.</_></rects>
              <tilted>0</tilted></feature>
            <threshold>3.9573679678142071e-03</threshold>
            <left_val>0.0503332801163197</left_val>
            <right_val>-0.3709652125835419</right_val></_></_></trees>
      <stage_threshold>-1.5475460290908813</stage_threshold>
      <parent>4</parent>
      <next>-1</next></_>
    <_>
      <!-- stage 6 -->
      <trees>
        <_>
          <!-- tree 0 -->
          <_>
            <!-- root node -->
            <feature>
              <rects>
                <_>
                  5 8 33 6 -1.</_>
                <_>
                  16 10 11 2 9.</_></rects>
              <tilted>0</tilted></feature>
            <threshold>0.2939853966236115</threshold>
            <left_val>-0.3068051934242249</left_val>
            <right_val>0.7685065865516663</right_val></_></_>
        <_>
          <!-- tree 1 -->
          <_>
            <!-- root node -->
            <feature>
              <rects>
                <_>
                  38 1 5 16 -1.</_>
                <_>
                  38 9 5 8 2.</_></rects>
              <tilted>0</tilted></feature>
            <threshold>3.5658099222928286e-03</threshold>
            <left_val>-0.2404434978961945</left_val>
            <right_val>0.3035737872123718</right_val></_></_>
        <_>
          <!-- tree 2 -->
          <_>
            <!-- root node -->
            <feature>
              <rects>
                <_>
                  0 1 5 16 -1.</_>
                <_>
                  0 9 5 8 2.</_></rects>
              <tilted>0</tilted></feature>
            <threshold>-0.0130852395668626</threshold>
            <left_val>-0.5007477998733521</left_val>
            <right_val>0.2372695952653885</right_val></_></_>
        <_>
          <!-- tree 3 -->
          <_>
            <!-- root node -->
            <feature>
              <rects>
                <_>
                  5 9 33 6 -1.</_>
                <_>
                  16 11 11 2 9.</_></rects>
              <tilted>0</tilted></feature>
            <threshold>0.3419623076915741</threshold>
            <left_val>-0.1362708956003189</left_val>
            <right_val>0.7270311713218689</right_val></_></_>
        <_>
          <!-- tree 4 -->
          <_>
            <!-- root node -->
            <feature>
              <rects>
                <_>
                  13 5 16 14 -1.</_>
                <_>
                  13 5 8 7 2.</_>
                <_>
                  21 12 8 7 2.</_></rects>
              <tilted>0</tilted></feature>
            <threshold>0.0436163097620010</threshold>
            <left_val>0.1456734985113144</left_val>
            <right_val>-0.6007159948348999</right_val></_></_>
        <_>
          <!-- tree 5 -->
          <_>
            <!-- root node -->
            <feature>
              <rects>
                <_>
                  12 8 19 3 -1.</_>
                <_>
                  12 9 19 1 3.</_></rects>
              <tilted>0</tilted></feature>
            <threshold>0.0167443398386240</threshold>
            <left_val>-0.0981919318437576</left_val>
            <right_val>0.6428775787353516</right_val></_></_>
        <_>
          <!-- tree 6 -->
          <_>
            <!-- root node -->
            <feature>
              <rects>
                <_>
                  19 0 8 5 -1.</_>
                <_>
                  21 2 4 5 2.</_></rects>
              <tilted>1</tilted></feature>
            <threshold>-0.0381961911916733</threshold>
            <left_val>-0.7390031814575195</left_val>
            <right_val>0.0950281098484993</right_val></_></_>
        <_>
          <!-- tree 7 -->
          <_>
            <!-- root node -->
            <feature>
              <rects>
                <_>
                  40 2 2 10 -1.</_>
                <_>
                  40 2 1 10 2.</_></rects>
              <tilted>1</tilted></feature>
            <threshold>6.7164860665798187e-03</threshold>
            <left_val>-0.1645478010177612</left_val>
            <right_val>0.3912887871265411</right_val></_></_>
        <_>
          <!-- tree 8 -->
          <_>
            <!-- root node -->
            <feature>
              <rects>
                <_>
                  3 2 10 2 -1.</_>
                <_>
                  3 2 10 1 2.</_></rects>
              <tilted>1</tilted></feature>
            <threshold>-0.0114162703976035</threshold>
            <left_val>0.5588229894638062</left_val>
            <right_val>-0.1251679956912994</right_val></_></_>
        <_>
          <!-- tree 9 -->
          <_>
            <!-- root node -->
            <feature>
              <rects>
                <_>
                  9 7 27 6 -1.</_>
                <_>
                  18 7 9 6 3.</_></rects>
              <tilted>0</tilted></feature>
            <threshold>9.1919405385851860e-03</threshold>
            <left_val>-0.3598709106445312</left_val>
            <right_val>0.1492564976215363</right_val></_></_>
        <_>
          <!-- tree 10 -->
          <_>
            <!-- root node -->
            <feature>
              <rects>
                <_>
                  5 18 32 1 -1.</_>
                <_>
                  13 18 16 1 2.</_></rects>
              <tilted>0</tilted></feature>
            <threshold>2.3200858850032091e-03</threshold>
            <left_val>0.2012559026479721</left_val>
            <right_val>-0.3445611894130707</right_val></_></_>
        <_>
          <!-- tree 11 -->
          <_>
            <!-- root node -->
            <feature>
              <rects>
                <_>
                  18 12 7 3 -1.</_>
                <_>
                  18 13 7 1 3.</_></rects>
              <tilted>0</tilted></feature>
            <threshold>3.2541030086576939e-03</threshold>
            <left_val>-0.1597772985696793</left_val>
            <right_val>0.3940925896167755</right_val></_></_>
        <_>
          <!-- tree 12 -->
          <_>
            <!-- root node -->
            <feature>
              <rects>
                <_>
                  21 2 8 8 -1.</_>
                <_>
                  23 4 4 8 2.</_></rects>
              <tilted>1</tilted></feature>
            <threshold>0.0366625897586346</threshold>
            <left_val>0.1154173016548157</left_val>
            <right_val>-0.6124346256256104</right_val></_></_>
        <_>
          <!-- tree 13 -->
          <_>
            <!-- root node -->
            <feature>
              <rects>
                <_>
                  18 12 7 3 -1.</_>
                <_>
                  18 13 7 1 3.</_></rects>
              <tilted>0</tilted></feature>
            <threshold>-3.3053311053663492e-03</threshold>
            <left_val>0.3813287019729614</left_val>
            <right_val>-0.1718250066041946</right_val></_></_>
        <_>
          <!-- tree 14 -->
          <_>
            <!-- root node -->
            <feature>
              <rects>
                <_>
                  10 7 18 7 -1.</_>
                <_>
                  16 7 6 7 3.</_></rects>
              <tilted>0</tilted></feature>
            <threshold>-0.0123847601935267</threshold>
            <left_val>-0.5143510103225708</left_val>
            <right_val>0.1333919018507004</right_val></_></_>
        <_>
          <!-- tree 15 -->
          <_>
            <!-- root node -->
            <feature>
              <rects>
                <_>
                  33 15 1 3 -1.</_>
                <_>
                  32 16 1 1 3.</_></rects>
              <tilted>1</tilted></feature>
            <threshold>-8.6152658332139254e-04</threshold>
            <left_val>-0.4697267115116119</left_val>
            <right_val>0.0278446692973375</right_val></_></_>
        <_>
          <!-- tree 16 -->
          <_>
            <!-- root node -->
            <feature>
              <rects>
                <_>
                  10 14 3 2 -1.</_>
                <_>
                  11 15 1 2 3.</_></rects>
              <tilted>1</tilted></feature>
            <threshold>9.4832881586626172e-04</threshold>
            <left_val>0.1263740956783295</left_val>
            <right_val>-0.4356190860271454</right_val></_></_>
        <_>
          <!-- tree 17 -->
          <_>
            <!-- root node -->
            <feature>
              <rects>
                <_>
                  24 0 19 4 -1.</_>
                <_>
                  24 2 19 2 2.</_></rects>
              <tilted>0</tilted></feature>
            <threshold>-9.3316240236163139e-04</threshold>
            <left_val>-0.1644113957881927</left_val>
            <right_val>0.1420660018920898</right_val></_></_>
        <_>
          <!-- tree 18 -->
          <_>
            <!-- root node -->
            <feature>
              <rects>
                <_>
                  9 0 15 19 -1.</_>
                <_>
                  14 0 5 19 3.</_></rects>
              <tilted>0</tilted></feature>
            <threshold>0.1044737026095390</threshold>
            <left_val>0.0841192826628685</left_val>
            <right_val>-0.6595004200935364</right_val></_></_>
        <_>
          <!-- tree 19 -->
          <_>
            <!-- root node -->
            <feature>
              <rects>
                <_>
                  12 6 19 4 -1.</_>
                <_>
                  12 7 19 2 2.</_></rects>
              <tilted>0</tilted></feature>
            <threshold>0.0154015300795436</threshold>
            <left_val>-0.1137724965810776</left_val>
            <right_val>0.4787979125976562</right_val></_></_>
        <_>
          <!-- tree 20 -->
          <_>
            <!-- root node -->
            <feature>
              <rects>
                <_>
                  14 5 6 6 -1.</_>
                <_>
                  14 7 6 2 3.</_></rects>
              <tilted>0</tilted></feature>
            <threshold>-5.5740340612828732e-03</threshold>
            <left_val>0.3050324916839600</left_val>
            <right_val>-0.2036392986774445</right_val></_></_>
        <_>
          <!-- tree 21 -->
          <_>
            <!-- root node -->
            <feature>
              <rects>
                <_>
                  22 0 2 17 -1.</_>
                <_>
                  22 0 1 17 2.</_></rects>
              <tilted>1</tilted></feature>
            <threshold>9.0566333383321762e-03</threshold>
            <left_val>0.0395446792244911</left_val>
            <right_val>-0.4662716984748840</right_val></_></_>
        <_>
          <!-- tree 22 -->
          <_>
            <!-- root node -->
            <feature>
              <rects>
                <_>
                  0 4 20 15 -1.</_>
                <_>
                  5 4 10 15 2.</_></rects>
              <tilted>0</tilted></feature>
            <threshold>0.0710004717111588</threshold>
            <left_val>-0.0695435628294945</left_val>
            <right_val>0.5993316769599915</right_val></_></_>
        <_>
          <!-- tree 23 -->
          <_>
            <!-- root node -->
            <feature>
              <rects>
                <_>
                  26 1 8 5 -1.</_>
                <_>
                  28 1 4 5 2.</_></rects>
              <tilted>0</tilted></feature>
            <threshold>-0.0105325998738408</threshold>
            <left_val>-0.6182187199592590</left_val>
            <right_val>0.0475780107080936</right_val></_></_>
        <_>
          <!-- tree 24 -->
          <_>
            <!-- root node -->
            <feature>
              <rects>
                <_>
                  10 3 6 2 -1.</_>
                <_>
                  12 3 2 2 3.</_></rects>
              <tilted>0</tilted></feature>
            <threshold>-1.6653269995003939e-03</threshold>
            <left_val>-0.4756003916263580</left_val>
            <right_val>0.0825154930353165</right_val></_></_>
        <_>
          <!-- tree 25 -->
          <_>
            <!-- root node -->
            <feature>
              <rects>
                <_>
                  32 11 11 8 -1.</_>
                <_>
                  32 13 11 4 2.</_></rects>
              <tilted>0</tilted></feature>
            <threshold>8.6563313379883766e-03</threshold>
            <left_val>-0.1759800016880035</left_val>
            <right_val>0.3389059901237488</right_val></_></_>
        <_>
          <!-- tree 26 -->
          <_>
            <!-- root node -->
            <feature>
              <rects>
                <_>
                  3 13 36 1 -1.</_>
                <_>
                  12 13 18 1 2.</_></rects>
              <tilted>0</tilted></feature>
            <threshold>0.0344069786369801</threshold>
            <left_val>-0.0732465982437134</left_val>
            <right_val>0.5707250833511353</right_val></_></_></trees>
      <stage_threshold>-1.4568270444869995</stage_threshold>
      <parent>5</parent>
      <next>-1</next></_>
    <_>
      <!-- stage 7 -->
      <trees>
        <_>
          <!-- tree 0 -->
          <_>
            <!-- root node -->
            <feature>
              <rects>
                <_>
                  13 9 17 4 -1.</_>
                <_>
                  13 10 17 2 2.</_></rects>
              <tilted>0</tilted></feature>
            <threshold>0.0147222196683288</threshold>
            <left_val>-0.3432675898075104</left_val>
            <right_val>0.6334375739097595</right_val></_></_>
        <_>
          <!-- tree 1 -->
          <_>
            <!-- root node -->
            <feature>
              <rects>
                <_>
                  8 6 28 8 -1.</_>
                <_>
                  15 6 14 8 2.</_></rects>
              <tilted>0</tilted></feature>
            <threshold>0.0751794129610062</threshold>
            <left_val>-0.3580825030803680</left_val>
            <right_val>0.3909040093421936</right_val></_></_>
        <_>
          <!-- tree 2 -->
          <_>
            <!-- root node -->
            <feature>
              <rects>
                <_>
                  0 0 42 12 -1.</_>
                <_>
                  0 0 21 6 2.</_>
                <_>
                  21 6 21 6 2.</_></rects>
              <tilted>0</tilted></feature>
            <threshold>0.1058283001184464</threshold>
            <left_val>0.1715732961893082</left_val>
            <right_val>-0.5751029253005981</right_val></_></_>
        <_>
          <!-- tree 3 -->
          <_>
            <!-- root node -->
            <feature>
              <rects>
                <_>
                  35 7 6 6 -1.</_>
                <_>
                  35 7 3 6 2.</_></rects>
              <tilted>1</tilted></feature>
            <threshold>-0.0295407008379698</threshold>
            <left_val>0.4374406039714813</left_val>
            <right_val>-0.2846038937568665</right_val></_></_>
        <_>
          <!-- tree 4 -->
          <_>
            <!-- root node -->
            <feature>
              <rects>
                <_>
                  7 6 7 6 -1.</_>
                <_>
                  7 6 7 3 2.</_></rects>
              <tilted>1</tilted></feature>
            <threshold>-0.0260506495833397</threshold>
            <left_val>0.2995862960815430</left_val>
            <right_val>-0.4176351130008698</right_val></_></_>
        <_>
          <!-- tree 5 -->
          <_>
            <!-- root node -->
            <feature>
              <rects>
                <_>
                  16 11 11 4 -1.</_>
                <_>
                  16 12 11 2 2.</_></rects>
              <tilted>0</tilted></feature>
            <threshold>0.0113851400092244</threshold>
            <left_val>-0.2180760949850082</left_val>
            <right_val>0.5543267130851746</right_val></_></_>
        <_>
          <!-- tree 6 -->
          <_>
            <!-- root node -->
            <feature>
              <rects>
                <_>
                  12 8 19 3 -1.</_>
                <_>
                  12 9 19 1 3.</_></rects>
              <tilted>0</tilted></feature>
            <threshold>9.1763846576213837e-03</threshold>
            <left_val>-0.0870942473411560</left_val>
            <right_val>0.5842232704162598</right_val></_></_>
        <_>
          <!-- tree 7 -->
          <_>
            <!-- root node -->
            <feature>
              <rects>
                <_>
                  22 3 12 7 -1.</_>
                <_>
                  26 3 4 7 3.</_></rects>
              <tilted>0</tilted></feature>
            <threshold>-0.0246069505810738</threshold>
            <left_val>-0.6527113914489746</left_val>
            <right_val>0.0726503431797028</right_val></_></_>
        <_>
          <!-- tree 8 -->
          <_>
            <!-- root node -->
            <feature>
              <rects>
                <_>
                  9 3 12 7 -1.</_>
                <_>
                  13 3 4 7 3.</_></rects>
              <tilted>0</tilted></feature>
            <threshold>-0.0161917600780725</threshold>
            <left_val>-0.6148027777671814</left_val>
            <right_val>0.1097866967320442</right_val></_></_>
        <_>
          <!-- tree 9 -->
          <_>
            <!-- root node -->
            <feature>
              <rects>
                <_>
                  17 14 9 3 -1.</_>
                <_>
                  17 15 9 1 3.</_></rects>
              <tilted>0</tilted></feature>
            <threshold>3.7815049290657043e-03</threshold>
            <left_val>-0.2077493071556091</left_val>
            <right_val>0.4221357107162476</right_val></_></_>
        <_>
          <!-- tree 10 -->
          <_>
            <!-- root node -->
            <feature>
              <rects>
                <_>
                  0 15 9 4 -1.</_>
                <_>
                  0 16 9 2 2.</_></rects>
              <tilted>0</tilted></feature>
            <threshold>2.2207710426300764e-03</threshold>
            <left_val>0.1635883003473282</left_val>
            <right_val>-0.5592364072799683</right_val></_></_>
        <_>
          <!-- tree 11 -->
          <_>
            <!-- root node -->
            <feature>
              <rects>
                <_>
                  35 13 6 6 -1.</_>
                <_>
                  35 15 6 2 3.</_></rects>
              <tilted>0</tilted></feature>
            <threshold>2.6073870249092579e-03</threshold>
            <left_val>-0.1390760987997055</left_val>
            <right_val>0.2260113060474396</right_val></_></_>
        <_>
          <!-- tree 12 -->
          <_>
            <!-- root node -->
            <feature>
              <rects>
                <_>
                  4 15 5 4 -1.</_>
                <_>
                  4 16 5 2 2.</_></rects>
              <tilted>0</tilted></feature>
            <threshold>-1.2353130150586367e-03</threshold>
            <left_val>-0.6970484256744385</left_val>
            <right_val>0.1000085994601250</right_val></_></_>
        <_>
          <!-- tree 13 -->
          <_>
            <!-- root node -->
            <feature>
              <rects>
                <_>
                  12 3 19 6 -1.</_>
                <_>
                  12 5 19 2 3.</_></rects>
              <tilted>0</tilted></feature>
            <threshold>0.0238706991076469</threshold>
            <left_val>-0.1997039020061493</left_val>
            <right_val>0.3468553125858307</right_val></_></_>
        <_>
          <!-- tree 14 -->
          <_>
            <!-- root node -->
            <feature>
              <rects>
                <_>
                  19 2 8 9 -1.</_>
                <_>
                  21 4 4 9 2.</_></rects>
              <tilted>1</tilted></feature>
            <threshold>-0.0230386909097433</threshold>
            <left_val>-0.5305448770523071</left_val>
            <right_val>0.1473332047462463</right_val></_></_>
        <_>
          <!-- tree 15 -->
          <_>
            <!-- root node -->
            <feature>
              <rects>
                <_>
                  36 0 2 2 -1.</_>
                <_>
                  36 0 1 2 2.</_></rects>
              <tilted>1</tilted></feature>
            <threshold>1.3439049944281578e-03</threshold>
            <left_val>0.0170724708586931</left_val>
            <right_val>-0.1334248036146164</right_val></_></_>
        <_>
          <!-- tree 16 -->
          <_>
            <!-- root node -->
            <feature>
              <rects>
                <_>
                  7 0 2 2 -1.</_>
                <_>
                  7 0 2 1 2.</_></rects>
              <tilted>1</tilted></feature>
            <threshold>-7.8273937106132507e-04</threshold>
            <left_val>-0.5062167048454285</left_val>
            <right_val>0.1262356042861938</right_val></_></_>
        <_>
          <!-- tree 17 -->
          <_>
            <!-- root node -->
            <feature>
              <rects>
                <_>
                  18 7 8 12 -1.</_>
                <_>
                  22 7 4 6 2.</_>
                <_>
                  18 13 4 6 2.</_></rects>
              <tilted>0</tilted></feature>
            <threshold>-0.0175712294876575</threshold>
            <left_val>-0.5934190750122070</left_val>
            <right_val>0.0918859764933586</right_val></_></_>
        <_>
          <!-- tree 18 -->
          <_>
            <!-- root node -->
            <feature>
              <rects>
                <_>
                  19 10 3 4 -1.</_>
                <_>
                  20 10 1 4 3.</_></rects>
              <tilted>0</tilted></feature>
            <threshold>9.0744940098375082e-04</threshold>
            <left_val>-0.1427599042654037</left_val>
            <right_val>0.4360683858394623</right_val></_></_>
        <_>
          <!-- tree 19 -->
          <_>
            <!-- root node -->
            <feature>
              <rects>
                <_>
                  16 1 12 18 -1.</_>
                <_>
                  22 1 6 9 2.</_>
                <_>
                  16 10 6 9 2.</_></rects>
              <tilted>0</tilted></feature>
            <threshold>0.0493297204375267</threshold>
            <left_val>0.0986816063523293</left_val>
            <right_val>-0.5877512097358704</right_val></_></_>
        <_>
          <!-- tree 20 -->
          <_>
            <!-- root node -->
            <feature>
              <rects>
                <_>
                  17 10 3 3 -1.</_>
                <_>
                  18 10 1 3 3.</_></rects>
              <tilted>0</tilted></feature>
            <threshold>1.0766170453280210e-03</threshold>
            <left_val>-0.1191210970282555</left_val>
            <right_val>0.5202807784080505</right_val></_></_></trees>
      <stage_threshold>-1.4430079460144043</stage_threshold>
      <parent>6</parent>
      <next>-1</next></_>
    <_>
      <!-- stage 8 -->
      <trees>
        <_>
          <!-- tree 0 -->
          <_>
            <!-- root node -->
            <feature>
              <rects>
                <_>
                  5 8 33 6 -1.</_>
                <_>
                  16 10 11 2 9.</_></rects>
              <tilted>0</tilted></feature>
            <threshold>0.3385817110538483</threshold>
            <left_val>-0.2434459030628204</left_val>
            <right_val>0.7654228210449219</right_val></_></_>
        <_>
          <!-- tree 1 -->
          <_>
            <!-- root node -->
            <feature>
              <rects>
                <_>
                  35 2 6 9 -1.</_>
                <_>
                  37 4 2 9 3.</_></rects>
              <tilted>1</tilted></feature>
            <threshold>-0.0672622919082642</threshold>
            <left_val>0.6218003034591675</left_val>
            <right_val>-0.0414641089737415</right_val></_></_>
        <_>
          <!-- tree 2 -->
          <_>
            <!-- root node -->
            <feature>
              <rects>
                <_>
                  7 2 11 6 -1.</_>
                <_>
                  5 4 11 2 3.</_></rects>
              <tilted>1</tilted></feature>
            <threshold>-0.0682503581047058</threshold>
            <left_val>0.5311585068702698</left_val>
            <right_val>-0.1436062008142471</right_val></_></_>
        <_>
          <!-- tree 3 -->
          <_>
            <!-- root node -->
            <feature>
              <rects>
                <_>
                  37 0 4 10 -1.</_>
                <_>
                  38 1 2 10 2.</_></rects>
              <tilted>1</tilted></feature>
            <threshold>3.8354280404746532e-03</threshold>
            <left_val>-0.2129891961812973</left_val>
            <right_val>0.2769536077976227</right_val></_></_>
        <_>
          <!-- tree 4 -->
          <_>
            <!-- root node -->
            <feature>
              <rects>
                <_>
                  1 4 2 1 -1.</_>
                <_>
                  2 4 1 1 2.</_></rects>
              <tilted>0</tilted></feature>
            <threshold>3.6380509845912457e-03</threshold>
            <left_val>0.0206770692020655</left_val>
            <right_val>1.4877189941406250e+03</right_val></_></_>
        <_>
          <!-- tree 5 -->
          <_>
            <!-- root node -->
            <feature>
              <rects>
                <_>
                  37 0 4 10 -1.</_>
                <_>
                  38 1 2 10 2.</_></rects>
              <tilted>1</tilted></feature>
            <threshold>-0.0409762486815453</threshold>
            <left_val>0.7508031725883484</left_val>
            <right_val>-0.0216628294438124</right_val></_></_>
        <_>
          <!-- tree 6 -->
          <_>
            <!-- root node -->
            <feature>
              <rects>
                <_>
                  15 8 13 3 -1.</_>
                <_>
                  15 9 13 1 3.</_></rects>
              <tilted>0</tilted></feature>
            <threshold>-6.2217758968472481e-03</threshold>
            <left_val>0.3421308994293213</left_val>
            <right_val>-0.1323463022708893</right_val></_></_>
        <_>
          <!-- tree 7 -->
          <_>
            <!-- root node -->
            <feature>
              <rects>
                <_>
                  25 5 8 4 -1.</_>
                <_>
                  25 6 8 2 2.</_></rects>
              <tilted>0</tilted></feature>
            <threshold>-4.8393169417977333e-03</threshold>
            <left_val>0.2855198085308075</left_val>
            <right_val>-0.0987174287438393</right_val></_></_>
        <_>
          <!-- tree 8 -->
          <_>
            <!-- root node -->
            <feature>
              <rects>
                <_>
                  8 2 9 4 -1.</_>
                <_>
                  7 3 9 2 2.</_></rects>
              <tilted>1</tilted></feature>
            <threshold>-0.0217370893806219</threshold>
            <left_val>0.5427883267402649</left_val>
            <right_val>-0.0794125273823738</right_val></_></_>
        <_>
          <!-- tree 9 -->
          <_>
            <!-- root node -->
            <feature>
              <rects>
                <_>
                  8 7 27 6 -1.</_>
                <_>
                  17 7 9 6 3.</_></rects>
              <tilted>0</tilted></feature>
            <threshold>-0.0166011601686478</threshold>
            <left_val>-0.5265207886695862</left_val>
            <right_val>0.0889101624488831</right_val></_></_>
        <_>
          <!-- tree 10 -->
          <_>
            <!-- root node -->
            <feature>
              <rects>
                <_>
                  18 12 7 3 -1.</_>
                <_>
                  18 13 7 1 3.</_></rects>
              <tilted>0</tilted></feature>
            <threshold>2.7153869159519672e-03</threshold>
            <left_val>-0.1506175994873047</left_val>
            <right_val>0.3708369135856628</right_val></_></_>
        <_>
          <!-- tree 11 -->
          <_>
            <!-- root node -->
            <feature>
              <rects>
                <_>
                  2 18 40 1 -1.</_>
                <_>
                  12 18 20 1 2.</_></rects>
              <tilted>0</tilted></feature>
            <threshold>0.0147743998095393</threshold>
            <left_val>0.1072894036769867</left_val>
            <right_val>-0.4492281973361969</right_val></_></_>
        <_>
          <!-- tree 12 -->
          <_>
            <!-- root node -->
            <feature>
              <rects>
                <_>
                  10 5 8 4 -1.</_>
                <_>
                  10 6 8 2 2.</_></rects>
              <tilted>0</tilted></feature>
            <threshold>-5.1080291159451008e-03</threshold>
            <left_val>0.3495106101036072</left_val>
            <right_val>-0.1298636049032211</right_val></_></_>
        <_>
          <!-- tree 13 -->
          <_>
            <!-- root node -->
            <feature>
              <rects>
                <_>
                  14 7 18 7 -1.</_>
                <_>
                  20 7 6 7 3.</_></rects>
              <tilted>0</tilted></feature>
            <threshold>0.0918375402688980</threshold>
            <left_val>0.0526933297514915</left_val>
            <right_val>-0.5362296104431152</right_val></_></_>
        <_>
          <!-- tree 14 -->
          <_>
            <!-- root node -->
            <feature>
              <rects>
                <_>
                  11 3 6 3 -1.</_>
                <_>
                  13 3 2 3 3.</_></rects>
              <tilted>0</tilted></feature>
            <threshold>2.9792420100420713e-03</threshold>
            <left_val>0.0795076414942741</left_val>
            <right_val>-0.4776220023632050</right_val></_></_>
        <_>
          <!-- tree 15 -->
          <_>
            <!-- root node -->
            <feature>
              <rects>
                <_>
                  14 0 15 10 -1.</_>
                <_>
                  14 5 15 5 2.</_></rects>
              <tilted>0</tilted></feature>
            <threshold>-0.0520421601831913</threshold>
            <left_val>-0.3034644126892090</left_val>
            <right_val>0.1377300024032593</right_val></_></_>
        <_>
          <!-- tree 16 -->
          <_>
            <!-- root node -->
            <feature>
              <rects>
                <_>
                  17 16 9 3 -1.</_>
                <_>
                  20 16 3 3 3.</_></rects>
              <tilted>0</tilted></feature>
            <threshold>-7.0747379213571548e-03</threshold>
            <left_val>-0.6349154710769653</left_val>
            <right_val>0.0588942393660545</right_val></_></_>
        <_>
          <!-- tree 17 -->
          <_>
            <!-- root node -->
            <feature>
              <rects>
                <_>
                  26 2 6 2 -1.</_>
                <_>
                  28 2 2 2 3.</_></rects>
              <tilted>0</tilted></feature>
            <threshold>1.3924910454079509e-03</threshold>
            <left_val>0.0718929991126060</left_val>
            <right_val>-0.2666083872318268</right_val></_></_>
        <_>
          <!-- tree 18 -->
          <_>
            <!-- root node -->
            <feature>
              <rects>
                <_>
                  13 7 10 3 -1.</_>
                <_>
                  13 8 10 1 3.</_></rects>
              <tilted>0</tilted></feature>
            <threshold>-4.0194471366703510e-03</threshold>
            <left_val>0.2520706057548523</left_val>
            <right_val>-0.1402827054262161</right_val></_></_>
        <_>
          <!-- tree 19 -->
          <_>
            <!-- root node -->
            <feature>
              <rects>
                <_>
                  16 7 11 3 -1.</_>
                <_>
                  16 8 11 1 3.</_></rects>
              <tilted>0</tilted></feature>
            <threshold>5.8095459826290607e-03</threshold>
            <left_val>-0.0971771925687790</left_val>
            <right_val>0.3868851959705353</right_val></_></_>
        <_>
          <!-- tree 20 -->
          <_>
            <!-- root node -->
            <feature>
              <rects>
                <_>
                  11 13 2 3 -1.</_>
                <_>
                  11 13 1 3 2.</_></rects>
              <tilted>1</tilted></feature>
            <threshold>1.8049849895760417e-03</threshold>
            <left_val>0.0860784575343132</left_val>
            <right_val>-0.5022153258323669</right_val></_></_>
        <_>
          <!-- tree 21 -->
          <_>
            <!-- root node -->
            <feature>
              <rects>
                <_>
                  11 0 22 8 -1.</_>
                <_>
                  22 0 11 4 2.</_>
                <_>
                  11 4 11 4 2.</_></rects>
              <tilted>0</tilted></feature>
            <threshold>0.0195520091801882</threshold>
            <left_val>0.1110851988196373</left_val>
            <right_val>-0.2404381036758423</right_val></_></_>
        <_>
          <!-- tree 22 -->
          <_>
            <!-- root node -->
            <feature>
              <rects>
                <_>
                  10 15 3 1 -1.</_>
                <_>
                  11 16 1 1 3.</_></rects>
              <tilted>1</tilted></feature>
            <threshold>5.0447590183466673e-04</threshold>
            <left_val>0.0865657776594162</left_val>
            <right_val>-0.3714016079902649</right_val></_></_>
        <_>
          <!-- tree 23 -->
          <_>
            <!-- root node -->
            <feature>
              <rects>
                <_>
                  2 3 40 7 -1.</_>
                <_>
                  12 3 20 7 2.</_></rects>
              <tilted>0</tilted></feature>
            <threshold>-0.0510607585310936</threshold>
            <left_val>-0.3761892914772034</left_val>
            <right_val>0.0762716382741928</right_val></_></_>
        <_>
          <!-- tree 24 -->
          <_>
            <!-- root node -->
            <feature>
              <rects>
                <_>
                  18 14 5 3 -1.</_>
                <_>
                  18 15 5 1 3.</_></rects>
              <tilted>0</tilted></feature>
            <threshold>1.5248500276356936e-03</threshold>
            <left_val>-0.1401297003030777</left_val>
            <right_val>0.2562817931175232</right_val></_></_>
        <_>
          <!-- tree 25 -->
          <_>
            <!-- root node -->
            <feature>
              <rects>
                <_>
                  18 11 7 3 -1.</_>
                <_>
                  18 12 7 1 3.</_></rects>
              <tilted>0</tilted></feature>
            <threshold>2.5133560411632061e-03</threshold>
            <left_val>-0.1414317041635513</left_val>
            <right_val>0.2262489050626755</right_val></_></_>
        <_>
          <!-- tree 26 -->
          <_>
            <!-- root node -->
            <feature>
              <rects>
                <_>
                  18 0 15 4 -1.</_>
                <_>
                  18 0 15 2 2.</_></rects>
              <tilted>1</tilted></feature>
            <threshold>0.0262609105557203</threshold>
            <left_val>0.0504289008677006</left_val>
            <right_val>-0.5903344154357910</right_val></_></_>
        <_>
          <!-- tree 27 -->
          <_>
            <!-- root node -->
            <feature>
              <rects>
                <_>
                  16 9 16 8 -1.</_>
                <_>
                  20 9 8 8 2.</_></rects>
              <tilted>0</tilted></feature>
            <threshold>-0.0296374894678593</threshold>
            <left_val>-0.3965711891651154</left_val>
            <right_val>0.0255352295935154</right_val></_></_>
        <_>
          <!-- tree 28 -->
          <_>
            <!-- root node -->
            <feature>
              <rects>
                <_>
                  19 10 2 3 -1.</_>
                <_>
                  18 11 2 1 3.</_></rects>
              <tilted>1</tilted></feature>
            <threshold>-2.1888720802962780e-03</threshold>
            <left_val>0.2958723902702332</left_val>
            <right_val>-0.1077182963490486</right_val></_></_>
        <_>
          <!-- tree 29 -->
          <_>
            <!-- root node -->
            <feature>
              <rects>
                <_>
                  31 9 6 2 -1.</_>
                <_>
                  31 10 6 1 2.</_></rects>
              <tilted>0</tilted></feature>
            <threshold>2.1585049107670784e-03</threshold>
            <left_val>-0.1332558989524841</left_val>
            <right_val>0.4078120887279510</right_val></_></_>
        <_>
          <!-- tree 30 -->
          <_>
            <!-- root node -->
            <feature>
              <rects>
                <_>
                  5 2 32 16 -1.</_>
                <_>
                  5 2 16 8 2.</_>
                <_>
                  21 10 16 8 2.</_></rects>
              <tilted>0</tilted></feature>
            <threshold>0.0632980465888977</threshold>
            <left_val>0.1006743982434273</left_val>
            <right_val>-0.3382320106029510</right_val></_></_>
        <_>
          <!-- tree 31 -->
          <_>
            <!-- root node -->
            <feature>
              <rects>
                <_>
                  22 1 7 9 -1.</_>
                <_>
                  19 4 7 3 3.</_></rects>
              <tilted>1</tilted></feature>
            <threshold>0.0415038503706455</threshold>
            <left_val>0.0274610295891762</left_val>
            <right_val>-0.1398444026708603</right_val></_></_>
        <_>
          <!-- tree 32 -->
          <_>
            <!-- root node -->
            <feature>
              <rects>
                <_>
                  9 5 9 2 -1.</_>
                <_>
                  12 5 3 2 3.</_></rects>
              <tilted>0</tilted></feature>
            <threshold>-5.5414428934454918e-03</threshold>
            <left_val>-0.5838177204132080</left_val>
            <right_val>0.0530051812529564</right_val></_></_>
        <_>
          <!-- tree 33 -->
          <_>
            <!-- root node -->
            <feature>
              <rects>
                <_>
                  29 4 4 1 -1.</_>
                <_>
                  30 4 2 1 2.</_></rects>
              <tilted>0</tilted></feature>
            <threshold>-3.8478380884043872e-04</threshold>
            <left_val>-0.4961901009082794</left_val>
            <right_val>0.0512093603610992</right_val></_></_>
        <_>
          <!-- tree 34 -->
          <_>
            <!-- root node -->
            <feature>
              <rects>
                <_>
                  6 11 1 8 -1.</_>
                <_>
                  6 13 1 4 2.</_></rects>
              <tilted>0</tilted></feature>
            <threshold>-6.2804640037938952e-04</threshold>
            <left_val>-0.3715361952781677</left_val>
            <right_val>0.0763679295778275</right_val></_></_>
        <_>
          <!-- tree 35 -->
          <_>
            <!-- root node -->
            <feature>
              <rects>
                <_>
                  33 17 4 2 -1.</_>
                <_>
                  33 18 4 1 2.</_></rects>
              <tilted>0</tilted></feature>
            <threshold>-5.3598161321133375e-04</threshold>
            <left_val>-0.3372009098529816</left_val>
            <right_val>0.0815649628639221</right_val></_></_>
        <_>
          <!-- tree 36 -->
          <_>
            <!-- root node -->
            <feature>
              <rects>
                <_>
                  9 4 6 2 -1.</_>
                <_>
                  11 4 2 2 3.</_></rects>
              <tilted>0</tilted></feature>
            <threshold>1.8804930150508881e-03</threshold>
            <left_val>0.0763967335224152</left_val>
            <right_val>-0.3588131070137024</right_val></_></_>
        <_>
          <!-- tree 37 -->
          <_>
            <!-- root node -->
            <feature>
              <rects>
                <_>
                  18 16 7 3 -1.</_>
                <_>
                  18 17 7 1 3.</_></rects>
              <tilted>0</tilted></feature>
            <threshold>1.5450819628313184e-03</threshold>
            <left_val>-0.1103800982236862</left_val>
            <right_val>0.2546742856502533</right_val></_></_>
        <_>
          <!-- tree 38 -->
          <_>
            <!-- root node -->
            <feature>
              <rects>
                <_>
                  17 18 9 1 -1.</_>
                <_>
                  20 18 3 1 3.</_></rects>
              <tilted>0</tilted></feature>
            <threshold>1.2865189928561449e-03</threshold>
            <left_val>0.1016561985015869</left_val>
            <right_val>-0.3229332864284515</right_val></_></_>
        <_>
          <!-- tree 39 -->
          <_>
            <!-- root node -->
            <feature>
              <rects>
                <_>
                  22 1 2 16 -1.</_>
                <_>
                  22 1 1 16 2.</_></rects>
              <tilted>1</tilted></feature>
            <threshold>7.4114021845161915e-03</threshold>
            <left_val>0.0205537006258965</left_val>
            <right_val>-0.2944309115409851</right_val></_></_>
        <_>
          <!-- tree 40 -->
          <_>
            <!-- root node -->
            <feature>
              <rects>
                <_>
                  21 1 16 2 -1.</_>
                <_>
                  21 1 16 1 2.</_></rects>
              <tilted>1</tilted></feature>
            <threshold>7.6697869226336479e-03</threshold>
            <left_val>0.0497000589966774</left_val>
            <right_val>-0.5415160059928894</right_val></_></_>
        <_>
          <!-- tree 41 -->
          <_>
            <!-- root node -->
            <feature>
              <rects>
                <_>
                  33 17 4 2 -1.</_>
                <_>
                  33 18 4 1 2.</_></rects>
              <tilted>0</tilted></feature>
            <threshold>2.1504650358110666e-03</threshold>
            <left_val>0.0105732502415776</left_val>
            <right_val>-0.3284468948841095</right_val></_></_>
        <_>
          <!-- tree 42 -->
          <_>
            <!-- root node -->
            <feature>
              <rects>
                <_>
                  6 17 4 2 -1.</_>
                <_>
                  6 18 4 1 2.</_></rects>
              <tilted>0</tilted></feature>
            <threshold>-5.2607071120291948e-04</threshold>
            <left_val>-0.3415536880493164</left_val>
            <right_val>0.0795473530888557</right_val></_></_>
        <_>
          <!-- tree 43 -->
          <_>
            <!-- root node -->
            <feature>
              <rects>
                <_>
                  3 9 40 10 -1.</_>
                <_>
                  23 9 20 5 2.</_>
                <_>
                  3 14 20 5 2.</_></rects>
              <tilted>0</tilted></feature>
            <threshold>0.0835025236010551</threshold>
            <left_val>0.0540552400052547</left_val>
            <right_val>-0.3245021998882294</right_val></_></_>
        <_>
          <!-- tree 44 -->
          <_>
            <!-- root node -->
            <feature>
              <rects>
                <_>
                  10 9 18 7 -1.</_>
                <_>
                  16 9 6 7 3.</_></rects>
              <tilted>0</tilted></feature>
            <threshold>0.0885100215673447</threshold>
            <left_val>0.0593055002391338</left_val>
            <right_val>-0.4903897047042847</right_val></_></_>
        <_>
          <!-- tree 45 -->
          <_>
            <!-- root node -->
            <feature>
              <rects>
                <_>
                  18 13 7 3 -1.</_>
                <_>
                  18 14 7 1 3.</_></rects>
              <tilted>0</tilted></feature>
            <threshold>2.3878519423305988e-03</threshold>
            <left_val>-0.1111100986599922</left_val>
            <right_val>0.2409923970699310</right_val></_></_>
        <_>
          <!-- tree 46 -->
          <_>
            <!-- root node -->
            <feature>
              <rects>
                <_>
                  15 13 9 3 -1.</_>
                <_>
                  15 14 9 1 3.</_></rects>
              <tilted>0</tilted></feature>
            <threshold>-2.4207918904721737e-03</threshold>
            <left_val>0.2351019978523254</left_val>
            <right_val>-0.1170746013522148</right_val></_></_>
        <_>
          <!-- tree 47 -->
          <_>
            <!-- root node -->
            <feature>
              <rects>
                <_>
                  22 0 7 3 -1.</_>
                <_>
                  21 1 7 1 3.</_></rects>
              <tilted>1</tilted></feature>
            <threshold>-5.9759458526968956e-03</threshold>
            <left_val>-0.2918236851692200</left_val>
            <right_val>0.0331279188394547</right_val></_></_>
        <_>
          <!-- tree 48 -->
          <_>
            <!-- root node -->
            <feature>
              <rects>
                <_>
                  21 0 9 8 -1.</_>
                <_>
                  24 3 3 8 3.</_></rects>
              <tilted>1</tilted></feature>
            <threshold>0.0709741115570068</threshold>
            <left_val>0.0459566488862038</left_val>
            <right_val>-0.5603008270263672</right_val></_></_>
        <_>
