<?xml version="1.0"?>
<opencv_storage>
<smiled_03 type_id="opencv-haar-classifier">
  <size>
    43 19</size>
  <stages>
    <_>
      <!-- stage 0 -->
      <trees>
        <_>
          <!-- tree 0 -->
          <_>
            <!-- root node -->
            <feature>
              <rects>
                <_>
                  8 0 11 8 -1.</_>
                <_>
                  6 2 11 4 2.</_></rects>
              <tilted>1</tilted></feature>
            <threshold>-0.0401087589561939</threshold>
            <left_val>0.7714710831642151</left_val>
            <right_val>-0.6623207926750183</right_val></_></_>
        <_>
          <!-- tree 1 -->
          <_>
            <!-- root node -->
            <feature>
              <rects>
                <_>
                  5 8 33 6 -1.</_>
                <_>
                  16 10 11 2 9.</_></rects>
              <tilted>0</tilted></feature>
            <threshold>0.2121164947748184</threshold>
            <left_val>-0.3999586999416351</left_val>
            <right_val>0.8812894225120544</right_val></_></_>
        <_>
          <!-- tree 2 -->
          <_>
            <!-- root node -->
            <feature>
              <rects>
                <_>
                  1 4 18 9 -1.</_>
                <_>
                  7 7 6 3 9.</_></rects>
              <tilted>0</tilted></feature>
            <threshold>-0.0554135404527187</threshold>
            <left_val>0.4769746959209442</left_val>
            <right_val>-0.4029192924499512</right_val></_></_>
        <_>
          <!-- tree 3 -->
          <_>
            <!-- root node -->
            <feature>
              <rects>
                <_>
                  15 8 13 3 -1.</_>
                <_>
                  15 9 13 1 3.</_></rects>
              <tilted>0</tilted></feature>
            <threshold>7.4238958768546581e-03</threshold>
            <left_val>-0.1611430943012238</left_val>
            <right_val>0.8466030955314636</right_val></_></_>
        <_>
          <!-- tree 4 -->
          <_>
            <!-- root node -->
            <feature>
              <rects>
                <_>
                  15 9 12 4 -1.</_>
                <_>
                  15 11 12 2 2.</_></rects>
              <tilted>0</tilted></feature>
            <threshold>0.0267382506281137</threshold>
            <left_val>-0.1846318989992142</left_val>
            <right_val>0.7755039930343628</right_val></_></_>
        <_>
          <!-- tree 5 -->
          <_>
            <!-- root node -->
            <feature>
              <rects>
                <_>
                  14 1 15 12 -1.</_>
                <_>
                  19 1 5 12 3.</_></rects>
              <tilted>0</tilted></feature>
            <threshold>0.0869776830077171</threshold>
            <left_val>0.1892955005168915</left_val>
            <right_val>-0.8448889255523682</right_val></_></_>
        <_>
          <!-- tree 6 -->
          <_>
            <!-- root node -->
            <feature>
              <rects>
                <_>
                  11 6 21 8 -1.</_>
                <_>
                  18 6 7 8 3.</_></rects>
              <tilted>0</tilted></feature>
            <threshold>-0.0217043701559305</threshold>
            <left_val>-0.6762369871139526</left_val>
            <right_val>0.2582812011241913</right_val></_></_>
        <_>
          <!-- tree 7 -->
          <_>
            <!-- root node -->
            <feature>
              <rects>
                <_>
                  17 0 9 4 -1.</_>
                <_>
                  17 2 9 2 2.</_></rects>
              <tilted>0</tilted></feature>
            <threshold>3.7310179322957993e-03</threshold>
            <left_val>-0.3246907889842987</left_val>
            <right_val>0.4036056995391846</right_val></_></_></trees>
      <stage_threshold>-1.6880880594253540</stage_threshold>
      <parent>-1</parent>
      <next>-1</next></_>
    <_>
      <!-- stage 1 -->
      <trees>
        <_>
          <!-- tree 0 -->
          <_>
            <!-- root node -->
            <feature>
              <rects>
                <_>
                  8 0 11 8 -1.</_>
                <_>
                  6 2 11 4 2.</_></rects>
              <tilted>1</tilted></feature>
            <threshold>-0.0551101900637150</threshold>
            <left_val>0.7520875930786133</left_val>
            <right_val>-0.5370109081268311</right_val></_></_>
        <_>
          <!-- tree 1 -->
          <_>
            <!-- root node -->
            <feature>
              <rects>
                <_>
                  2 8 39 6 -1.</_>
                <_>
                  15 10 13 2 9.</_></rects>
              <tilted>0</tilted></feature>
            <threshold>0.2694908976554871</threshold>
            <left_val>-0.3501996099948883</left_val>
            <right_val>0.8873639106750488</right_val></_></_>
        <_>
          <!-- tree 2 -->
          <_>
            <!-- root node -->
            <feature>
              <rects>
                <_>
                  8 4 4 8 -1.</_>
                <_>
                  8 4 4 4 2.</_></rects>
              <tilted>1</tilted></feature>
            <threshold>-0.0100924000144005</threshold>
            <left_val>0.4314182996749878</left_val>
            <right_val>-0.4969801902770996</right_val></_></_>
        <_>
          <!-- tree 3 -->
          <_>
            <!-- root node -->
            <feature>
              <rects>
                <_>
                  15 9 14 4 -1.</_>
                <_>
                  15 10 14 2 2.</_></rects>
              <tilted>0</tilted></feature>
            <threshold>0.0105801103636622</threshold>
            <left_val>-0.2052076011896133</left_val>
            <right_val>0.6446803808212280</right_val></_></_>
        <_>
          <!-- tree 4 -->
          <_>
            <!-- root node -->
            <feature>
              <rects>
                <_>
                  17 8 7 6 -1.</_>
                <_>
                  17 10 7 2 3.</_></rects>
              <tilted>0</tilted></feature>
            <threshold>-0.0142972301691771</threshold>
            <left_val>0.6660088896751404</left_val>
            <right_val>-0.2305343002080917</right_val></_></_>
        <_>
          <!-- tree 5 -->
          <_>
            <!-- root node -->
            <feature>
              <rects>
                <_>
                  13 0 17 4 -1.</_>
                <_>
                  13 2 17 2 2.</_></rects>
              <tilted>0</tilted></feature>
            <threshold>3.4546530805528164e-03</threshold>
            <left_val>-0.3123292028903961</left_val>
            <right_val>0.3813703060150146</right_val></_></_>
        <_>
          <!-- tree 6 -->
          <_>
            <!-- root node -->
            <feature>
              <rects>
                <_>
                  9 6 24 7 -1.</_>
                <_>
                  15 6 12 7 2.</_></rects>
              <tilted>0</tilted></feature>
            <threshold>1.0085999965667725e-03</threshold>
            <left_val>-0.5679321289062500</left_val>
            <right_val>0.2196142971515656</right_val></_></_>
        <_>
          <!-- tree 7 -->
          <_>
            <!-- root node -->
            <feature>
              <rects>
                <_>
                  16 5 12 6 -1.</_>
                <_>
                  19 5 6 6 2.</_></rects>
              <tilted>0</tilted></feature>
            <threshold>0.0235727503895760</threshold>
            <left_val>0.1579052060842514</left_val>
            <right_val>-0.7667375206947327</right_val></_></_>
        <_>
          <!-- tree 8 -->
          <_>
            <!-- root node -->
            <feature>
              <rects>
                <_>
                  9 7 4 2 -1.</_>
                <_>
                  9 7 4 1 2.</_></rects>
              <tilted>1</tilted></feature>
            <threshold>-6.1421152204275131e-03</threshold>
            <left_val>0.6428467035293579</left_val>
            <right_val>-0.2156748026609421</right_val></_></_></trees>
      <stage_threshold>-1.3048169612884521</stage_threshold>
      <parent>0</parent>
      <next>-1</next></_>
    <_>
      <!-- stage 2 -->
      <trees>
        <_>
          <!-- tree 0 -->
          <_>
            <!-- root node -->
            <feature>
              <rects>
                <_>
                  5 8 33 6 -1.</_>
                <_>
                  16 10 11 2 9.</_></rects>
              <tilted>0</tilted></feature>
            <threshold>0.2318015992641449</threshold>
            <left_val>-0.4384069144725800</left_val>
            <right_val>0.8220679759979248</right_val></_></_>
        <_>
          <!-- tree 1 -->
          <_>
            <!-- root node -->
            <feature>
              <rects>
                <_>
                  35 2 6 8 -1.</_>
                <_>
                  37 4 2 8 3.</_></rects>
              <tilted>1</tilted></feature>
            <threshold>-0.0405406318604946</threshold>
            <left_val>0.5585730075836182</left_val>
            <right_val>-0.0375750698149204</right_val></_></_>
        <_>
          <!-- tree 2 -->
          <_>
            <!-- root node -->
            <feature>
              <rects>
                <_>
                  8 2 8 6 -1.</_>
                <_>
                  6 4 8 2 3.</_></rects>
              <tilted>1</tilted></feature>
            <threshold>-0.0396874994039536</threshold>
            <left_val>0.7095922827720642</left_val>
            <right_val>-0.4160056114196777</right_val></_></_>
        <_>
          <!-- tree 3 -->
          <_>
            <!-- root node -->
            <feature>
              <rects>
                <_>
                  32 7 6 12 -1.</_>
                <_>
                  32 13 6 6 2.</_></rects>
              <tilted>0</tilted></feature>
            <threshold>0.0101641695946455</threshold>
            <left_val>-0.3485864996910095</left_val>
            <right_val>0.2484142035245895</right_val></_></_>
        <_>
          <!-- tree 4 -->
          <_>
            <!-- root node -->
            <feature>
              <rects>
                <_>
                  13 8 17 4 -1.</_>
                <_>
                  13 9 17 2 2.</_></rects>
              <tilted>0</tilted></feature>
            <threshold>0.0136975497007370</threshold>
            <left_val>-0.1988555938005447</left_val>
            <right_val>0.7366144061088562</right_val></_></_>
        <_>
          <!-- tree 5 -->
          <_>
            <!-- root node -->
            <feature>
              <rects>
                <_>
                  17 10 11 6 -1.</_>
                <_>
                  17 12 11 2 3.</_></rects>
              <tilted>0</tilted></feature>
            <threshold>0.0232541393488646</threshold>
            <left_val>-0.2209064960479736</left_val>
            <right_val>0.6595479846000671</right_val></_></_>
        <_>
          <!-- tree 6 -->
          <_>
            <!-- root node -->
            <feature>
              <rects>
                <_>
                  5 7 6 12 -1.</_>
                <_>
                  5 13 6 6 2.</_></rects>
              <tilted>0</tilted></feature>
            <threshold>3.3335359767079353e-03</threshold>
            <left_val>-0.6033557057380676</left_val>
            <right_val>0.2438866943120956</right_val></_></_>
        <_>
          <!-- tree 7 -->
          <_>
            <!-- root node -->
            <feature>
              <rects>
                <_>
                  16 4 12 9 -1.</_>
                <_>
                  20 4 4 9 3.</_></rects>
              <tilted>0</tilted></feature>
            <threshold>0.0408669710159302</threshold>
            <left_val>0.1493248939514160</left_val>
            <right_val>-0.7766879200935364</right_val></_></_>
        <_>
          <!-- tree 8 -->
          <_>
            <!-- root node -->
            <feature>
              <rects>
                <_>
                  1 0 26 8 -1.</_>
                <_>
                  1 0 13 4 2.</_>
                <_>
                  14 4 13 4 2.</_></rects>
              <tilted>0</tilted></feature>
            <threshold>0.0155467102304101</threshold>
            <left_val>-0.3408907055854797</left_val>
            <right_val>0.3457956016063690</right_val></_></_>
        <_>
          <!-- tree 9 -->
          <_>
            <!-- root node -->
            <feature>
              <rects>
                <_>
                  16 10 11 3 -1.</_>
                <_>
                  16 11 11 1 3.</_></rects>
              <tilted>0</tilted></feature>
            <threshold>4.7272271476686001e-03</threshold>
            <left_val>-0.1851810067892075</left_val>
            <right_val>0.5293136835098267</right_val></_></_>
        <_>
          <!-- tree 10 -->
          <_>
            <!-- root node -->
            <feature>
              <rects>
                <_>
                  16 7 11 4 -1.</_>
                <_>
                  16 8 11 2 2.</_></rects>
              <tilted>0</tilted></feature>
            <threshold>9.7205229103565216e-03</threshold>
            <left_val>-0.1719793975353241</left_val>
            <right_val>0.7162457108497620</right_val></_></_>
        <_>
          <!-- tree 11 -->
          <_>
            <!-- root node -->
            <feature>
              <rects>
                <_>
                  14 6 18 7 -1.</_>
                <_>
                  20 6 6 7 3.</_></rects>
              <tilted>0</tilted></feature>
            <threshold>-0.0348307192325592</threshold>
            <left_val>-0.8146057724952698</left_val>
            <right_val>0.1621595025062561</right_val></_></_></trees>
      <stage_threshold>-1.3023259639739990</stage_threshold>
      <parent>1</parent>
      <next>-1</next></_>
    <_>
      <!-- stage 3 -->
      <trees>
        <_>
          <!-- tree 0 -->
          <_>
            <!-- root node -->
            <feature>
              <rects>
                <_>
                  5 8 33 6 -1.</_>
                <_>
                  16 10 11 2 9.</_></rects>
              <tilted>0</tilted></feature>
            <threshold>0.2845065891742706</threshold>
            <left_val>-0.3573817014694214</left_val>
            <right_val>0.8707739114761353</right_val></_></_>
        <_>
          <!-- tree 1 -->
          <_>
            <!-- root node -->
            <feature>
              <rects>
                <_>
                  37 0 6 11 -1.</_>
                <_>
                  39 2 2 11 3.</_></rects>
              <tilted>1</tilted></feature>
            <threshold>-0.0614238493144512</threshold>
            <left_val>0.6245074868202209</left_val>
            <right_val>1.6091569559648633e-03</right_val></_></_>
        <_>
          <!-- tree 2 -->
          <_>
            <!-- root node -->
            <feature>
              <rects>
                <_>
                  6 0 11 6 -1.</_>
                <_>
                  4 2 11 2 3.</_></rects>
              <tilted>1</tilted></feature>
            <threshold>-0.0562017112970352</threshold>
            <left_val>0.6991530060768127</left_val>
            <right_val>-0.3317699134349823</right_val></_></_>
        <_>
          <!-- tree 3 -->
          <_>
            <!-- root node -->
            <feature>
              <rects>
                <_>
                  17 0 12 13 -1.</_>
                <_>
                  20 0 6 13 2.</_></rects>
              <tilted>0</tilted></feature>
            <threshold>0.0458449795842171</threshold>
            <left_val>0.0865478366613388</left_val>
            <right_val>-0.7736713290214539</right_val></_></_>
        <_>
          <!-- tree 4 -->
          <_>
            <!-- root node -->
            <feature>
              <rects>
                <_>
                  14 9 15 2 -1.</_>
                <_>
                  14 10 15 1 2.</_></rects>
              <tilted>0</tilted></feature>
            <threshold>9.3845408409833908e-03</threshold>
            <left_val>-0.1461838036775589</left_val>
            <right_val>0.6789842844009399</right_val></_></_>
        <_>
          <!-- tree 5 -->
          <_>
            <!-- root node -->
            <feature>
              <rects>
                <_>
                  14 6 17 6 -1.</_>
                <_>
                  14 8 17 2 3.</_></rects>
              <tilted>0</tilted></feature>
            <threshold>0.0457491204142570</threshold>
            <left_val>-0.1666426956653595</left_val>
            <right_val>0.7731717824935913</right_val></_></_>
        <_>
          <!-- tree 6 -->
          <_>
            <!-- root node -->
            <feature>
              <rects>
                <_>
                  12 0 5 12 -1.</_>
                <_>
                  9 3 5 6 2.</_></rects>
              <tilted>1</tilted></feature>
            <threshold>-0.0310868509113789</threshold>
            <left_val>0.2520202994346619</left_val>
            <right_val>-0.4479633867740631</right_val></_></_>
        <_>
          <!-- tree 7 -->
          <_>
            <!-- root node -->
            <feature>
              <rects>
                <_>
                  18 0 12 14 -1.</_>
                <_>
                  21 0 6 14 2.</_></rects>
              <tilted>0</tilted></feature>
            <threshold>-0.0231109801679850</threshold>
            <left_val>-0.5485625267028809</left_val>
            <right_val>0.1125769019126892</right_val></_></_>
        <_>
          <!-- tree 8 -->
          <_>
            <!-- root node -->
            <feature>
              <rects>
                <_>
                  16 7 11 6 -1.</_>
                <_>
                  16 9 11 2 3.</_></rects>
              <tilted>0</tilted></feature>
            <threshold>-0.0329067595303059</threshold>
            <left_val>0.6350864171981812</left_val>
            <right_val>-0.1521313935518265</right_val></_></_>
        <_>
          <!-- tree 9 -->
          <_>
            <!-- root node -->
            <feature>
              <rects>
                <_>
                  16 8 11 4 -1.</_>
                <_>
                  16 9 11 2 2.</_></rects>
              <tilted>0</tilted></feature>
            <threshold>7.0314188487827778e-03</threshold>
            <left_val>-0.2057970017194748</left_val>
            <right_val>0.5120301246643066</right_val></_></_>
        <_>
          <!-- tree 10 -->
          <_>
            <!-- root node -->
            <feature>
              <rects>
                <_>
                  11 6 16 6 -1.</_>
                <_>
                  15 6 8 6 2.</_></rects>
              <tilted>0</tilted></feature>
            <threshold>-0.0170383099466562</threshold>
            <left_val>-0.8034976720809937</left_val>
            <right_val>0.1295883953571320</right_val></_></_>
        <_>
          <!-- tree 11 -->
          <_>
            <!-- root node -->
            <feature>
              <rects>
                <_>
                  17 0 12 14 -1.</_>
                <_>
                  21 0 4 14 3.</_></rects>
              <tilted>0</tilted></feature>
            <threshold>0.0332007296383381</threshold>
            <left_val>0.0462189912796021</left_val>
            <right_val>-0.2733271121978760</right_val></_></_>
        <_>
          <!-- tree 12 -->
          <_>
            <!-- root node -->
            <feature>
              <rects>
                <_>
                  14 4 12 8 -1.</_>
                <_>
                  18 4 4 8 3.</_></rects>
              <tilted>0</tilted></feature>
            <threshold>0.0394757315516472</threshold>
            <left_val>0.1474343985319138</left_val>
            <right_val>-0.7310941815376282</right_val></_></_>
        <_>
          <!-- tree 13 -->
          <_>
            <!-- root node -->
            <feature>
              <rects>
                <_>
                  37 4 2 8 -1.</_>
                <_>
                  37 4 1 8 2.</_></rects>
              <tilted>1</tilted></feature>
            <threshold>8.9640654623508453e-03</threshold>
            <left_val>-0.1326639056205750</left_val>
            <right_val>0.4107541143894196</right_val></_></_>
        <_>
          <!-- tree 14 -->
          <_>
            <!-- root node -->
            <feature>
              <rects>
                <_>
                  8 6 6 2 -1.</_>
                <_>
                  8 6 6 1 2.</_></rects>
              <tilted>1</tilted></feature>
            <threshold>-8.1346975639462471e-03</threshold>
            <left_val>0.5804123878479004</left_val>
            <right_val>-0.1603769063949585</right_val></_></_></trees>
      <stage_threshold>-1.5380909442901611</stage_threshold>
      <parent>2</parent>
      <next>-1</next></_>
    <_>
      <!-- stage 4 -->
      <trees>
        <_>
          <!-- tree 0 -->
          <_>
            <!-- root node -->
            <feature>
              <rects>
                <_>
                  2 8 39 6 -1.</_>
                <_>
                  15 10 13 2 9.</_></rects>
              <tilted>0</tilted></feature>
            <threshold>0.3029299974441528</threshold>
            <left_val>-0.3751699924468994</left_val>
            <right_val>0.8235793113708496</right_val></_></_>
        <_>
          <!-- tree 1 -->
          <_>
            <!-- root node -->
            <feature>
              <rects>
                <_>
                  37 4 6 6 -1.</_>
                <_>
                  37 4 3 6 2.</_></rects>
              <tilted>1</tilted></feature>
            <threshold>-0.0366225615143776</threshold>
            <left_val>0.4685770869255066</left_val>
            <right_val>-0.0836229026317596</right_val></_></_>
        <_>
          <!-- tree 2 -->
          <_>
            <!-- root node -->
            <feature>
              <rects>
                <_>
                  6 4 5 6 -1.</_>
                <_>
                  6 4 5 3 2.</_></rects>
              <tilted>1</tilted></feature>
            <threshold>-0.0239460896700621</threshold>
            <left_val>0.3980484902858734</left_val>
            <right_val>-0.5195484757423401</right_val></_></_>
        <_>
          <!-- tree 3 -->
          <_>
            <!-- root node -->
            <feature>
              <rects>
                <_>
                  18 0 12 16 -1.</_>
                <_>
                  21 0 6 16 2.</_></rects>
              <tilted>0</tilted></feature>
            <threshold>-0.0204471107572317</threshold>
            <left_val>-0.5294747948646545</left_val>
            <right_val>0.1352639049291611</right_val></_></_>
        <_>
          <!-- tree 4 -->
          <_>
            <!-- root node -->
            <feature>
              <rects>
                <_>
                  7 1 12 6 -1.</_>
                <_>
                  5 3 12 2 3.</_></rects>
              <tilted>1</tilted></feature>
            <threshold>-0.0779595598578453</threshold>
            <left_val>0.6630790233612061</left_val>
            <right_val>-0.1293393969535828</right_val></_></_>
        <_>
          <!-- tree 5 -->
          <_>
            <!-- root node -->
            <feature>
              <rects>
                <_>
                  16 4 15 12 -1.</_>
                <_>
                  21 4 5 12 3.</_></rects>
              <tilted>0</tilted></feature>
            <threshold>-0.0454922094941139</threshold>
            <left_val>-0.4813848137855530</left_val>
            <right_val>0.0460645817220211</right_val></_></_>
        <_>
          <!-- tree 6 -->
          <_>
            <!-- root node -->
            <feature>
              <rects>
                <_>
                  14 0 12 17 -1.</_>
                <_>
                  17 0 6 17 2.</_></rects>
              <tilted>0</tilted></feature>
            <threshold>0.0459103509783745</threshold>
            <left_val>0.1493532061576843</left_val>
            <right_val>-0.6654257178306580</right_val></_></_>
        <_>
          <!-- tree 7 -->
          <_>
            <!-- root node -->
            <feature>
              <rects>
                <_>
                  2 7 39 6 -1.</_>
                <_>
                  15 9 13 2 9.</_></rects>
              <tilted>0</tilted></feature>
            <threshold>0.3809246122837067</threshold>
            <left_val>-0.1276725977659225</left_val>
            <right_val>0.7667840123176575</right_val></_></_>
        <_>
          <!-- tree 8 -->
          <_>
            <!-- root node -->
            <feature>
              <rects>
                <_>
                  10 2 16 12 -1.</_>
                <_>
                  14 2 8 12 2.</_></rects>
              <tilted>0</tilted></feature>
            <threshold>-0.0203453693538904</threshold>
            <left_val>-0.5420144796371460</left_val>
            <right_val>0.1665205955505371</right_val></_></_>
        <_>
          <!-- tree 9 -->
          <_>
            <!-- root node -->
            <feature>
              <rects>
                <_>
                  18 7 7 12 -1.</_>
                <_>
                  18 11 7 4 3.</_></rects>
              <tilted>0</tilted></feature>
            <threshold>0.0519864000380039</threshold>
            <left_val>-0.1784209012985229</left_val>
            <right_val>0.4388701915740967</right_val></_></_>
        <_>
          <!-- tree 10 -->
          <_>
            <!-- root node -->
            <feature>
              <rects>
                <_>
                  15 13 13 2 -1.</_>
                <_>
                  15 14 13 1 2.</_></rects>
              <tilted>0</tilted></feature>
            <threshold>7.5261401943862438e-03</threshold>
            <left_val>-0.1332585960626602</left_val>
            <right_val>0.5217773914337158</right_val></_></_>
        <_>
          <!-- tree 11 -->
          <_>
            <!-- root node -->
            <feature>
              <rects>
                <_>
                  26 2 8 4 -1.</_>
                <_>
                  28 2 4 4 2.</_></rects>
              <tilted>0</tilted></feature>
            <threshold>-4.9973088316619396e-03</threshold>
            <left_val>-0.5126535892486572</left_val>
            <right_val>0.1020750999450684</right_val></_></_>
        <_>
          <!-- tree 12 -->
          <_>
            <!-- root node -->
            <feature>
              <rects>
                <_>
                  9 2 8 4 -1.</_>
                <_>
                  11 2 4 4 2.</_></rects>
              <tilted>0</tilted></feature>
            <threshold>-4.8705609515309334e-03</threshold>
            <left_val>-0.6884298920631409</left_val>
            <right_val>0.0760621279478073</right_val></_></_>
        <_>
          <!-- tree 13 -->
          <_>
            <!-- root node -->
            <feature>
              <rects>
                <_>
                  34 15 1 3 -1.</_>
                <_>
                  33 16 1 1 3.</_></rects>
              <tilted>1</tilted></feature>
            <threshold>-6.5149442525580525e-04</threshold>
            <left_val>-0.4212329089641571</left_val>
            <right_val>0.0576135516166687</right_val></_></_>
        <_>
          <!-- tree 14 -->
          <_>
            <!-- root node -->
            <feature>
              <rects>
                <_>
                  16 11 11 3 -1.</_>
                <_>
                  16 12 11 1 3.</_></rects>
              <tilted>0</tilted></feature>
            <threshold>2.9401991050690413e-03</threshold>
            <left_val>-0.1857476979494095</left_val>
            <right_val>0.3345920145511627</right_val></_></_>
        <_>
          <!-- tree 15 -->
          <_>
            <!-- root node -->
            <feature>
              <rects>
                <_>
                  34 15 1 3 -1.</_>
                <_>
                  33 16 1 1 3.</_></rects>
              <tilted>1</tilted></feature>
            <threshold>1.0935750324279070e-03</threshold>
            <left_val>0.0500781089067459</left_val>
            <right_val>-0.3793505132198334</right_val></_></_>
        <_>
          <!-- tree 16 -->
          <_>
            <!-- root node -->
            <feature>
              <rects>
                <_>
                  9 15 3 1 -1.</_>
                <_>
                  10 16 1 1 3.</_></rects>
              <tilted>1</tilted></feature>
            <threshold>-7.1070098783820868e-04</threshold>
            <left_val>-0.6634662747383118</left_val>
            <right_val>0.0917532369494438</right_val></_></_>
        <_>
          <!-- tree 17 -->
          <_>
            <!-- root node -->
            <feature>
              <rects>
                <_>
                  33 6 4 7 -1.</_>
                <_>
                  33 6 2 7 2.</_></rects>
              <tilted>1</tilted></feature>
            <threshold>0.0129066901281476</threshold>
            <left_val>-0.2080128043889999</left_val>
            <right_val>0.3837794959545135</right_val></_></_>
        <_>
          <!-- tree 18 -->
          <_>
            <!-- root node -->
            <feature>
              <rects>
                <_>
                  17 10 9 4 -1.</_>
                <_>
                  17 11 9 2 2.</_></rects>
              <tilted>0</tilted></feature>
            <threshold>-6.1369980685412884e-03</threshold>
            <left_val>0.4096558988094330</left_val>
            <right_val>-0.1508526057004929</right_val></_></_>
        <_>
          <!-- tree 19 -->
          <_>
            <!-- root node -->
            <feature>
              <rects>
                <_>
                  30 17 9 2 -1.</_>
                <_>
                  30 18 9 1 2.</_></rects>
              <tilted>0</tilted></feature>
            <threshold>-6.3546112505719066e-04</threshold>
            <left_val>-0.2211477011442184</left_val>
            <right_val>0.1035903990268707</right_val></_></_></trees>
      <stage_threshold>-1.3895950317382812</stage_threshold>
      <parent>3</parent>
      <next>-1</next></_>
    <_>
      <!-- stage 5 -->
      <trees>
        <_>
          <!-- tree 0 -->
          <_>
            <!-- root node -->
            <feature>
              <rects>
                <_>
                  15 6 13 6 -1.</_>
                <_>
                  15 9 13 3 2.</_></rects>
              <tilted>0</tilted></feature>
            <threshold>0.0321124084293842</threshold>
            <left_val>-0.4107058942317963</left_val>
            <right_val>0.7001519203186035</right_val></_></_>
        <_>
          <!-- tree 1 -->
          <_>
            <!-- root node -->
            <feature>
              <rects>
                <_>
                  36 0 7 18 -1.</_>
                <_>
                  36 9 7 9 2.</_></rects>
              <tilted>0</tilted></feature>
            <threshold>4.0334449149668217e-03</threshold>
            <left_val>-0.2540200948715210</left_val>
            <right_val>0.3468120098114014</right_val></_></_>
        <_>
          <!-- tree 2 -->
          <_>
            <!-- root node -->
            <feature>
              <rects>
                <_>
                  0 0 7 18 -1.</_>
                <_>
                  0 9 7 9 2.</_></rects>
              <tilted>0</tilted></feature>
            <threshold>1.7317140009254217e-03</threshold>
            <left_val>-0.5341184139251709</left_val>
            <right_val>0.3484477102756500</right_val></_></_>
        <_>
          <!-- tree 3 -->
          <_>
            <!-- root node -->
            <feature>
              <rects>
                <_>
                  8 6 27 6 -1.</_>
                <_>
                  17 6 9 6 3.</_></rects>
              <tilted>0</tilted></feature>
            <threshold>0.0246828906238079</threshold>
            <left_val>-0.5694891810417175</left_val>
            <right_val>0.2048867046833038</right_val></_></_>
        <_>
          <!-- tree 4 -->
          <_>
            <!-- root node -->
            <feature>
              <rects>
                <_>
                  10 0 15 19 -1.</_>
                <_>
                  15 0 5 19 3.</_></rects>
              <tilted>0</tilted></feature>
            <threshold>0.0990636274218559</threshold>
            <left_val>0.1827356964349747</left_val>
            <right_val>-0.6912252902984619</right_val></_></_>
        <_>
          <!-- tree 5 -->
          <_>
            <!-- root node -->
            <feature>
              <rects>
                <_>
                  21 0 19 2 -1.</_>
                <_>
                  21 1 19 1 2.</_></rects>
              <tilted>0</tilted></feature>
            <threshold>9.4982498558238149e-04</threshold>
            <left_val>-0.2728902995586395</left_val>
            <right_val>0.2417712062597275</right_val></_></_>
        <_>
          <!-- tree 6 -->
          <_>
            <!-- root node -->
            <feature>
              <rects>
                <_>
                  10 14 3 2 -1.</_>
                <_>
                  11 15 1 2 3.</_></rects>
              <tilted>1</tilted></feature>
            <threshold>1.0980080114677548e-03</threshold>
            <left_val>0.0901729986071587</left_val>
            <right_val>-0.5900639891624451</right_val></_></_>
        <_>
          <!-- tree 7 -->
          <_>
            <!-- root node -->
            <feature>
              <rects>
                <_>
                  11 10 28 8 -1.</_>
                <_>
                  25 10 14 4 2.</_>
                <_>
                  11 14 14 4 2.</_></rects>
              <tilted>0</tilted></feature>
            <threshold>0.0388227887451649</threshold>
            <left_val>0.1029969006776810</left_val>
            <right_val>-0.3426043987274170</right_val></_></_>
        <_>
          <!-- tree 8 -->
          <_>
            <!-- root node -->
            <feature>
              <rects>
                <_>
                  4 10 28 8 -1.</_>
                <_>
                  4 10 14 4 2.</_>
                <_>
                  18 14 14 4 2.</_></rects>
              <tilted>0</tilted></feature>
            <threshold>-0.0721361413598061</threshold>
            <left_val>0.5503960251808167</left_val>
            <right_val>-0.1408420950174332</right_val></_></_>
        <_>
          <!-- tree 9 -->
          <_>
            <!-- root node -->
            <feature>
              <rects>
                <_>
                  35 6 4 7 -1.</_>
                <_>
                  35 6 2 7 2.</_></rects>
              <tilted>1</tilted></feature>
            <threshold>0.0204176492989063</threshold>
            <left_val>-0.1076219007372856</left_val>
            <right_val>0.5423762798309326</right_val></_></_>
        <_>
          <!-- tree 10 -->
          <_>
            <!-- root node -->
            <feature>
              <rects>
                <_>
                  10 6 5 6 -1.</_>
                <_>
                  10 6 5 3 2.</_></rects>
              <tilted>1</tilted></feature>
            <threshold>-0.0354228205978870</threshold>
            <left_val>0.3065913021564484</left_val>
            <right_val>-0.2384793013334274</right_val></_></_>
        <_>
          <!-- tree 11 -->
          <_>
            <!-- root node -->
            <feature>
              <rects>
                <_>
                  24 0 18 3 -1.</_>
                <_>
                  24 1 18 1 3.</_></rects>
              <tilted>0</tilted></feature>
            <threshold>4.8521440476179123e-03</threshold>
            <left_val>0.0234851595014334</left_val>
            <right_val>-0.3515430986881256</right_val></_></_>
        <_>
          <!-- tree 12 -->
          <_>
            <!-- root node -->
            <feature>
              <rects>
                <_>
                  1 0 18 3 -1.</_>
                <_>
                  1 1 18 1 3.</_></rects>
              <tilted>0</tilted></feature>
            <threshold>-3.1012638937681913e-03</threshold>
            <left_val>-0.5557563900947571</left_val>
            <right_val>0.1175670027732849</right_val></_></_>
        <_>
          <!-- tree 13 -->
          <_>
            <!-- root node -->
            <feature>
              <rects>
                <_>
                  41 9 2 10 -1.</_>
                <_>
                  41 14 2 5 2.</_></rects>
              <tilted>0</tilted></feature>
            <threshold>-7.1385853516403586e-05</threshold>
            <left_val>-0.1697729974985123</left_val>
            <right_val>0.1256262958049774</right_val></_></_>
        <_>
          <!-- tree 14 -->
          <_>
            <!-- root node -->
            <feature>
              <rects>
                <_>
                  0 9 2 10 -1.</_>
                <_>
                  0 14 2 5 2.</_></rects>
              <tilted>0</tilted></feature>
            <threshold>8.6713489145040512e-03</threshold>
            <left_val>0.1215130984783173</left_val>
            <right_val>-0.6419860720634460</right_val></_></_>
        <_>
          <!-- tree 15 -->
          <_>
            <!-- root node -->
            <feature>
              <rects>
                <_>
                  2 6 39 6 -1.</_>
                <_>
                  15 8 13 2 9.</_></rects>
              <tilted>0</tilted></feature>
            <threshold>0.3638280034065247</threshold>
            <left_val>-0.1003391966223717</left_val>
            <right_val>0.6895868182182312</right_val></_></_>
        <_>
          <!-- tree 16 -->
          <_>
            <!-- root node -->
            <feature>
              <rects>
                <_>
                  18 8 7 3 -1.</_>
                <_>
                  18 9 7 1 3.</_></rects>
              <tilted>0</tilted></feature>
            <threshold>-1.9113699672743678e-03</threshold>
            <left_val>0.3390313982963562</left_val>
            <right_val>-0.1847895979881287</right_val></_></_>
        <_>
          <!-- tree 17 -->
          <_>
            <!-- root node -->
            <feature>
              <rects>
                <_>
                  17 17 9 2 -1.</_>
                <_>
                  17 18 9 1 2.</_></rects>
              <tilted>0</tilted></feature>
            <threshold>-1.0424409992992878e-03</threshold>
            <left_val>0.3085762858390808</left_val>
            <right_val>-0.1778704971075058</right_val></_></_>
        <_>
          <!-- tree 18 -->
          <_>
            <!-- root node -->
            <feature>
              <rects>
                <_>
                  11 0 3 2 -1.</_>
                <_>
                  12 0 1 2 3.</_></rects>
              <tilted>0</tilted></feature>
            <threshold>-5.7899788953363895e-04</threshold>
            <left_val>-0.6065871715545654</left_val>
            <right_val>0.0970179885625839</right_val></_></_>
        <_>
          <!-- tree 19 -->
          <_>
            <!-- root node -->
            <feature>
              <rects>
                <_>
                  29 0 3 3 -1.</_>
                <_>
                  30 1 1 1 9.</_></rects>
              <tilted>0</tilted></feature>
            <threshold>1.0084019741043448e-03</threshold>
            <left_val>0.0506861209869385</left_val>
            <right_val>-0.2226334959268570</right_val></_></_>
        <_>
          <!-- tree 20 -->
          <_>
            <!-- root node -->
            <feature>
              <rects>
                <_>
                  11 0 3 3 -1.</_>
                <_>
                  12 1 1 1 9.</_></rects>
              <tilted>0</tilted></feature>
            <threshold>1.5549409436061978e-03</threshold>
            <left_val>0.1162519007921219</left_val>
            <right_val>-0.4988329112529755</right_val></_></_></trees>
      <stage_threshold>-1.5582109689712524</stage_threshold>
      <parent>4</parent>
      <next>-1</next></_>
    <_>
      <!-- stage 6 -->
      <trees>
        <_>
          <!-- tree 0 -->
          <_>
            <!-- root node -->
            <feature>
              <rects>
                <_>
                  5 8 33 6 -1.</_>
                <_>
                  16 10 11 2 9.</_></rects>
              <tilted>0</tilted></feature>
            <threshold>0.2466886043548584</threshold>
            <left_val>-0.4016312956809998</left_val>
            <right_val>0.6968246102333069</right_val></_></_>
        <_>
          <!-- tree 1 -->
          <_>
            <!-- root node -->
            <feature>
              <rects>
                <_>
                  37 3 6 10 -1.</_>
                <_>
                  37 3 3 10 2.</_></rects>
              <tilted>1</tilted></feature>
            <threshold>-0.0373927392065525</threshold>
            <left_val>0.3021827936172485</left_val>
            <right_val>-0.0589985512197018</right_val></_></_>
        <_>
          <!-- tree 2 -->
          <_>
            <!-- root node -->
            <feature>
              <rects>
                <_>
                  4 3 12 4 -1.</_>
                <_>
                  4 3 12 2 2.</_></rects>
              <tilted>1</tilted></feature>
            <threshold>-0.0387616902589798</threshold>
            <left_val>0.4376339912414551</left_val>
            <right_val>-0.3350063860416412</right_val></_></_>
        <_>
          <!-- tree 3 -->
          <_>
            <!-- root node -->
            <feature>
              <rects>
                <_>
                  30 17 9 2 -1.</_>
                <_>
                  30 18 9 1 2.</_></rects>
              <tilted>0</tilted></feature>
            <threshold>6.2034996517468244e-05</threshold>
            <left_val>-0.2445410043001175</left_val>
            <right_val>0.2090321928262711</right_val></_></_>
        <_>
          <!-- tree 4 -->
          <_>
            <!-- root node -->
            <feature>
              <rects>
                <_>
                  5 17 7 2 -1.</_>
                <_>
                  5 18 7 1 2.</_></rects>
              <tilted>0</tilted></feature>
            <threshold>-1.4726769877597690e-03</threshold>
            <left_val>-0.8061178922653198</left_val>
            <right_val>0.1419321000576019</right_val></_></_>
        <_>
          <!-- tree 5 -->
          <_>
            <!-- root node -->
            <feature>
              <rects>
                <_>
                  15 7 15 11 -1.</_>
                <_>
                  20 7 5 11 3.</_></rects>
              <tilted>0</tilted></feature>
            <threshold>-0.0181905906647444</threshold>
            <left_val>-0.5409728884696960</left_val>
            <right_val>0.1145842000842094</right_val></_></_>
        <_>
          <!-- tree 6 -->
          <_>
            <!-- root node -->
            <feature>
              <rects>
                <_>
                  0 0 4 14 -1.</_>
                <_>
                  0 7 4 7 2.</_></rects>
              <tilted>0</tilted></feature>
            <threshold>-9.0589486062526703e-03</threshold>
            <left_val>-0.5006834864616394</left_val>
            <right_val>0.1761644035577774</right_val></_></_>
        <_>
          <!-- tree 7 -->
          <_>
            <!-- root node -->
            <feature>
              <rects>
                <_>
                  22 0 11 8 -1.</_>
                <_>
                  20 2 11 4 2.</_></rects>
              <tilted>1</tilted></feature>
            <threshold>-0.0380385182797909</threshold>
            <left_val>-0.5676143765449524</left_val>
            <right_val>0.0312164202332497</right_val></_></_>
        <_>
          <!-- tree 8 -->
          <_>
            <!-- root node -->
            <feature>
              <rects>
                <_>
                  16 3 10 14 -1.</_>
                <_>
                  16 3 5 7 2.</_>
                <_>
                  21 10 5 7 2.</_></rects>
              <tilted>0</tilted></feature>
            <threshold>0.0285177007317543</threshold>
            <left_val>0.1469517052173615</left_val>
            <right_val>-0.6158679127693176</right_val></_></_>
        <_>
          <!-- tree 9 -->
          <_>
            <!-- root node -->
            <feature>
              <rects>
                <_>
                  17 6 16 5 -1.</_>
                <_>
                  21 6 8 5 2.</_></rects>
              <tilted>0</tilted></feature>
            <threshold>-0.0110893901437521</threshold>
            <left_val>-0.4647183120250702</left_val>
            <right_val>0.0770467892289162</right_val></_></_>
        <_>
          <!-- tree 10 -->
          <_>
            <!-- root node -->
            <feature>
              <rects>
                <_>
                  10 6 16 5 -1.</_>
                <_>
                  14 6 8 5 2.</_></rects>
              <tilted>0</tilted></feature>
            <threshold>-0.0120004499331117</threshold>
            <left_val>-0.7403507828712463</left_val>
            <right_val>0.1241920962929726</right_val></_></_>
        <_>
          <!-- tree 11 -->
          <_>
            <!-- root node -->
            <feature>
              <rects>
                <_>
                  18 11 7 3 -1.</_>
                <_>
                  18 12 7 1 3.</_></rects>
              <tilted>0</tilted></feature>
            <threshold>2.5396989658474922e-03</threshold>
            <left_val>-0.2345353066921234</left_val>
            <right_val>0.4047873914241791</right_val></_></_>
        <_>
          <!-- tree 12 -->
          <_>
            <!-- root node -->
            <feature>
              <rects>
                <_>
                  14 13 15 4 -1.</_>
                <_>
                  14 14 15 2 2.</_></rects>
              <tilted>0</tilted></feature>
            <threshold>7.8065982088446617e-03</threshold>
            <left_val>-0.1846054941415787</left_val>
            <right_val>0.5718330144882202</right_val></_></_>
        <_>
          <!-- tree 13 -->
          <_>
            <!-- root node -->
            <feature>
              <rects>
                <_>
                  34 15 5 4 -1.</_>
                <_>
                  34 16 5 2 2.</_></rects>
              <tilted>0</tilted></feature>
            <threshold>4.4697249541059136e-04</threshold>
            <left_val>-0.1342408955097198</left_val>
            <right_val>0.2230416983366013</right_val></_></_>
        <_>
          <!-- tree 14 -->
          <_>
            <!-- root node -->
            <feature>
              <rects>
                <_>
                  4 15 5 4 -1.</_>
                <_>
                  4 16 5 2 2.</_></rects>
              <tilted>0</tilted></feature>
            <threshold>-1.2587129604071379e-03</threshold>
            <left_val>-0.7669860124588013</left_val>
            <right_val>0.1102453991770744</right_val></_></_>
        <_>
          <!-- tree 15 -->
          <_>
            <!-- root node -->
            <feature>
              <rects>
                <_>
                  12 7 19 6 -1.</_>
                <_>
                  12 9 19 2 3.</_></rects>
              <tilted>0</tilted></feature>
            <threshold>0.0627553910017014</threshold>
            <left_val>-0.1685781031847000</left_val>
            <right_val>0.5414003729820251</right_val></_></_>
        <_>
          <!-- tree 16 -->
          <_>
            <!-- root node -->
            <feature>
              <rects>
                <_>
                  1 15 6 4 -1.</_>
                <_>
                  1 16 6 2 2.</_></rects>
              <tilted>0</tilted></feature>
            <threshold>1.3027390232309699e-03</threshold>
            <left_val>0.1293562948703766</left_val>
            <right_val>-0.5773475766181946</right_val></_></_>
        <_>
          <!-- tree 17 -->
          <_>
            <!-- root node -->
            <feature>
              <rects>
                <_>
                  35 6 2 10 -1.</_>
                <_>
                  35 6 1 10 2.</_></rects>
              <tilted>1</tilted></feature>
            <threshold>2.7940999716520309e-03</threshold>
            <left_val>-0.2283975034952164</left_val>
            <right_val>0.2616130113601685</right_val></_></_>
        <_>
          <!-- tree 18 -->
          <_>
            <!-- root node -->
            <feature>
              <rects>
                <_>
                  9 7 9 2 -1.</_>
                <_>
                  9 7 9 1 2.</_></rects>
              <tilted>1</tilted></feature>
            <threshold>-0.0124971801415086</threshold>
            <left_val>0.6074684858322144</left_val>
            <right_val>-0.1268918961286545</right_val></_></_></trees>
      <stage_threshold>-1.4657499790191650</stage_threshold>
      <parent>5</parent>
      <next>-1</next></_>
    <_>
      <!-- stage 7 -->
      <trees>
        <_>
          <!-- tree 0 -->
          <_>
            <!-- root node -->
            <feature>
              <rects>
                <_>
                  13 8 17 6 -1.</_>
                <_>
                  13 10 17 2 3.</_></rects>
              <tilted>0</tilted></feature>
            <threshold>0.0394356697797775</threshold>
            <left_val>-0.3988372981548309</left_val>
            <right_val>0.6437643766403198</right_val></_></_>
        <_>
          <!-- tree 1 -->
          <_>
            <!-- root node -->
            <feature>
              <rects>
                <_>
                  24 0 6 8 -1.</_>
                <_>
                  22 2 6 4 2.</_></rects>
              <tilted>1</tilted></feature>
            <threshold>-0.0378593802452087</threshold>
            <left_val>-0.2594870030879974</left_val>
            <right_val>0.0547801591455936</right_val></_></_>
        <_>
          <!-- tree 2 -->
          <_>
            <!-- root node -->
            <feature>
              <rects>
                <_>
                  19 0 8 7 -1.</_>
                <_>
                  21 2 4 7 2.</_></rects>
              <tilted>1</tilted></feature>
            <threshold>-0.0359853208065033</threshold>
            <left_val>-0.6960970759391785</left_val>
            <right_val>0.2132187038660049</right_val></_></_>
        <_>
          <!-- tree 3 -->
          <_>
            <!-- root node -->
            <feature>
              <rects>
                <_>
                  32 9 6 4 -1.</_>
                <_>
                  32 9 3 4 2.</_></rects>
              <tilted>1</tilted></feature>
            <threshold>-0.0178440697491169</threshold>
            <left_val>0.3481900990009308</left_val>
            <right_val>-0.2236095070838928</right_val></_></_>
        <_>
          <!-- tree 4 -->
          <_>
            <!-- root node -->
            <feature>
              <rects>
                <_>
                  13 4 6 9 -1.</_>
                <_>
                  10 7 6 3 3.</_></rects>
              <tilted>1</tilted></feature>
            <threshold>-0.0561449415981770</threshold>
            <left_val>0.3945978879928589</left_val>
            <right_val>-0.3196823894977570</right_val></_></_>
        <_>
          <!-- tree 5 -->
          <_>
            <!-- root node -->
            <feature>
              <rects>
                <_>
                  5 8 33 9 -1.</_>
                <_>
                  16 11 11 3 9.</_></rects>
              <tilted>0</tilted></feature>
            <threshold>0.4580529034137726</threshold>
            <left_val>-0.1524271070957184</left_val>
            <right_val>0.7171521186828613</right_val></_></_>
        <_>
          <!-- tree 6 -->
          <_>
            <!-- root node -->
            <feature>
              <rects>
                <_>
                  0 0 9 18 -1.</_>
                <_>
                  0 9 9 9 2.</_></rects>
              <tilted>0</tilted></feature>
            <threshold>6.6318840254098177e-05</threshold>
            <left_val>-0.4553473889827728</left_val>
            <right_val>0.2484577000141144</right_val></_></_>
        <_>
          <!-- tree 7 -->
          <_>
            <!-- root node -->
            <feature>
              <rects>
                <_>
                  12 7 19 4 -1.</_>
                <_>
                  12 8 19 2 2.</_></rects>
              <tilted>0</tilted></feature>
            <threshold>0.0177092608064413</threshold>
            <left_val>-0.1353013068437576</left_val>
            <right_val>0.7144790887832642</right_val></_></_>
        <_>
          <!-- tree 8 -->
          <_>
            <!-- root node -->
            <feature>
              <rects>
                <_>
                  3 10 4 3 -1.</_>
                <_>
                  4 11 2 3 2.</_></rects>
              <tilted>1</tilted></feature>
            <threshold>2.6249289512634277e-03</threshold>
            <left_val>0.1530836969614029</left_val>
            <right_val>-0.6113408803939819</right_val></_></_>
        <_>
          <!-- tree 9 -->
          <_>
            <!-- root node -->
            <feature>
              <rects>
                <_>
                  12 0 19 9 -1.</_>
                <_>
                  12 3 19 3 3.</_></rects>
              <tilted>0</tilted></feature>
            <threshold>0.0591425597667694</threshold>
            <left_val>-0.2068417966365814</left_val>
            <right_val>0.3783926069736481</right_val></_></_>
        <_>
          <!-- tree 10 -->
          <_>
            <!-- root node -->
            <feature>
              <rects>
                <_>
                  0 7 42 12 -1.</_>
                <_>
                  0 7 21 6 2.</_>
                <_>
                  21 13 21 6 2.</_></rects>
              <tilted>0</tilted></feature>
            <threshold>-0.1204907000064850</threshold>
            <left_val>-0.5477461814880371</left_val>
            <right_val>0.1411949992179871</right_val></_></_>
        <_>
          <!-- tree 11 -->
          <_>
            <!-- root node -->
            <feature>
              <rects>
                <_>
                  35 0 2 2 -1.</_>
                <_>
                  35 0 1 2 2.</_></rects>
              <tilted>1</tilted></feature>
            <threshold>1.1945130536332726e-03</threshold>
            <left_val>0.0225430801510811</left_val>
            <right_val>-0.1525563001632690</right_val></_></_>
        <_>
          <!-- tree 12 -->
          <_>
            <!-- root node -->
            <feature>
              <rects>
                <_>
                  8 0 2 2 -1.</_>
                <_>
                  8 0 2 1 2.</_></rects>
              <tilted>1</tilted></feature>
            <threshold>-9.5648347632959485e-04</threshold>
            <left_val>-0.6764963865280151</left_val>
            <right_val>0.1141948997974396</right_val></_></_>
        <_>
          <!-- tree 13 -->
          <_>
            <!-- root node -->
            <feature>
              <rects>
                <_>
                  9 5 26 14 -1.</_>
                <_>
                  22 5 13 7 2.</_>
                <_>
                  9 12 13 7 2.</_></rects>
              <tilted>0</tilted></feature>
            <threshold>-0.0751067325472832</threshold>
            <left_val>-0.6357296109199524</left_val>
            <right_val>0.1020127013325691</right_val></_></_>
        <_>
          <!-- tree 14 -->
          <_>
            <!-- root node -->
            <feature>
              <rects>
                <_>
                  3 17 10 2 -1.</_>
                <_>
                  3 18 10 1 2.</_></rects>
              <tilted>0</tilted></feature>
            <threshold>-2.6893399190157652e-03</threshold>
            <left_val>-0.8803526759147644</left_val>
            <right_val>0.0663397386670113</right_val></_></_>
        <_>
          <!-- tree 15 -->
          <_>
            <!-- root node -->
            <feature>
              <rects>
                <_>
                  33 11 9 8 -1.</_>
                <_>
                  33 13 9 4 2.</_></rects>
              <tilted>0</tilted></feature>
            <threshold>6.9791842252016068e-03</threshold>
            <left_val>-0.2301899939775467</left_val>
            <right_val>0.4241054058074951</right_val></_></_>
        <_>
          <!-- tree 16 -->
          <_>
            <!-- root node -->
            <feature>
              <rects>
                <_>
                  2 11 6 8 -1.</_>
                <_>
                  2 13 6 4 2.</_></rects>
              <tilted>0</tilted></feature>
            <threshold>-2.7828479651361704e-03</threshold>
            <left_val>-0.5924388766288757</left_val>
            <right_val>0.1455413997173309</right_val></_></_></trees>
      <stage_threshold>-1.3519190549850464</stage_threshold>
      <parent>6</parent>
      <next>-1</next></_>
    <_>
      <!-- stage 8 -->
      <trees>
        <_>
          <!-- tree 0 -->
          <_>
            <!-- root node -->
            <feature>
              <rects>
                <_>
                  13 9 17 4 -1.</_>
                <_>
                  13 10 17 2 2.</_></rects>
              <tilted>0</tilted></feature>
            <threshold>0.0132822096347809</threshold>
            <left_val>-0.3798727095127106</left_val>
            <right_val>0.6331940293312073</right_val></_></_>
        <_>
          <!-- tree 1 -->
          <_>
            <!-- root node -->
            <feature>
              <rects>
                <_>
                  36 5 6 8 -1.</_>
                <_>
                  36 5 3 8 2.</_></rects>
              <tilted>1</tilted></feature>
            <threshold>-0.0690616965293884</threshold>
            <left_val>0.4838098883628845</left_val>
            <right_val>-0.0572325997054577</right_val></_></_>
        <_>
          <!-- tree 2 -->
          <_>
            <!-- root node -->
            <feature>
              <rects>
                <_>
                  7 5 8 6 -1.</_>
                <_>
                  7 5 8 3 2.</_></rects>
              <tilted>1</tilted></feature>
            <threshold>-0.0343239307403564</threshold>
            <left_val>0.2502172887325287</left_val>
            <right_val>-0.5179377198219299</right_val></_></_>
        <_>
          <!-- tree 3 -->
          <_>
            <!-- root node -->
            <feature>
              <rects>
                <_>
                  4 7 36 6 -1.</_>
                <_>
                  16 9 12 2 9.</_></rects>
              <tilted>0</tilted></feature>
            <threshold>0.3553290069103241</threshold>
            <left_val>-0.1656965017318726</left_val>
            <right_val>0.7649812102317810</right_val></_></_>
        <_>
          <!-- tree 4 -->
          <_>
            <!-- root node -->
            <feature>
              <rects>
                <_>
                  17 11 9 4 -1.</_>
                <_>
                  17 12 9 2 2.</_></rects>
              <tilted>0</tilted></feature>
            <threshold>9.1374740004539490e-03</threshold>
            <left_val>-0.1527341008186340</left_val>
            <right_val>0.7295805215835571</right_val></_></_>
        <_>
          <!-- tree 5 -->
          <_>
            <!-- root node -->
            <feature>
              <rects>
                <_>
                  17 2 18 8 -1.</_>
                <_>
                  23 2 6 8 3.</_></rects>
              <tilted>0</tilted></feature>
            <threshold>0.0684836506843567</threshold>
            <left_val>0.1031923964619637</left_val>
            <right_val>-0.5226094722747803</right_val></_></_>
        <_>
          <!-- tree 6 -->
          <_>
            <!-- root node -->
            <feature>
              <rects>
                <_>
                  10 2 12 10 -1.</_>
                <_>
                  14 2 4 10 3.</_></rects>
              <tilted>0</tilted></feature>
            <threshold>-0.0210612006485462</threshold>
            <left_val>-0.6683000922203064</left_val>
            <right_val>0.1361804008483887</right_val></_></_>
        <_>
          <!-- tree 7 -->
          <_>
            <!-- root node -->
            <feature>
              <rects>
                <_>
                  19 13 6 4 -1.</_>
                <_>
                  19 14 6 2 2.</_></rects>
              <tilted>0</tilted></feature>
            <threshold>3.3174250274896622e-03</threshold>
            <left_val>-0.1562080979347229</left_val>
            <right_val>0.5688045024871826</right_val></_></_>
        <_>
          <!-- tree 8 -->
          <_>
            <!-- root node -->
            <feature>
              <rects>
                <_>
                  15 10 13 4 -1.</_>
                <_>
                  15 11 13 2 2.</_></rects>
              <tilted>0</tilted></feature>
            <threshold>0.0122340302914381</threshold>
            <left_val>-0.1675173938274384</left_val>
            <right_val>0.5056436061859131</right_val></_></_>
        <_>
          <!-- tree 9 -->
          <_>
            <!-- root node -->
            <feature>
              <rects>
                <_>
                  21 8 10 3 -1.</_>
                <_>
                  21 9 10 1 3.</_></rects>
              <tilted>0</tilted></feature>
            <threshold>6.7860200069844723e-03</threshold>
            <left_val>-0.1268126964569092</left_val>
            <right_val>0.6384838223457336</right_val></_></_>
        <_>
          <!-- tree 10 -->
          <_>
            <!-- root node -->
            <feature>
              <rects>
                <_>
                  0 13 9 6 -1.</_>
                <_>
                  0 15 9 2 3.</_></rects>
              <tilted>0</tilted></feature>
            <threshold>-3.9401091635227203e-03</threshold>
            <left_val>-0.6889660954475403</left_val>
            <right_val>0.1411409974098206</right_val></_></_>
        <_>
          <!-- tree 11 -->
          <_>
            <!-- root node -->
            <feature>
              <rects>
                <_>
                  13 1 19 8 -1.</_>
                <_>
                  13 3 19 4 2.</_></rects>
              <tilted>0</tilted></feature>
            <threshold>0.0342397205531597</threshold>
            <left_val>-0.2249823063611984</left_val>
            <right_val>0.4100728929042816</right_val></_></_>
        <_>
          <!-- tree 12 -->
          <_>
            <!-- root node -->
            <feature>
              <rects>
                <_>
                  5 6 33 4 -1.</_>
                <_>
                  16 6 11 4 3.</_></rects>
              <tilted>0</tilted></feature>
            <threshold>-1.1048070155084133e-03</threshold>
            <left_val>-0.5845249891281128</left_val>
            <right_val>0.1869916021823883</right_val></_></_>
        <_>
          <!-- tree 13 -->
          <_>
            <!-- root node -->
            <feature>
              <rects>
                <_>
                  36 13 6 4 -1.</_>
                <_>
                  36 14 6 2 2.</_></rects>
              <tilted>0</tilted></feature>
            <threshold>9.4466347945854068e-04</threshold>
            <left_val>-0.1344514936208725</left_val>
            <right_val>0.2328906953334808</right_val></_></_>
        <_>
          <!-- tree 14 -->
          <_>
            <!-- root node -->
            <feature>
              <rects>
                <_>
                  1 13 6 4 -1.</_>
                <_>
                  1 14 6 2 2.</_></rects>
              <tilted>0</tilted></feature>
            <threshold>1.3838079757988453e-03</threshold>
            <left_val>0.1510452926158905</left_val>
            <right_val>-0.6269472241401672</right_val></_></_>
        <_>
          <!-- tree 15 -->
          <_>
            <!-- root node -->
            <feature>
              <rects>
                <_>
                  20 7 9 2 -1.</_>
                <_>
                  20 8 9 1 2.</_></rects>
              <tilted>0</tilted></feature>
            <threshold>6.0654678381979465e-03</threshold>
            <left_val>-0.1190344989299774</left_val>
            <right_val>0.4245395958423615</right_val></_></_>
        <_>
          <!-- tree 16 -->
          <_>
            <!-- root node -->
            <feature>
              <rects>
                <_>
                  5 0 13 2 -1.</_>
                <_>
                  5 1 13 1 2.</_></rects>
              <tilted>0</tilted></feature>
            <threshold>-3.4317671088501811e-04</threshold>
            <left_val>-0.2887721955776215</left_val>
            <right_val>0.2670406103134155</right_val></_></_>
        <_>
          <!-- tree 17 -->
          <_>
            <!-- root node -->
            <feature>
              <rects>
                <_>
                  34 8 2 2 -1.</_>
                <_>
                  34 8 1 2 2.</_></rects>
              <tilted>1</tilted></feature>
            <threshold>2.6661599986255169e-03</threshold>
            <left_val>-0.1279460042715073</left_val>
            <right_val>0.4701229929924011</right_val></_></_>
        <_>
          <!-- tree 18 -->
          <_>
            <!-- root node -->
            <feature>
              <rects>
                <_>
                  9 8 2 2 -1.</_>
                <_>
                  9 8 2 1 2.</_></rects>
              <tilted>1</tilted></feature>
            <threshold>-2.6805719826370478e-03</threshold>
            <left_val>0.4063096940517426</left_val>
            <right_val>-0.1933849006891251</right_val></_></_>
        <_>
          <!-- tree 19 -->
          <_>
            <!-- root node -->
            <feature>
              <rects>
                <_>
                  27 7 5 4 -1.</_>
                <_>
                  27 8 5 2 2.</_></rects>
              <tilted>0</tilted></feature>
            <threshold>-2.8802410233765841e-03</threshold>
            <left_val>0.3860555887222290</left_val>
            <right_val>-0.1738387942314148</right_val></_></_>
        <_>
          <!-- tree 20 -->
          <_>
            <!-- root node -->
            <feature>
              <rects>
                <_>
                  10 7 7 4 -1.</_>
                <_>
                  10 8 7 2 2.</_></rects>
              <tilted>0</tilted></feature>
            <threshold>2.8332530055195093e-03</threshold>
            <left_val>-0.1857233047485352</left_val>
            <right_val>0.5168117880821228</right_val></_></_>
        <_>
          <!-- tree 21 -->
          <_>
            <!-- root node -->
            <feature>
              <rects>
                <_>
                  20 6 8 13 -1.</_>
                <_>
                  22 6 4 13 2.</_></rects>
              <tilted>0</tilted></feature>
            <threshold>0.0242888499051332</threshold>
            <left_val>0.0488577000796795</left_val>
            <right_val>-0.5650635957717896</right_val></_></_></trees>
      <stage_threshold>-1.5892230272293091</stage_threshold>
      <parent>7</parent>
      <next>-1</next></_>
    <_>
      <!-- stage 9 -->
      <trees>
        <_>
          <!-- tree 0 -->
          <_>
            <!-- root node -->
            <feature>
              <rects>
                <_>
                  5 8 33 6 -1.</_>
                <_>
                  16 10 11 2 9.</_></rects>
              <tilted>0</tilted></feature>
            <threshold>0.2871620953083038</threshold>
            <left_val>-0.3212588131427765</left_val>
            <right_val>0.6214751005172729</right_val></_></_>
        <_>
          <!-- tree 1 -->
          <_>
            <!-- root node -->
            <feature>
              <rects>
                <_>
                  37 0 6 10 -1.</_>
                <_>
                  39 2 2 10 3.</_></rects>
              <tilted>1</tilted></feature>
            <threshold>-0.0644909664988518</threshold>
            <left_val>0.5302656888961792</left_val>
            <right_val>-0.0285452101379633</right_val></_></_>
        <_>
          <!-- tree 2 -->
          <_>
            <!-- root node -->
            <feature>
              <rects>
                <_>
                  6 0 12 6 -1.</_>
                <_>
                  4 2 12 2 3.</_></rects>
              <tilted>1</tilted></feature>
            <threshold>-0.0704957097768784</threshold>
            <left_val>0.4687198102474213</left_val>
            <right_val>-0.2264934033155441</right_val></_></_>
        <_>
          <!-- tree 3 -->
          <_>
            <!-- root node -->
            <feature>
              <rects>
                <_>
                  31 4 12 1 -1.</_>
                <_>
                  31 4 6 1 2.</_></rects>
              <tilted>1</tilted></feature>
            <threshold>6.1705159023404121e-03</threshold>
            <left_val>0.1428325027227402</left_val>
            <right_val>-0.3117110133171082</right_val></_></_>
        <_>
          <!-- tree 4 -->
          <_>
            <!-- root node -->
            <feature>
              <rects>
                <_>
                  12 4 1 12 -1.</_>
                <_>
                  12 4 1 6 2.</_></rects>
              <tilted>1</tilted></feature>
            <threshold>-5.3951479494571686e-03</threshold>
            <left_val>0.1555434018373489</left_val>
            <right_val>-0.3906511962413788</right_val></_></_>
        <_>
          <!-- tree 5 -->
          <_>
            <!-- root node -->
            <feature>
              <rects>
                <_>
                  2 11 39 3 -1.</_>
                <_>
                  15 12 13 1 9.</_></rects>
              <tilted>0</tilted></feature>
            <threshold>0.1584019958972931</threshold>
            <left_val>-0.0995088666677475</left_val>
            <right_val>0.5538508892059326</right_val></_></_>
        <_>
          <!-- tree 6 -->
          <_>
            <!-- root node -->
            <feature>
              <rects>
                <_>
                  13 6 15 8 -1.</_>
                <_>
                  18 6 5 8 3.</_></rects>
              <tilted>0</tilted></feature>
            <threshold>0.0661606490612030</threshold>
            <left_val>0.1007431969046593</left_val>
            <right_val>-0.6524267792701721</right_val></_></_>
        <_>
          <!-- tree 7 -->
          <_>
            <!-- root node -->
            <feature>
              <rects>
                <_>
                  15 0 18 6 -1.</_>
                <_>
                  24 0 9 3 2.</_>
                <_>
                  15 3 9 3 2.</_></rects>
              <tilted>0</tilted></feature>
            <threshold>0.0269566606730223</threshold>
            <left_val>0.0749632567167282</left_val>
            <right_val>-0.3388550877571106</right_val></_></_>
        <_>
          <!-- tree 8 -->
          <_>
            <!-- root node -->
            <feature>
              <rects>
                <_>
                  9 0 12 4 -1.</_>
                <_>
                  9 0 6 2 2.</_>
                <_>
                  15 2 6 2 2.</_></rects>
              <tilted>0</tilted></feature>
            <threshold>-1.9849240779876709e-03</threshold>
            <left_val>-0.3906092047691345</left_val>
            <right_val>0.1575274020433426</right_val></_></_>
        <_>
          <!-- tree 9 -->
          <_>
            <!-- root node -->
            <feature>
              <rects>
                <_>
                  2 6 39 6 -1.</_>
                <_>
                  15 8 13 2 9.</_></rects>
              <tilted>0</tilted></feature>
            <threshold>0.3401944935321808</threshold>
            <left_val>-0.1113715022802353</left_val>
            <right_val>0.5690538883209229</right_val></_></_>
        <_>
          <!-- tree 10 -->
          <_>
            <!-- root node -->
            <feature>
              <rects>
                <_>
                  10 3 8 4 -1.</_>
                <_>
                  9 4 8 2 2.</_></rects>
              <tilted>1</tilted></feature>
            <threshold>-0.0204630997031927</threshold>
            <left_val>0.5800247788429260</left_val>
            <right_val>-0.0870024710893631</right_val></_></_>
        <_>
          <!-- tree 11 -->
          <_>
            <!-- root node -->
            <feature>
              <rects>
                <_>
                  18 10 7 3 -1.</_>
                <_>
                  18 11 7 1 3.</_></rects>
              <tilted>0</tilted></feature>
            <threshold>1.9232659833505750e-03</threshold>
            <left_val>-0.2155282944440842</left_val>
            <right_val>0.2466277927160263</right_val></_></_>
        <_>
          <!-- tree 12 -->
          <_>
            <!-- root node -->
            <feature>
              <rects>
                <_>
                  17 11 9 6 -1.</_>
                <_>
                  17 13 9 2 3.</_></rects>
              <tilted>0</tilted></feature>
            <threshold>0.0199293904006481</threshold>
            <left_val>-0.1234901994466782</left_val>
            <right_val>0.5280969738960266</right_val></_></_>
        <_>
          <!-- tree 13 -->
          <_>
            <!-- root node -->
            <feature>
              <rects>
                <_>
                  5 6 33 5 -1.</_>
                <_>
                  16 6 11 5 3.</_></rects>
              <tilted>0</tilted></feature>
            <threshold>8.5910027846693993e-03</threshold>
            <left_val>-0.4434002041816711</left_val>
            <right_val>0.1239631995558739</right_val></_></_>
        <_>
          <!-- tree 14 -->
          <_>
            <!-- root node -->
            <feature>
              <rects>
                <_>
                  21 1 9 9 -1.</_>
                <_>
                  24 4 3 9 3.</_></rects>
              <tilted>1</tilted></feature>
            <threshold>0.0415406711399555</threshold>
            <left_val>0.1213266029953957</left_val>
            <right_val>-0.4075030088424683</right_val></_></_>
        <_>
          <!-- tree 15 -->
          <_>
            <!-- root node -->
            <feature>
              <rects>
                <_>
                  18 5 15 3 -1.</_>
                <_>
                  23 5 5 3 3.</_></rects>
              <tilted>0</tilted></feature>
            <threshold>0.0163718294352293</threshold>
            <left_val>0.0609311908483505</left_val>
            <right_val>-0.3749330937862396</right_val></_></_>
        <_>
          <!-- tree 16 -->
          <_>
            <!-- root node -->
            <feature>
              <rects>
                <_>
                  10 5 15 3 -1.</_>
                <_>
                  15 5 5 3 3.</_></rects>
              <tilted>0</tilted></feature>
            <threshold>0.0172961000353098</threshold>
            <left_val>0.1155648007988930</left_val>
            <right_val>-0.4908429980278015</right_val></_></_>
        <_>
          <!-- tree 17 -->
          <_>
            <!-- root node -->
            <feature>
              <rects>
                <_>
                  2 18 40 1 -1.</_>
                <_>
                  12 18 20 1 2.</_></rects>
              <tilted>0</tilted></feature>
            <threshold>9.1854296624660492e-03</threshold>
            <left_val>0.1282489001750946</left_val>
            <right_val>-0.3688330948352814</right_val></_></_>
        <_>
          <!-- tree 18 -->
          <_>
            <!-- root node -->
            <feature>
              <rects>
                <_>
                  0 13 5 6 -1.</_>
                <_>
                  0 15 5 2 3.</_></rects>
              <tilted>0</tilted></feature>
            <threshold>3.3392659388482571e-03</threshold>
            <left_val>0.0844687372446060</left_val>
            <right_val>-0.4881022870540619</right_val></_></_>
        <_>
          <!-- tree 19 -->
          <_>
            <!-- root node -->
            <feature>
              <rects>
                <_>
                  17 9 12 10 -1.</_>
                <_>
                  21 9 4 10 3.</_></rects>
              <tilted>0</tilted></feature>
            <threshold>-0.0230643004179001</threshold>
            <left_val>-0.4992058873176575</left_val>
            <right_val>0.0283135008066893</right_val></_></_>
        <_>
          <!-- tree 20 -->
          <_>
            <!-- root node -->
            <feature>
              <rects>
                <_>
                  12 6 12 13 -1.</_>
                <_>
                  15 6 6 13 2.</_></rects>
              <tilted>0</tilted></feature>
            <threshold>-0.0169549491256475</threshold>
            <left_val>-0.5646210908889771</left_val>
            <right_val>0.0730645135045052</right_val></_></_>
        <_>
          <!-- tree 21 -->
          <_>
            <!-- root node -->
            <feature>
              <rects>
                <_>
                  31 12 3 4 -1.</_>
                <_>
                  30 13 3 2 2.</_></rects>
              <tilted>1</tilted></feature>
            <threshold>5.8462079614400864e-03</threshold>
            <left_val>8.9844157919287682e-03</left_val>
            <right_val>-0.2442075014114380</right_val></_></_>
        <_>
          <!-- tree 22 -->
          <_>
            <!-- root node -->
            <feature>
              <rects>
                <_>
                  12 12 4 3 -1.</_>
                <_>
                  13 13 2 3 2.</_></rects>
              <tilted>1</tilted></feature>
            <threshold>-3.5399449989199638e-03</threshold>
            <left_val>-0.5638142824172974</left_val>
            <right_val>0.0748784169554710</right_val></_></_>
        <_>
          <!-- tree 23 -->
          <_>
            <!-- root node -->
            <feature>
              <rects>
                <_>
                  30 0 7 8 -1.</_>
                <_>
                  30 2 7 4 2.</_></rects>
              <tilted>0</tilted></feature>
            <threshold>5.2191112190485001e-03</threshold>
            <left_val>-0.2824448049068451</left_val>
            <right_val>0.2653157114982605</right_val></_></_>
        <_>
          <!-- tree 24 -->
          <_>
            <!-- root node -->
            <feature>
              <rects>
                <_>
                  8 0 22 10 -1.</_>
                <_>
                  8 0 11 5 2.</_>
                <_>
                  19 5 11 5 2.</_></rects>
              <tilted>0</tilted></feature>
            <threshold>3.4657919313758612e-03</threshold>
            <left_val>-0.3105485141277313</left_val>
            <right_val>0.1518687009811401</right_val></_></_>
        <_>
          <!-- tree 25 -->
          <_>
            <!-- root node -->
            <feature>
              <rects>
                <_>
                  15 5 13 3 -1.</_>
                <_>
                  15 6 13 1 3.</_></rects>
              <tilted>0</tilted></feature>
            <threshold>3.7460220046341419e-03</threshold>
            <left_val>-0.1403685957193375</left_val>
            <right_val>0.3041935861110687</right_val></_></_>
        <_>
          <!-- tree 26 -->
          <_>
            <!-- root node -->
            <feature>
              <rects>
                <_>
                  14 6 6 4 -1.</_>
                <_>
                  14 8 6 2 2.</_></rects>
              <tilted>0</tilted></feature>
            <threshold>6.8270158953964710e-03</threshold>
            <left_val>-0.1465037018060684</left_val>
            <right_val>0.3049496114253998</right_val></_></_>
        <_>
          <!-- tree 27 -->
          <_>
            <!-- root node -->
            <feature>
              <rects>
                <_>
                  2 3 40 6 -1.</_>
                <_>
                  12 3 20 6 2.</_></rects>
              <tilted>0</tilted></feature>
            <threshold>4.0635089389979839e-03</threshold>
            <left_val>-0.2959407866001129</left_val>
            <right_val>0.1325736045837402</right_val></_></_>
        <_>
          <!-- tree 28 -->
          <_>
            <!-- root node -->
            <feature>
              <rects>
                <_>
                  4 8 3 4 -1.</_>
                <_>
                  5 9 1 4 3.</_></rects>
              <tilted>1</tilted></feature>
            <threshold>2.5779679417610168e-03</threshold>
            <left_val>0.0652168318629265</left_val>
            <right_val>-0.5069066286087036</right_val></_></_>
        <_>
          <!-- tree 29 -->
          <_>
            <!-- root node -->
            <feature>
              <rects>
                <_>
                  18 15 7 4 -1.</_>
                <_>
                  18 16 7 2 2.</_></rects>
              <tilted>0</tilted></feature>
            <threshold>2.7840440161526203e-03</threshold>
            <left_val>-0.1296707987785339</left_val>
            <right_val>0.2805595993995667</right_val></_></_>
        <_>
          <!-- tree 30 -->
          <_>
            <!-- root node -->
            <feature>
              <rects>
                <_>
                  11 2 2 3 -1.</_>
                <_>
                  12 2 1 3 2.</_></rects>
              <tilted>0</tilted></feature>
            <threshold>1.2776280054822564e-03</threshold>
            <left_val>0.0623201094567776</left_val>
            <right_val>-0.5766574740409851</right_val></_></_>
        <_>
          <!-- tree 31 -->
          <_>
            <!-- root node -->
            <feature>
              <rects>
                <_>
                  25 1 8 5 -1.</_>
                <_>
                  27 1 4 5 2.</_></rects>
              <tilted>0</tilted></feature>
            <threshold>8.4426701068878174e-03</threshold>
            <left_val>0.0573107600212097</left_val>
            <right_val>-0.5317758917808533</right_val></_></_>
        <_>
          <!-- tree 32 -->
          <_>
            <!-- root node -->
            <feature>
              <rects>
                <_>
                  10 1 8 5 -1.</_>
                <_>
                  12 1 4 5 2.</_></rects>
              <tilted>0</tilted></feature>
            <threshold>-6.7758359946310520e-03</threshold>
            <left_val>-0.5855767130851746</left_val>
            <right_val>0.0570908300578594</right_val></_></_>
        <_>
          <!-- tree 33 -->
          <_>
            <!-- root node -->
            <feature>
              <rects>
                <_>
                  24 7 4 4 -1.</_>
                <_>
                  24 8 4 2 2.</_></rects>
              <tilted>0</tilted></feature>
            <threshold>-2.8834550175815821e-03</threshold>
            <left_val>0.2053046971559525</left_val>
            <right_val>-0.1153251007199287</right_val></_></_>
        <_>
          <!-- tree 34 -->
          <_>
            <!-- root node -->
            <feature>
              <rects>
                <_>
                  0 10 38 8 -1.</_>
                <_>
                  0 10 19 4 2.</_>
                <_>
                  19 14 19 4 2.</_></rects>
              <tilted>0</tilted></feature>
            <threshold>0.0351232215762138</threshold>
            <left_val>-0.1073146015405655</left_val>
            <right_val>0.3008972108364105</right_val></_></_>
        <_>
          <!-- tree 35 -->
          <_>
            <!-- root node -->
            <feature>
              <rects>
                <_>
                  12 7 20 12 -1.</_>
                <_>
                  22 7 10 6 2.</_>
                <_>
                  12 13 10 6 2.</_></rects>
              <tilted>0</tilted></feature>
            <threshold>-0.0446701683104038</threshold>
            <left_val>-0.3753452897071838</left_val>
            <right_val>0.1073175966739655</right_val></_></_>
        <_>
          <!-- tree 36 -->
          <_>
            <!-- root node -->
            <feature>
              <rects>
                <_>
                  0 13 9 3 -1.</_>
                <_>
                  0 14 9 1 3.</_></rects>
              <tilted>0</tilted></feature>
            <threshold>-5.4413831094279885e-04</threshold>
            <left_val>-0.4340269863605499</left_val>
            <right_val>0.0766430720686913</right_val></_></_></trees>
      <stage_threshold>-1.4744800329208374</stage_threshold>
      <parent>8</parent>
      <next>-1</next></_>
    <_>
      <!-- stage 10 -->
      <trees>
        <_>
          <!-- tree 0 -->
          <_>
            <!-- root node -->
            <feature>
              <rects>
                <_>
                  2 8 39 6 -1.</_>
                <_>
                  15 10 13 2 9.</_></rects>
              <tilted>0</tilted></feature>
            <threshold>0.3815797865390778</threshold>
            <left_val>-0.2436669021844864</left_val>
            <right_val>0.6498169898986816</right_val></_></_>
        <_>
          <!-- tree 1 -->
          <_>
            <!-- root node -->
            <feature>
              <rects>
                <_>
                  39 3 4 9 -1.</_>
                <_>
                  39 3 2 9 2.</_></rects>
              <tilted>1</tilted></feature>
            <threshold>0.0180130507797003</threshold>
            <left_val>-0.0714288502931595</left_val>
            <right_val>0.2776213884353638</right_val></_></_>
        <_>
          <!-- tree 2 -->
          <_>
            <!-- root node -->
            <feature>
              <rects>
                <_>
                  4 3 9 4 -1.</_>
                <_>
                  4 3 9 2 2.</_></rects>
              <tilted>1</tilted></feature>
            <threshold>-0.0277280900627375</threshold>
            <left_val>0.2730773091316223</left_val>
            <right_val>-0.3605104982852936</right_val></_></_>
        <_>
          <!-- tree 3 -->
          <_>
            <!-- root node -->
            <feature>
              <rects>
                <_>
                  12 7 19 6 -1.</_>
                <_>
                  12 9 19 2 3.</_></rects>
              <tilted>0</tilted></feature>
            <threshold>0.0526337213814259</threshold>
            <left_val>-0.1686605960130692</left_val>
            <right_val>0.4390625953674316</right_val></_></_>
        <_>
          <!-- tree 4 -->
          <_>
            <!-- root node -->
            <feature>
              <rects>
                <_>
                  16 9 11 6 -1.</_>
                <_>
                  16 11 11 2 3.</_></rects>
              <tilted>0</tilted></feature>
            <threshold>0.0288102403283119</threshold>
            <left_val>-0.1884039044380188</left_val>
            <right_val>0.3587963879108429</right_val></_></_>
        <_>
          <!-- tree 5 -->
          <_>
            <!-- root node -->
            <feature>
              <rects>
                <_>
                  2 18 40 1 -1.</_>
                <_>
                  12 18 20 1 2.</_></rects>
              <tilted>0</tilted></feature>
            <threshold>0.0147581100463867</threshold>
            <left_val>0.1255716979503632</left_val>
            <right_val>-0.5039486885070801</right_val></_></_>
        <_>
          <!-- tree 6 -->
          <_>
            <!-- root node -->
            <feature>
              <rects>
                <_>
                  2 5 39 4 -1.</_>
                <_>
                  15 5 13 4 3.</_></rects>
              <tilted>0</tilted></feature>
            <threshold>-9.3320682644844055e-03</threshold>
            <left_val>-0.4238430857658386</left_val>
            <right_val>0.1315682977437973</right_val></_></_>
        <_>
          <!-- tree 7 -->
          <_>
            <!-- root node -->
            <feature>
              <rects>
                <_>
                  22 1 9 9 -1.</_>
                <_>
                  19 4 9 3 3.</_></rects>
              <tilted>1</tilted></feature>
            <threshold>0.1048040986061096</threshold>
            <left_val>0.0137719903141260</left_val>
            <right_val>-0.6096686720848083</right_val></_></_>
        <_>
          <!-- tree 8 -->
          <_>
            <!-- root node -->
            <feature>
              <rects>
                <_>
                  16 1 10 18 -1.</_>
                <_>
                  16 1 5 9 2.</_>
                <_>
                  21 10 5 9 2.</_></rects>
              <tilted>0</tilted></feature>
            <threshold>-0.0240832306444645</threshold>
            <left_val>-0.4855610132217407</left_val>
            <right_val>0.1122962981462479</right_val></_></_>
        <_>
          <!-- tree 9 -->
          <_>
            <!-- root node -->
            <feature>
              <rects>
                <_>
                  16 12 11 3 -1.</_>
                <_>
                  16 13 11 1 3.</_></rects>
              <tilted>0</tilted></feature>
            <threshold>3.1878999434411526e-03</threshold>
            <left_val>-0.1311369985342026</left_val>
            <right_val>0.3426361978054047</right_val></_></_>
        <_>
          <!-- tree 10 -->
          <_>
            <!-- root node -->
            <feature>
              <rects>
                <_>
                  7 5 7 2 -1.</_>
                <_>
                  7 5 7 1 2.</_></rects>
              <tilted>1</tilted></feature>
            <threshold>-0.0106865596026182</threshold>
            <left_val>0.4162599146366119</left_val>
            <right_val>-0.1098240017890930</right_val></_></_>
        <_>
          <!-- tree 11 -->
          <_>
            <!-- root node -->
            <feature>
              <rects>
                <_>
                  7 8 36 5 -1.</_>
                <_>
                  16 8 18 5 2.</_></rects>
              <tilted>0</tilted></feature>
            <threshold>0.1187200993299484</threshold>
            <left_val>-0.0406973399221897</left_val>
            <right_val>0.1746190935373306</right_val></_></_>
        <_>
          <!-- tree 12 -->
          <_>
            <!-- root node -->
            <feature>
              <rects>
                <_>
                  16 11 10 4 -1.</_>
                <_>
                  16 12 10 2 2.</_></rects>
              <tilted>0</tilted></feature>
            <threshold>-5.9916130267083645e-03</threshold>
            <left_val>0.2957186102867126</left_val>
            <right_val>-0.1561757028102875</right_val></_></_>
        <_>
          <!-- tree 13 -->
          <_>
            <!-- root node -->
            <feature>
              <rects>
                <_>
                  41 0 1 16 -1.</_>
                <_>
                  41 8 1 8 2.</_></rects>
              <tilted>0</tilted></feature>
            <threshold>1.6402630135416985e-03</threshold>
            <left_val>-0.1709545999765396</left_val>
            <right_val>0.2322050929069519</right_val></_></_>
        <_>
          <!-- tree 14 -->
          <_>
            <!-- root node -->
            <feature>
              <rects>
                <_>
                  4 0 17 2 -1.</_>
                <_>
                  4 1 17 1 2.</_></rects>
              <tilted>0</tilted></feature>
            <threshold>-2.7718299534171820e-03</threshold>
            <left_val>-0.4354327023029327</left_val>
            <right_val>0.1050003021955490</right_val></_></_>
        <_>
          <!-- tree 15 -->
          <_>
            <!-- root node -->
            <feature>
              <rects>
                <_>
                  1 2 42 10 -1.</_>
                <_>
                  22 2 21 5 2.</_>
                <_>
                  1 7 21 5 2.</_></rects>
              <tilted>0</tilted></feature>
            <threshold>-0.0808780565857887</threshold>
            <left_val>-0.4995112121105194</left_val>
            <right_val>0.1072824001312256</right_val></_></_>
        <_>
          <!-- tree 16 -->
          <_>
            <!-- root node -->
            <feature>
              <rects>
                <_>
                  12 9 4 6 -1.</_>
                <_>
                  12 9 2 6 2.</_></rects>
              <tilted>1</tilted></feature>
            <threshold>8.9617948979139328e-03</threshold>
            <left_val>0.0606549307703972</left_val>
            <right_val>-0.5800917744636536</right_val></_></_>
        <_>
          <!-- tree 17 -->
          <_>
            <!-- root node -->
            <feature>
              <rects>
                <_>
                  33 14 10 3 -1.</_>
                <_>
                  33 15 10 1 3.</_></rects>
              <tilted>0</tilted></feature>
            <threshold>1.4076719526201487e-04</threshold>
            <left_val>-0.1555591970682144</left_val>
            <right_val>0.1075770035386086</right_val></_></_>
        <_>
          <!-- tree 18 -->
          <_>
            <!-- root node -->
            <feature>
              <rects>
                <_>
                  13 9 12 10 -1.</_>
                <_>
                  17 9 4 10 3.</_></rects>
              <tilted>0</tilted></feature>
            <threshold>-0.0271174106746912</threshold>
            <left_val>-0.7411568760871887</left_val>
            <right_val>0.0572232604026794</right_val></_></_>
        <_>
          <!-- tree 19 -->
          <_>
            <!-- root node -->
            <feature>
              <rects>
                <_>
                  15 7 16 6 -1.</_>
                <_>
                  19 7 8 6 2.</_></rects>
              <tilted>0</tilted></feature>
            <threshold>0.0608387999236584</threshold>
            <left_val>0.0282426793128252</left_val>
            <right_val>-0.6119884848594666</right_val></_></_>
        <_>
          <!-- tree 20 -->
          <_>
            <!-- root node -->
            <feature>
              <rects>
                <_>
                  0 14 10 3 -1.</_>
                <_>
                  0 15 10 1 3.</_></rects>
              <tilted>0</tilted></feature>
            <threshold>-9.5330469775944948e-04</threshold>
            <left_val>-0.5088552832603455</left_val>
            <right_val>0.0684622228145599</right_val></_></_>
        <_>
          <!-- tree 21 -->
          <_>
            <!-- root node -->
            <feature>
              <rects>
                <_>
                  13 15 28 2 -1.</_>
                <_>
                  27 15 14 1 2.</_>
                <_>
                  13 16 14 1 2.</_></rects>
              <tilted>0</tilted></feature>
            <threshold>-4.7166929580271244e-03</threshold>
            <left_val>0.1310510933399200</left_val>
            <right_val>-0.0509464517235756</right_val></_></_>
        <_>
          <!-- tree 22 -->
          <_>
            <!-- root node -->
            <feature>
              <rects>
                <_>
                  21 0 17 2 -1.</_>
                <_>
                  21 0 17 1 2.</_></rects>
              <tilted>1</tilted></feature>
            <threshold>8.3969328552484512e-03</threshold>
            <left_val>0.0557951182126999</left_val>
            <right_val>-0.6289284825325012</right_val></_></_>
        <_>
          <!-- tree 23 -->
          <_>
            <!-- root node -->
            <feature>
              <rects>
                <_>
                  21 0 22 7 -1.</_>
                <_>
                  21 0 11 7 2.</_></rects>
              <tilted>0</tilted></feature>
            <threshold>0.1410444974899292</threshold>
            <left_val>0.0282161403447390</left_val>
            <right_val>-0.6066805720329285</right_val></_></_>
        <_>
          <!-- tree 24 -->
          <_>
            <!-- root node -->
            <feature>
              <rects>
                <_>
                  7 1 6 1 -1.</_>
                <_>
                  9 1 2 1 3.</_></rects>
              <tilted>0</tilted></feature>
            <threshold>-1.2325759744271636e-03</threshold>
            <left_val>-0.5003272891044617</left_val>
            <right_val>0.0649600401520729</right_val></_></_>
        <_>
          <!-- tree 25 -->
          <_>
            <!-- root node -->
            <feature>
              <rects>
                <_>
                  22 10 3 2 -1.</_>
                <_>
                  23 11 1 2 3.</_></rects>
              <tilted>1</tilted></feature>
            <threshold>2.4340550880879164e-03</threshold>
            <left_val>-0.0491034910082817</left_val>
            <right_val>0.1198386996984482</right_val></_></_>
        <_>
          <!-- tree 26 -->
          <_>
            <!-- root node -->
            <feature>
              <rects>
                <_>
                  12 15 2 2 -1.</_>
                <_>
                  12 15 1 2 2.</_></rects>
              <tilted>1</tilted></feature>
            <threshold>1.4704290078952909e-03</threshold>
            <left_val>0.0626820027828217</left_val>
            <right_val>-0.5426105856895447</right_val></_></_>
        <_>
          <!-- tree 27 -->
          <_>
            <!-- root node -->
            <feature>
              <rects>
                <_>
                  21 0 22 7 -1.</_>
                <_>
                  21 0 11 7 2.</_></rects>
              <tilted>0</tilted></feature>
            <threshold>0.1972503960132599</threshold>
            <left_val>-5.4598459973931313e-04</left_val>
            <right_val>-1.0000499486923218</right_val></_></_>
        <_>
          <!-- tree 28 -->
          <_>
            <!-- root node -->
            <feature>
              <rects>
                <_>
                  0 0 22 7 -1.</_>
                <_>
                  11 0 11 7 2.</_></rects>
              <tilted>0</tilted></feature>
            <threshold>0.1170732006430626</threshold>
            <left_val>0.0634456127882004</left_val>
            <right_val>-0.5398939251899719</right_val></_></_>
        <_>
          <!-- tree 29 -->
          <_>
            <!-- root node -->
            <feature>
              <rects>
                <_>
                  26 1 8 4 -1.</_>
                <_>
                  28 1 4 4 2.</_></rects>
              <tilted>0</tilted></feature>
            <threshold>-5.6613278575241566e-03</threshold>
            <left_val>-0.4061600863933563</left_val>
            <right_val>0.0442203804850578</right_val></_></_>
        <_>
          <!-- tree 30 -->
          <_>
            <!-- root node -->
            <feature>
              <rects>
                <_>
                  3 9 8 2 -1.</_>
                <_>
                  3 10 8 1 2.</_></rects>
              <tilted>0</tilted></feature>
            <threshold>1.0695490054786205e-03</threshold>
            <left_val>-0.2057640999555588</left_val>
            <right_val>0.1480305939912796</right_val></_></_>
        <_>
          <!-- tree 31 -->
          <_>
            <!-- root node -->
            <feature>
              <rects>
                <_>
                  8 7 27 6 -1.</_>
                <_>
                  17 7 9 6 3.</_></rects>
              <tilted>0</tilted></feature>
            <threshold>-0.0120720798149705</threshold>
